<?xml version="1.0"?>
<MethodSetup Method="Category::BDTCat">
  <GeneralInfo>
    <Info name="TMVA Release" value="4.2.1 [262657]"/>
    <Info name="ROOT Release" value="6.12/07 [396295]"/>
    <Info name="Creator" value="psiddire"/>
    <Info name="Date" value="Sat Oct  5 08:26:39 2019"/>
    <Info name="Host" value="Linux vocms0301.cern.ch 2.6.32-696.30.1.el6.x86_64 #1 SMP Tue May 22 06:09:36 CEST 2018 x86_64 x86_64 x86_64 GNU/Linux"/>
    <Info name="Dir" value="/afs/hep.wisc.edu/user/psiddire/CMSSW_10_2_10/src/UWHiggs/ethpf"/>
    <Info name="Training events" value="156168"/>
    <Info name="TrainingTime" value="1.64213545e+02"/>
    <Info name="AnalysisType" value="Classification"/>
  </GeneralInfo>
  <Options>
    <Option name="V" modified="No">False</Option>
    <Option name="VerbosityLevel" modified="No">Default</Option>
    <Option name="VarTransform" modified="No">None</Option>
    <Option name="H" modified="No">False</Option>
    <Option name="CreateMVAPdfs" modified="No">False</Option>
    <Option name="IgnoreNegWeightsInTraining" modified="No">False</Option>
  </Options>
  <Variables NVar="8">
    <Variable VarIndex="0" Expression="ePt" Label="ePt" Title="ePt" Unit="" Internal="ePt" Type="F" Min="2.10870667e+01" Max="7.24909607e+02"/>
    <Variable VarIndex="1" Expression="tPt" Label="tPt" Title="tPt" Unit="" Internal="tPt" Type="F" Min="2.99401131e+01" Max="6.57174622e+02"/>
    <Variable VarIndex="2" Expression="dPhiETau" Label="dPhiETau" Title="dPhiETau" Unit="" Internal="dPhiETau" Type="F" Min="1.80602074e-05" Max="3.14157844e+00"/>
    <Variable VarIndex="3" Expression="dEtaETau" Label="dEtaETau" Title="dEtaETau" Unit="" Internal="dEtaETau" Type="F" Min="5.84125519e-06" Max="4.38224268e+00"/>
    <Variable VarIndex="4" Expression="e_t_collinearMass" Label="e_t_collinearMass" Title="e_t_collinearMass" Unit="" Internal="e_t_collinearMass" Type="F" Min="1.76193142e+01" Max="2.13164258e+03"/>
    <Variable VarIndex="5" Expression="e_t_visibleMass" Label="e_t_visibleMass" Title="e_t_visibleMass" Unit="" Internal="e_t_visibleMass" Type="F" Min="1.59975290e+01" Max="1.11762268e+03"/>
    <Variable VarIndex="6" Expression="MTTauMET" Label="MTTauMET" Title="MTTauMET" Unit="" Internal="MTTauMET" Type="F" Min="5.82928844e-02" Max="7.09057068e+02"/>
    <Variable VarIndex="7" Expression="dPhiTauMET" Label="dPhiTauMET" Title="dPhiTauMET" Unit="" Internal="dPhiTauMET" Type="F" Min="5.95421511e-07" Max="2.29999161e+00"/>
  </Variables>
  <Spectators NSpec="2">
    <Spectator SpecIndex="0" Expression="njets" Label="njets" Title="I" Unit="" Internal="njets" Type="F" Min="0.00000000e+00" Max="2.00000000e+00"/>
    <Spectator SpecIndex="1" Expression="vbfMass" Label="vbfMass" Title="F" Unit="" Internal="vbfMass" Type="F" Min="0.00000000e+00" Max="7.73517969e+03"/>
  </Spectators>
  <Classes NClass="2">
    <Class Name="Signal" Index="0"/>
    <Class Name="Background" Index="1"/>
  </Classes>
  <Transformations NTransformations="0"/>
  <MVAPdfs/>
  <Weights NSubMethods="4">
    <SubMethod Index="0" Method="BDT::Category_BDT_1" Cut="njets==0" Variables="ePt:tPt:dPhiETau:dEtaETau:e_t_collinearMass:e_t_visibleMass:MTTauMET:dPhiTauMET">
      <GeneralInfo>
        <Info name="TMVA Release" value="4.2.1 [262657]"/>
        <Info name="ROOT Release" value="6.12/07 [396295]"/>
        <Info name="Creator" value="psiddire"/>
        <Info name="Date" value="Sat Oct  5 08:26:39 2019"/>
        <Info name="Host" value="Linux vocms0301.cern.ch 2.6.32-696.30.1.el6.x86_64 #1 SMP Tue May 22 06:09:36 CEST 2018 x86_64 x86_64 x86_64 GNU/Linux"/>
        <Info name="Dir" value="/afs/hep.wisc.edu/user/psiddire/CMSSW_10_2_10/src/UWHiggs/ethpf"/>
        <Info name="Training events" value="66028"/>
        <Info name="TrainingTime" value="6.91883881e+01"/>
        <Info name="AnalysisType" value="Classification"/>
      </GeneralInfo>
      <Options>
        <Option name="V" modified="Yes">False</Option>
        <Option name="VerbosityLevel" modified="No">Default</Option>
        <Option name="VarTransform" modified="No">None</Option>
        <Option name="H" modified="Yes">False</Option>
        <Option name="CreateMVAPdfs" modified="No">False</Option>
        <Option name="IgnoreNegWeightsInTraining" modified="No">False</Option>
        <Option name="NTrees" modified="Yes">100</Option>
        <Option name="MaxDepth" modified="Yes">3</Option>
        <Option name="MinNodeSize" modified="Yes">2.5%</Option>
        <Option name="nCuts" modified="Yes">20</Option>
        <Option name="BoostType" modified="Yes">AdaBoost</Option>
        <Option name="AdaBoostR2Loss" modified="No">quadratic</Option>
        <Option name="UseBaggedBoost" modified="No">False</Option>
        <Option name="Shrinkage" modified="No">1.000000e+00</Option>
        <Option name="AdaBoostBeta" modified="Yes">5.000000e-01</Option>
        <Option name="UseRandomisedTrees" modified="No">False</Option>
        <Option name="UseNvars" modified="No">3</Option>
        <Option name="UsePoissonNvars" modified="No">True</Option>
        <Option name="BaggedSampleFraction" modified="No">6.000000e-01</Option>
        <Option name="UseYesNoLeaf" modified="No">True</Option>
        <Option name="NegWeightTreatment" modified="No">inverseboostnegweights</Option>
        <Option name="Css" modified="No">1.000000e+00</Option>
        <Option name="Cts_sb" modified="No">1.000000e+00</Option>
        <Option name="Ctb_ss" modified="No">1.000000e+00</Option>
        <Option name="Cbb" modified="No">1.000000e+00</Option>
        <Option name="NodePurityLimit" modified="No">5.000000e-01</Option>
        <Option name="SeparationType" modified="Yes">giniindex</Option>
        <Option name="RegressionLossFunctionBDTG" modified="No">huber</Option>
        <Option name="HuberQuantile" modified="No">7.000000e-01</Option>
        <Option name="DoBoostMonitor" modified="No">False</Option>
        <Option name="UseFisherCuts" modified="Yes">True</Option>
        <Option name="MinLinCorrForFisher" modified="No">8.000000e-01</Option>
        <Option name="UseExclusiveVars" modified="No">False</Option>
        <Option name="DoPreselection" modified="No">False</Option>
        <Option name="SigToBkgFraction" modified="No">1.000000e+00</Option>
        <Option name="PruneMethod" modified="No">nopruning</Option>
        <Option name="PruneStrength" modified="No">0.000000e+00</Option>
        <Option name="PruningValFraction" modified="No">5.000000e-01</Option>
        <Option name="SkipNormalization" modified="No">False</Option>
        <Option name="nEventsMin" modified="No">0</Option>
        <Option name="UseBaggedGrad" modified="No">False</Option>
        <Option name="GradBaggingFraction" modified="No">6.000000e-01</Option>
        <Option name="UseNTrainEvents" modified="No">0</Option>
        <Option name="NNodesMax" modified="No">0</Option>
      </Options>
      <Variables NVar="8">
        <Variable VarIndex="0" Expression="ePt" Label="ePt" Title="ePt" Unit="" Internal="ePt" Type="F" Min="2.38433113e+01" Max="5.87287659e+02"/>
        <Variable VarIndex="1" Expression="tPt" Label="tPt" Title="tPt" Unit="" Internal="tPt" Type="F" Min="2.99411831e+01" Max="4.03690918e+02"/>
        <Variable VarIndex="2" Expression="dPhiETau" Label="dPhiETau" Title="dPhiETau" Unit="" Internal="dPhiETau" Type="F" Min="7.07387924e-04" Max="3.14158511e+00"/>
        <Variable VarIndex="3" Expression="dEtaETau" Label="dEtaETau" Title="dEtaETau" Unit="" Internal="dEtaETau" Type="F" Min="6.31809235e-06" Max="4.37189388e+00"/>
        <Variable VarIndex="4" Expression="e_t_collinearMass" Label="e_t_collinearMass" Title="e_t_collinearMass" Unit="" Internal="e_t_collinearMass" Type="F" Min="1.96882229e+01" Max="1.55887915e+03"/>
        <Variable VarIndex="5" Expression="e_t_visibleMass" Label="e_t_visibleMass" Title="e_t_visibleMass" Unit="" Internal="e_t_visibleMass" Type="F" Min="1.61659279e+01" Max="1.40265405e+03"/>
        <Variable VarIndex="6" Expression="MTTauMET" Label="MTTauMET" Title="MTTauMET" Unit="" Internal="MTTauMET" Type="F" Min="6.52359203e-02" Max="3.97119446e+02"/>
        <Variable VarIndex="7" Expression="dPhiTauMET" Label="dPhiTauMET" Title="dPhiTauMET" Unit="" Internal="dPhiTauMET" Type="F" Min="5.95421511e-07" Max="2.29999161e+00"/>
      </Variables>
      <Classes NClass="2">
        <Class Name="Signal" Index="0"/>
        <Class Name="Background" Index="1"/>
      </Classes>
      <Transformations NTransformations="0"/>
      <MVAPdfs/>
      <Weights NTrees="100" AnalysisType="0">
        <BinaryTree type="DecisionTree" boostWeight="5.4073202209845705e-01" itree="0">
          <Node pos="s" depth="0" NCoef="0" IVar="5" Cut="8.2189170837402344e+01" cType="0" res="-9.9000000000000000e+01" rms="0.0000000000000000e+00" purity="5.0000000000000000e-01" nType="0">
            <Node pos="l" depth="1" NCoef="0" IVar="5" Cut="1.4506892395019531e+02" cType="1" res="-9.9000000000000000e+01" rms="0.0000000000000000e+00" purity="5.7709151506423950e-01" nType="0">
              <Node pos="l" depth="2" NCoef="0" IVar="5" Cut="1.2710007476806641e+02" cType="1" res="-9.9000000000000000e+01" rms="0.0000000000000000e+00" purity="6.3676220178604126e-01" nType="0">
                <Node pos="l" depth="3" NCoef="0" IVar="-1" Cut="0.0000000000000000e+00" cType="1" res="-9.9000000000000000e+01" rms="0.0000000000000000e+00" purity="6.6905915737152100e-01" nType="1"/>
                <Node pos="r" depth="3" NCoef="0" IVar="-1" Cut="0.0000000000000000e+00" cType="1" res="-9.9000000000000000e+01" rms="0.0000000000000000e+00" purity="1.1869993060827255e-01" nType="-1"/>
              </Node>
              <Node pos="r" depth="2" NCoef="0" IVar="-1" Cut="1.8744390010833740e+00" cType="1" res="-9.9000000000000000e+01" rms="0.0000000000000000e+00" purity="2.5730035267770290e-03" nType="-1"/>
            </Node>
            <Node pos="r" depth="1" NCoef="0" IVar="-1" Cut="7.9040199279785156e+01" cType="0" res="-9.9000000000000000e+01" rms="0.0000000000000000e+00" purity="4.2240854352712631e-02" nType="-1"/>
          </Node>
        </BinaryTree>
        <BinaryTree type="DecisionTree" boostWeight="3.5114258320794339e-01" itree="1">
          <Node pos="s" depth="0" NCoef="0" IVar="5" Cut="8.2189170837402344e+01" cType="0" res="-9.9000000000000000e+01" rms="0.0000000000000000e+00" purity="4.2255550622940063e-01" nType="0">
            <Node pos="l" depth="1" NCoef="0" IVar="5" Cut="1.4506892395019531e+02" cType="1" res="-9.9000000000000000e+01" rms="0.0000000000000000e+00" purity="4.7214224934577942e-01" nType="0">
              <Node pos="l" depth="2" NCoef="0" IVar="1" Cut="4.5978752136230469e+01" cType="0" res="-9.9000000000000000e+01" rms="0.0000000000000000e+00" purity="5.1088654994964600e-01" nType="0">
                <Node pos="l" depth="3" NCoef="0" IVar="-1" Cut="0.0000000000000000e+00" cType="1" res="-9.9000000000000000e+01" rms="0.0000000000000000e+00" purity="6.9481295347213745e-01" nType="1"/>
                <Node pos="r" depth="3" NCoef="0" IVar="-1" Cut="0.0000000000000000e+00" cType="1" res="-9.9000000000000000e+01" rms="0.0000000000000000e+00" purity="4.3601405620574951e-01" nType="-1"/>
              </Node>
              <Node pos="r" depth="2" NCoef="0" IVar="-1" Cut="1.8744390010833740e+00" cType="1" res="-9.9000000000000000e+01" rms="0.0000000000000000e+00" purity="4.4103856198489666e-03" nType="-1"/>
            </Node>
            <Node pos="r" depth="1" NCoef="0" IVar="-1" Cut="7.5896484375000000e+01" cType="0" res="-9.9000000000000000e+01" rms="0.0000000000000000e+00" purity="7.0405542850494385e-02" nType="-1"/>
          </Node>
        </BinaryTree>
        <BinaryTree type="DecisionTree" boostWeight="3.5826682919351444e-01" itree="2">
          <Node pos="s" depth="0" NCoef="0" IVar="5" Cut="8.2189170837402344e+01" cType="0" res="-9.9000000000000000e+01" rms="0.0000000000000000e+00" purity="4.6596151590347290e-01" nType="0">
            <Node pos="l" depth="1" NCoef="0" IVar="5" Cut="1.4506892395019531e+02" cType="1" res="-9.9000000000000000e+01" rms="0.0000000000000000e+00" purity="5.1214963197708130e-01" nType="0">
              <Node pos="l" depth="2" NCoef="0" IVar="0" Cut="4.4334011077880859e+01" cType="0" res="-9.9000000000000000e+01" rms="0.0000000000000000e+00" purity="5.4801446199417114e-01" nType="0">
                <Node pos="l" depth="3" NCoef="0" IVar="-1" Cut="0.0000000000000000e+00" cType="1" res="-9.9000000000000000e+01" rms="0.0000000000000000e+00" purity="6.0328692197799683e-01" nType="1"/>
                <Node pos="r" depth="3" NCoef="0" IVar="-1" Cut="0.0000000000000000e+00" cType="1" res="-9.9000000000000000e+01" rms="0.0000000000000000e+00" purity="3.2149213552474976e-01" nType="-1"/>
              </Node>
              <Node pos="r" depth="2" NCoef="0" IVar="-1" Cut="2.0825603008270264e+00" cType="1" res="-9.9000000000000000e+01" rms="0.0000000000000000e+00" purity="6.2541859224438667e-03" nType="-1"/>
            </Node>
            <Node pos="r" depth="1" NCoef="0" IVar="-1" Cut="7.5896484375000000e+01" cType="0" res="-9.9000000000000000e+01" rms="0.0000000000000000e+00" purity="9.7147054970264435e-02" nType="-1"/>
          </Node>
        </BinaryTree>
        <BinaryTree type="DecisionTree" boostWeight="3.6561410666642130e-01" itree="3">
          <Node pos="s" depth="0" NCoef="0" IVar="2" Cut="2.5433228015899658e+00" cType="0" res="-9.9000000000000000e+01" rms="0.0000000000000000e+00" purity="4.3118873238563538e-01" nType="0">
            <Node pos="l" depth="1" NCoef="0" IVar="5" Cut="1.2138835144042969e+02" cType="1" res="-9.9000000000000000e+01" rms="0.0000000000000000e+00" purity="4.7696408629417419e-01" nType="0">
              <Node pos="l" depth="2" NCoef="0" IVar="5" Cut="9.0881828308105469e+01" cType="0" res="-9.9000000000000000e+01" rms="0.0000000000000000e+00" purity="5.2494746446609497e-01" nType="0">
                <Node pos="l" depth="3" NCoef="0" IVar="-1" Cut="0.0000000000000000e+00" cType="1" res="-9.9000000000000000e+01" rms="0.0000000000000000e+00" purity="5.9941279888153076e-01" nType="1"/>
                <Node pos="r" depth="3" NCoef="0" IVar="-1" Cut="0.0000000000000000e+00" cType="1" res="-9.9000000000000000e+01" rms="0.0000000000000000e+00" purity="2.7605479955673218e-01" nType="-1"/>
              </Node>
              <Node pos="r" depth="2" NCoef="0" IVar="-1" Cut="1.9023312377929688e+02" cType="1" res="-9.9000000000000000e+01" rms="0.0000000000000000e+00" purity="2.3699004948139191e-01" nType="-1"/>
            </Node>
            <Node pos="r" depth="1" NCoef="0" IVar="-1" Cut="4.3929412841796875e+01" cType="1" res="-9.9000000000000000e+01" rms="0.0000000000000000e+00" purity="2.0253787934780121e-01" nType="-1"/>
          </Node>
        </BinaryTree>
        <BinaryTree type="DecisionTree" boostWeight="1.6349172066943649e-01" itree="4">
          <Node pos="s" depth="0" NCoef="0" IVar="-1" Cut="1.4821241760253906e+02" cType="1" res="-9.9000000000000000e+01" rms="0.0000000000000000e+00" purity="4.1897478699684143e-01" nType="-1"/>
        </BinaryTree>
        <BinaryTree type="DecisionTree" boostWeight="1.5022375968238003e-01" itree="5">
          <Node pos="s" depth="0" NCoef="0" IVar="5" Cut="1.4821241760253906e+02" cType="1" res="-9.9000000000000000e+01" rms="0.0000000000000000e+00" purity="4.5924419164657593e-01" nType="0">
            <Node pos="l" depth="1" NCoef="0" IVar="5" Cut="7.9044181823730469e+01" cType="0" res="-9.9000000000000000e+01" rms="0.0000000000000000e+00" purity="4.7740477323532104e-01" nType="0">
              <Node pos="l" depth="2" NCoef="0" IVar="5" Cut="1.3174227905273438e+02" cType="1" res="-9.9000000000000000e+01" rms="0.0000000000000000e+00" purity="5.0517082214355469e-01" nType="0">
                <Node pos="l" depth="3" NCoef="0" IVar="-1" Cut="0.0000000000000000e+00" cType="1" res="-9.9000000000000000e+01" rms="0.0000000000000000e+00" purity="5.1953405141830444e-01" nType="1"/>
                <Node pos="r" depth="3" NCoef="0" IVar="-1" Cut="0.0000000000000000e+00" cType="1" res="-9.9000000000000000e+01" rms="0.0000000000000000e+00" purity="6.7441470921039581e-02" nType="-1"/>
              </Node>
              <Node pos="r" depth="2" NCoef="0" IVar="-1" Cut="7.3054023742675781e+01" cType="0" res="-9.9000000000000000e+01" rms="0.0000000000000000e+00" purity="1.0905212908983231e-01" nType="-1"/>
            </Node>
            <Node pos="r" depth="1" NCoef="0" IVar="-1" Cut="0.0000000000000000e+00" cType="1" res="-9.9000000000000000e+01" rms="0.0000000000000000e+00" purity="1.4276832342147827e-02" nType="-1"/>
          </Node>
        </BinaryTree>
        <BinaryTree type="DecisionTree" boostWeight="2.4342534995733608e-01" itree="6">
          <Node pos="s" depth="0" NCoef="0" IVar="5" Cut="1.4821241760253906e+02" cType="1" res="-9.9000000000000000e+01" rms="0.0000000000000000e+00" purity="4.3044108152389526e-01" nType="0">
            <Node pos="l" depth="1" NCoef="0" IVar="4" Cut="1.0079998779296875e+02" cType="0" res="-9.9000000000000000e+01" rms="0.0000000000000000e+00" purity="4.4621455669403076e-01" nType="0">
              <Node pos="l" depth="2" NCoef="0" IVar="6" Cut="5.2483718872070312e+01" cType="1" res="-9.9000000000000000e+01" rms="0.0000000000000000e+00" purity="4.7992005944252014e-01" nType="0">
                <Node pos="l" depth="3" NCoef="0" IVar="-1" Cut="0.0000000000000000e+00" cType="1" res="-9.9000000000000000e+01" rms="0.0000000000000000e+00" purity="5.4864591360092163e-01" nType="1"/>
                <Node pos="r" depth="3" NCoef="0" IVar="-1" Cut="0.0000000000000000e+00" cType="1" res="-9.9000000000000000e+01" rms="0.0000000000000000e+00" purity="3.7374487519264221e-01" nType="-1"/>
              </Node>
              <Node pos="r" depth="2" NCoef="0" IVar="-1" Cut="7.2508186340332031e+01" cType="0" res="-9.9000000000000000e+01" rms="0.0000000000000000e+00" purity="2.0938424766063690e-01" nType="-1"/>
            </Node>
            <Node pos="r" depth="1" NCoef="0" IVar="-1" Cut="0.0000000000000000e+00" cType="1" res="-9.9000000000000000e+01" rms="0.0000000000000000e+00" purity="1.6552716493606567e-02" nType="-1"/>
          </Node>
        </BinaryTree>
        <BinaryTree type="DecisionTree" boostWeight="2.8924603353809875e-01" itree="7">
          <Node pos="s" depth="0" NCoef="0" IVar="5" Cut="1.4821241760253906e+02" cType="1" res="-9.9000000000000000e+01" rms="0.0000000000000000e+00" purity="4.2638173699378967e-01" nType="0">
            <Node pos="l" depth="1" NCoef="0" IVar="1" Cut="3.7959968566894531e+01" cType="0" res="-9.9000000000000000e+01" rms="0.0000000000000000e+00" purity="4.4036120176315308e-01" nType="0">
              <Node pos="l" depth="2" NCoef="0" IVar="5" Cut="9.8921432495117188e+01" cType="0" res="-9.9000000000000000e+01" rms="0.0000000000000000e+00" purity="5.2128422260284424e-01" nType="0">
                <Node pos="l" depth="3" NCoef="0" IVar="-1" Cut="0.0000000000000000e+00" cType="1" res="-9.9000000000000000e+01" rms="0.0000000000000000e+00" purity="5.8539551496505737e-01" nType="1"/>
                <Node pos="r" depth="3" NCoef="0" IVar="-1" Cut="0.0000000000000000e+00" cType="1" res="-9.9000000000000000e+01" rms="0.0000000000000000e+00" purity="2.8974258899688721e-01" nType="-1"/>
              </Node>
              <Node pos="r" depth="2" NCoef="0" IVar="-1" Cut="7.2755165100097656e+01" cType="0" res="-9.9000000000000000e+01" rms="0.0000000000000000e+00" purity="3.5305288434028625e-01" nType="-1"/>
            </Node>
            <Node pos="r" depth="1" NCoef="0" IVar="-1" Cut="0.0000000000000000e+00" cType="1" res="-9.9000000000000000e+01" rms="0.0000000000000000e+00" purity="2.1018942818045616e-02" nType="-1"/>
          </Node>
        </BinaryTree>
        <BinaryTree type="DecisionTree" boostWeight="1.6576713814666791e-01" itree="8">
          <Node pos="s" depth="0" NCoef="9" fC0="0.0000000000000000e+00" fC1="0.0000000000000000e+00" fC2="0.0000000000000000e+00" fC3="0.0000000000000000e+00" fC4="-1.2290068619641057e-03" fC5="-5.7478195645280002e-06" fC6="0.0000000000000000e+00" fC7="0.0000000000000000e+00" fC8="1.6313569225330374e-01" IVar="8" Cut="-4.2083956301212311e-02" cType="0" res="-9.9000000000000000e+01" rms="0.0000000000000000e+00" purity="4.3906649947166443e-01" nType="0">
            <Node pos="l" depth="1" NCoef="0" IVar="5" Cut="7.2615638732910156e+01" cType="0" res="-9.9000000000000000e+01" rms="0.0000000000000000e+00" purity="4.6374136209487915e-01" nType="0">
              <Node pos="l" depth="2" NCoef="0" IVar="7" Cut="1.2047578096389771e+00" cType="1" res="-9.9000000000000000e+01" rms="0.0000000000000000e+00" purity="4.7841301560401917e-01" nType="0">
                <Node pos="l" depth="3" NCoef="0" IVar="-1" Cut="0.0000000000000000e+00" cType="1" res="-9.9000000000000000e+01" rms="0.0000000000000000e+00" purity="5.1756983995437622e-01" nType="1"/>
                <Node pos="r" depth="3" NCoef="0" IVar="-1" Cut="0.0000000000000000e+00" cType="1" res="-9.9000000000000000e+01" rms="0.0000000000000000e+00" purity="3.8831281661987305e-01" nType="-1"/>
              </Node>
              <Node pos="r" depth="2" NCoef="0" IVar="-1" Cut="0.0000000000000000e+00" cType="1" res="-9.9000000000000000e+01" rms="0.0000000000000000e+00" purity="5.4515644907951355e-02" nType="-1"/>
            </Node>
            <Node pos="r" depth="1" NCoef="9" fC0="0.0000000000000000e+00" fC1="0.0000000000000000e+00" fC2="0.0000000000000000e+00" fC3="0.0000000000000000e+00" fC4="8.5015370695893332e-04" fC5="-5.6401820723115765e-03" fC6="0.0000000000000000e+00" fC7="0.0000000000000000e+00" fC8="5.8568706778527202e-01" IVar="-1" Cut="-8.4498310461640358e-03" cType="0" res="-9.9000000000000000e+01" rms="0.0000000000000000e+00" purity="2.2535507380962372e-01" nType="-1"/>
          </Node>
        </BinaryTree>
        <BinaryTree type="DecisionTree" boostWeight="1.4263060178018858e-01" itree="9">
          <Node pos="s" depth="0" NCoef="9" fC0="0.0000000000000000e+00" fC1="0.0000000000000000e+00" fC2="0.0000000000000000e+00" fC3="0.0000000000000000e+00" fC4="-8.3269398286105179e-04" fC5="-3.1439109735690771e-04" fC6="0.0000000000000000e+00" fC7="0.0000000000000000e+00" fC8="1.4311849327752557e-01" IVar="-1" Cut="-4.2546574026346207e-02" cType="0" res="-9.9000000000000000e+01" rms="0.0000000000000000e+00" purity="4.2916440963745117e-01" nType="-1"/>
        </BinaryTree>
        <BinaryTree type="DecisionTree" boostWeight="1.7231220534990710e-01" itree="10">
          <Node pos="s" depth="0" NCoef="9" fC0="0.0000000000000000e+00" fC1="0.0000000000000000e+00" fC2="0.0000000000000000e+00" fC3="0.0000000000000000e+00" fC4="-8.3912167628498078e-04" fC5="-3.1676117660553525e-04" fC6="0.0000000000000000e+00" fC7="0.0000000000000000e+00" fC8="1.4421713050906504e-01" IVar="8" Cut="-4.2872592806816101e-02" cType="0" res="-9.9000000000000000e+01" rms="0.0000000000000000e+00" purity="4.6441122889518738e-01" nType="0">
            <Node pos="l" depth="1" NCoef="0" IVar="0" Cut="3.8103607177734375e+01" cType="0" res="-9.9000000000000000e+01" rms="0.0000000000000000e+00" purity="4.8361957073211670e-01" nType="0">
              <Node pos="l" depth="2" NCoef="0" IVar="0" Cut="7.0359275817871094e+01" cType="1" res="-9.9000000000000000e+01" rms="0.0000000000000000e+00" purity="5.0963979959487915e-01" nType="0">
                <Node pos="l" depth="3" NCoef="0" IVar="-1" Cut="0.0000000000000000e+00" cType="1" res="-9.9000000000000000e+01" rms="0.0000000000000000e+00" purity="5.3396505117416382e-01" nType="1"/>
                <Node pos="r" depth="3" NCoef="0" IVar="-1" Cut="0.0000000000000000e+00" cType="1" res="-9.9000000000000000e+01" rms="0.0000000000000000e+00" purity="3.3514770865440369e-01" nType="-1"/>
              </Node>
              <Node pos="r" depth="2" NCoef="0" IVar="-1" Cut="9.7443878173828125e+01" cType="0" res="-9.9000000000000000e+01" rms="0.0000000000000000e+00" purity="2.7530795335769653e-01" nType="-1"/>
            </Node>
            <Node pos="r" depth="1" NCoef="0" IVar="-1" Cut="1.4463276672363281e+02" cType="1" res="-9.9000000000000000e+01" rms="0.0000000000000000e+00" purity="1.7269587516784668e-01" nType="-1"/>
          </Node>
        </BinaryTree>
        <BinaryTree type="DecisionTree" boostWeight="1.1379604262648552e-01" itree="11">
          <Node pos="s" depth="0" NCoef="9" fC0="0.0000000000000000e+00" fC1="0.0000000000000000e+00" fC2="0.0000000000000000e+00" fC3="0.0000000000000000e+00" fC4="-5.6785839213102716e-04" fC5="-3.0452775934300934e-04" fC6="0.0000000000000000e+00" fC7="0.0000000000000000e+00" fC8="1.0684290922264864e-01" IVar="-1" Cut="-3.3304870128631592e-02" cType="0" res="-9.9000000000000000e+01" rms="0.0000000000000000e+00" purity="4.4334629178047180e-01" nType="-1"/>
        </BinaryTree>
        <BinaryTree type="DecisionTree" boostWeight="1.0028235743495841e-01" itree="12">
          <Node pos="s" depth="0" NCoef="9" fC0="0.0000000000000000e+00" fC1="0.0000000000000000e+00" fC2="0.0000000000000000e+00" fC3="0.0000000000000000e+00" fC4="-5.7066371976977905e-04" fC5="-3.0599069089165206e-04" fC6="0.0000000000000000e+00" fC7="0.0000000000000000e+00" fC8="1.0736630630038624e-01" IVar="8" Cut="-3.3467598259449005e-02" cType="0" res="-9.9000000000000000e+01" rms="0.0000000000000000e+00" purity="4.7158664464950562e-01" nType="0">
            <Node pos="l" depth="1" NCoef="0" IVar="5" Cut="7.7830192565917969e+01" cType="0" res="-9.9000000000000000e+01" rms="0.0000000000000000e+00" purity="4.8711431026458740e-01" nType="0">
              <Node pos="l" depth="2" NCoef="0" IVar="5" Cut="1.2872781372070312e+02" cType="1" res="-9.9000000000000000e+01" rms="0.0000000000000000e+00" purity="5.0206959247589111e-01" nType="0">
                <Node pos="l" depth="3" NCoef="0" IVar="-1" Cut="0.0000000000000000e+00" cType="1" res="-9.9000000000000000e+01" rms="0.0000000000000000e+00" purity="5.1227957010269165e-01" nType="1"/>
                <Node pos="r" depth="3" NCoef="0" IVar="-1" Cut="0.0000000000000000e+00" cType="1" res="-9.9000000000000000e+01" rms="0.0000000000000000e+00" purity="1.6918931901454926e-01" nType="-1"/>
              </Node>
              <Node pos="r" depth="2" NCoef="0" IVar="-1" Cut="0.0000000000000000e+00" cType="1" res="-9.9000000000000000e+01" rms="0.0000000000000000e+00" purity="1.9267065823078156e-01" nType="-1"/>
            </Node>
            <Node pos="r" depth="1" NCoef="0" IVar="-1" Cut="0.0000000000000000e+00" cType="1" res="-9.9000000000000000e+01" rms="0.0000000000000000e+00" purity="1.7162151634693146e-01" nType="-1"/>
          </Node>
        </BinaryTree>
        <BinaryTree type="DecisionTree" boostWeight="9.5821498553104498e-02" itree="13">
          <Node pos="s" depth="0" NCoef="9" fC0="0.0000000000000000e+00" fC1="0.0000000000000000e+00" fC2="0.0000000000000000e+00" fC3="0.0000000000000000e+00" fC4="-4.4828850457752015e-04" fC5="-3.1130538960616612e-04" fC6="0.0000000000000000e+00" fC7="0.0000000000000000e+00" fC8="9.1683963684736747e-02" IVar="-1" Cut="-2.9599668458104134e-02" cType="0" res="-9.9000000000000000e+01" rms="0.0000000000000000e+00" purity="4.5223534107208252e-01" nType="-1"/>
        </BinaryTree>
        <BinaryTree type="DecisionTree" boostWeight="1.3224532597011748e-01" itree="14">
          <Node pos="s" depth="0" NCoef="9" fC0="0.0000000000000000e+00" fC1="0.0000000000000000e+00" fC2="0.0000000000000000e+00" fC3="0.0000000000000000e+00" fC4="-4.4986549850475996e-04" fC5="-3.1236693230988404e-04" fC6="0.0000000000000000e+00" fC7="0.0000000000000000e+00" fC8="9.2002926703833948e-02" IVar="8" Cut="-2.9702316969633102e-02" cType="0" res="-9.9000000000000000e+01" rms="0.0000000000000000e+00" purity="4.7606635093688965e-01" nType="0">
            <Node pos="l" depth="1" NCoef="0" IVar="2" Cut="2.2441914081573486e+00" cType="0" res="-9.9000000000000000e+01" rms="0.0000000000000000e+00" purity="4.8936793208122253e-01" nType="0">
              <Node pos="l" depth="2" NCoef="0" IVar="6" Cut="2.4612882614135742e+01" cType="1" res="-9.9000000000000000e+01" rms="0.0000000000000000e+00" purity="5.0387030839920044e-01" nType="0">
                <Node pos="l" depth="3" NCoef="0" IVar="-1" Cut="0.0000000000000000e+00" cType="1" res="-9.9000000000000000e+01" rms="0.0000000000000000e+00" purity="5.7430326938629150e-01" nType="1"/>
                <Node pos="r" depth="3" NCoef="0" IVar="-1" Cut="0.0000000000000000e+00" cType="1" res="-9.9000000000000000e+01" rms="0.0000000000000000e+00" purity="4.7222873568534851e-01" nType="-1"/>
              </Node>
              <Node pos="r" depth="2" NCoef="0" IVar="-1" Cut="0.0000000000000000e+00" cType="1" res="-9.9000000000000000e+01" rms="0.0000000000000000e+00" purity="2.3225478827953339e-01" nType="-1"/>
            </Node>
            <Node pos="r" depth="1" NCoef="0" IVar="-1" Cut="0.0000000000000000e+00" cType="1" res="-9.9000000000000000e+01" rms="0.0000000000000000e+00" purity="1.6711716353893280e-01" nType="-1"/>
          </Node>
        </BinaryTree>
        <BinaryTree type="DecisionTree" boostWeight="1.1848890477572399e-01" itree="15">
          <Node pos="s" depth="0" NCoef="0" IVar="2" Cut="2.2441914081573486e+00" cType="0" res="-9.9000000000000000e+01" rms="0.0000000000000000e+00" purity="4.9030509591102600e-01" nType="0">
            <Node pos="l" depth="1" NCoef="0" IVar="0" Cut="7.7504676818847656e+01" cType="1" res="-9.9000000000000000e+01" rms="0.0000000000000000e+00" purity="5.0375008583068848e-01" nType="0">
              <Node pos="l" depth="2" NCoef="0" IVar="0" Cut="3.4063858032226562e+01" cType="0" res="-9.9000000000000000e+01" rms="0.0000000000000000e+00" purity="5.1865446567535400e-01" nType="0">
                <Node pos="l" depth="3" NCoef="0" IVar="-1" Cut="0.0000000000000000e+00" cType="1" res="-9.9000000000000000e+01" rms="0.0000000000000000e+00" purity="5.2888339757919312e-01" nType="1"/>
                <Node pos="r" depth="3" NCoef="0" IVar="-1" Cut="0.0000000000000000e+00" cType="1" res="-9.9000000000000000e+01" rms="0.0000000000000000e+00" purity="2.9980754852294922e-01" nType="-1"/>
              </Node>
              <Node pos="r" depth="2" NCoef="0" IVar="-1" Cut="2.9279625415802002e+00" cType="1" res="-9.9000000000000000e+01" rms="0.0000000000000000e+00" purity="2.5871923565864563e-01" nType="-1"/>
            </Node>
            <Node pos="r" depth="1" NCoef="0" IVar="-1" Cut="1.2062735557556152e+00" cType="0" res="-9.9000000000000000e+01" rms="0.0000000000000000e+00" purity="2.4932782351970673e-01" nType="-1"/>
          </Node>
        </BinaryTree>
        <BinaryTree type="DecisionTree" boostWeight="9.4079168367435767e-02" itree="16">
          <Node pos="s" depth="0" NCoef="0" IVar="2" Cut="2.3937571048736572e+00" cType="0" res="-9.9000000000000000e+01" rms="0.0000000000000000e+00" purity="4.6885600686073303e-01" nType="0">
            <Node pos="l" depth="1" NCoef="0" IVar="0" Cut="7.7504676818847656e+01" cType="1" res="-9.9000000000000000e+01" rms="0.0000000000000000e+00" purity="4.8325052857398987e-01" nType="0">
              <Node pos="l" depth="2" NCoef="9" fC0="0.0000000000000000e+00" fC1="0.0000000000000000e+00" fC2="0.0000000000000000e+00" fC3="0.0000000000000000e+00" fC4="3.4204766056371379e-05" fC5="-2.7430983838025257e-04" fC6="0.0000000000000000e+00" fC7="0.0000000000000000e+00" fC8="2.4249255730417200e-02" IVar="8" Cut="-6.0689873062074184e-03" cType="0" res="-9.9000000000000000e+01" rms="0.0000000000000000e+00" purity="4.9577504396438599e-01" nType="0">
                <Node pos="l" depth="3" NCoef="0" IVar="-1" Cut="0.0000000000000000e+00" cType="1" res="-9.9000000000000000e+01" rms="0.0000000000000000e+00" purity="5.0950735807418823e-01" nType="1"/>
                <Node pos="r" depth="3" NCoef="0" IVar="-1" Cut="0.0000000000000000e+00" cType="1" res="-9.9000000000000000e+01" rms="0.0000000000000000e+00" purity="1.6714850068092346e-01" nType="-1"/>
              </Node>
              <Node pos="r" depth="2" NCoef="0" IVar="-1" Cut="2.9279823303222656e+00" cType="1" res="-9.9000000000000000e+01" rms="0.0000000000000000e+00" purity="2.7408638596534729e-01" nType="-1"/>
            </Node>
            <Node pos="r" depth="1" NCoef="0" IVar="-1" Cut="5.8559276580810547e+01" cType="1" res="-9.9000000000000000e+01" rms="0.0000000000000000e+00" purity="3.1387549638748169e-01" nType="-1"/>
          </Node>
        </BinaryTree>
        <BinaryTree type="DecisionTree" boostWeight="1.3705288554662357e-01" itree="17">
          <Node pos="s" depth="0" NCoef="0" IVar="4" Cut="9.2983032226562500e+01" cType="0" res="-9.9000000000000000e+01" rms="0.0000000000000000e+00" purity="4.5294466614723206e-01" nType="0">
            <Node pos="l" depth="1" NCoef="9" fC0="0.0000000000000000e+00" fC1="0.0000000000000000e+00" fC2="0.0000000000000000e+00" fC3="0.0000000000000000e+00" fC4="-9.4462990202915948e-04" fC5="-4.1116259048845183e-04" fC6="0.0000000000000000e+00" fC7="0.0000000000000000e+00" fC8="1.7002279017171043e-01" IVar="8" Cut="-2.7851691469550133e-02" cType="0" res="-9.9000000000000000e+01" rms="0.0000000000000000e+00" purity="4.6287959814071655e-01" nType="0">
              <Node pos="l" depth="2" NCoef="0" IVar="1" Cut="5.3997535705566406e+01" cType="0" res="-9.9000000000000000e+01" rms="0.0000000000000000e+00" purity="4.8042887449264526e-01" nType="0">
                <Node pos="l" depth="3" NCoef="0" IVar="-1" Cut="0.0000000000000000e+00" cType="1" res="-9.9000000000000000e+01" rms="0.0000000000000000e+00" purity="6.2392336130142212e-01" nType="1"/>
                <Node pos="r" depth="3" NCoef="0" IVar="-1" Cut="0.0000000000000000e+00" cType="1" res="-9.9000000000000000e+01" rms="0.0000000000000000e+00" purity="4.6392929553985596e-01" nType="-1"/>
              </Node>
              <Node pos="r" depth="2" NCoef="9" fC0="0.0000000000000000e+00" fC1="0.0000000000000000e+00" fC2="0.0000000000000000e+00" fC3="0.0000000000000000e+00" fC4="1.4326859114445558e-03" fC5="-6.2046322049751652e-03" fC6="0.0000000000000000e+00" fC7="0.0000000000000000e+00" fC8="5.4234090808827962e-01" IVar="-1" Cut="1.8420619890093803e-02" cType="0" res="-9.9000000000000000e+01" rms="0.0000000000000000e+00" purity="3.4852671623229980e-01" nType="-1"/>
            </Node>
            <Node pos="r" depth="1" NCoef="0" IVar="-1" Cut="8.7611997127532959e-01" cType="1" res="-9.9000000000000000e+01" rms="0.0000000000000000e+00" purity="2.6518380641937256e-01" nType="-1"/>
          </Node>
        </BinaryTree>
        <BinaryTree type="DecisionTree" boostWeight="1.1815699284386774e-01" itree="18">
          <Node pos="s" depth="0" NCoef="9" fC0="0.0000000000000000e+00" fC1="0.0000000000000000e+00" fC2="0.0000000000000000e+00" fC3="0.0000000000000000e+00" fC4="-4.0084277651870307e-04" fC5="-1.0442579536772889e-04" fC6="0.0000000000000000e+00" fC7="0.0000000000000000e+00" fC8="6.3528576830874359e-02" IVar="8" Cut="1.7461106181144714e-02" cType="1" res="-9.9000000000000000e+01" rms="0.0000000000000000e+00" purity="4.8116350173950195e-01" nType="0">
            <Node pos="l" depth="1" NCoef="9" fC0="0.0000000000000000e+00" fC1="0.0000000000000000e+00" fC2="0.0000000000000000e+00" fC3="0.0000000000000000e+00" fC4="-7.7557943003728387e-04" fC5="-8.4449812365575247e-04" fC6="0.0000000000000000e+00" fC7="0.0000000000000000e+00" fC8="1.9356367441670869e-01" IVar="8" Cut="-3.8498554378747940e-02" cType="0" res="-9.9000000000000000e+01" rms="0.0000000000000000e+00" purity="4.9199575185775757e-01" nType="0">
              <Node pos="l" depth="2" NCoef="0" IVar="6" Cut="7.4487434387207031e+01" cType="1" res="-9.9000000000000000e+01" rms="0.0000000000000000e+00" purity="5.0914269685745239e-01" nType="0">
                <Node pos="l" depth="3" NCoef="0" IVar="-1" Cut="0.0000000000000000e+00" cType="1" res="-9.9000000000000000e+01" rms="0.0000000000000000e+00" purity="5.2692210674285889e-01" nType="1"/>
                <Node pos="r" depth="3" NCoef="0" IVar="-1" Cut="0.0000000000000000e+00" cType="1" res="-9.9000000000000000e+01" rms="0.0000000000000000e+00" purity="4.0865743160247803e-01" nType="-1"/>
              </Node>
              <Node pos="r" depth="2" NCoef="0" IVar="-1" Cut="7.5741439819335938e+01" cType="0" res="-9.9000000000000000e+01" rms="0.0000000000000000e+00" purity="3.0025365948677063e-01" nType="-1"/>
            </Node>
            <Node pos="r" depth="1" NCoef="0" IVar="-1" Cut="0.0000000000000000e+00" cType="1" res="-9.9000000000000000e+01" rms="0.0000000000000000e+00" purity="2.6741003990173340e-01" nType="-1"/>
          </Node>
        </BinaryTree>
        <BinaryTree type="DecisionTree" boostWeight="1.0285504958943384e-01" itree="19">
          <Node pos="s" depth="0" NCoef="9" fC0="0.0000000000000000e+00" fC1="0.0000000000000000e+00" fC2="0.0000000000000000e+00" fC3="0.0000000000000000e+00" fC4="-3.8973480106406665e-05" fC5="-3.1583203872953401e-04" fC6="0.0000000000000000e+00" fC7="0.0000000000000000e+00" fC8="3.8271098533429831e-02" IVar="8" Cut="8.5144629701972008e-03" cType="1" res="-9.9000000000000000e+01" rms="0.0000000000000000e+00" purity="4.6653038263320923e-01" nType="0">
            <Node pos="l" depth="1" NCoef="0" IVar="5" Cut="1.3938108825683594e+02" cType="1" res="-9.9000000000000000e+01" rms="0.0000000000000000e+00" purity="4.7675544023513794e-01" nType="0">
              <Node pos="l" depth="2" NCoef="0" IVar="1" Cut="5.3997535705566406e+01" cType="0" res="-9.9000000000000000e+01" rms="0.0000000000000000e+00" purity="4.8851013183593750e-01" nType="0">
                <Node pos="l" depth="3" NCoef="0" IVar="-1" Cut="0.0000000000000000e+00" cType="1" res="-9.9000000000000000e+01" rms="0.0000000000000000e+00" purity="5.8846998214721680e-01" nType="1"/>
                <Node pos="r" depth="3" NCoef="0" IVar="-1" Cut="0.0000000000000000e+00" cType="1" res="-9.9000000000000000e+01" rms="0.0000000000000000e+00" purity="4.7611239552497864e-01" nType="-1"/>
              </Node>
              <Node pos="r" depth="2" NCoef="0" IVar="-1" Cut="0.0000000000000000e+00" cType="1" res="-9.9000000000000000e+01" rms="0.0000000000000000e+00" purity="8.1598810851573944e-02" nType="-1"/>
            </Node>
            <Node pos="r" depth="1" NCoef="0" IVar="-1" Cut="4.7352519989013672e+01" cType="1" res="-9.9000000000000000e+01" rms="0.0000000000000000e+00" purity="3.1281560659408569e-01" nType="-1"/>
          </Node>
        </BinaryTree>
        <BinaryTree type="DecisionTree" boostWeight="1.8007587712106782e-01" itree="20">
          <Node pos="s" depth="0" NCoef="0" IVar="0" Cut="5.0673995971679688e+01" cType="0" res="-9.9000000000000000e+01" rms="0.0000000000000000e+00" purity="4.8698621988296509e-01" nType="0">
            <Node pos="l" depth="1" NCoef="0" IVar="3" Cut="1.4573090076446533e+00" cType="1" res="-9.9000000000000000e+01" rms="0.0000000000000000e+00" purity="5.1515710353851318e-01" nType="0">
              <Node pos="l" depth="2" NCoef="0" IVar="0" Cut="6.6568481445312500e+01" cType="1" res="-9.9000000000000000e+01" rms="0.0000000000000000e+00" purity="5.3176677227020264e-01" nType="0">
                <Node pos="l" depth="3" NCoef="0" IVar="-1" Cut="0.0000000000000000e+00" cType="1" res="-9.9000000000000000e+01" rms="0.0000000000000000e+00" purity="5.6956249475479126e-01" nType="1"/>
                <Node pos="r" depth="3" NCoef="0" IVar="-1" Cut="0.0000000000000000e+00" cType="1" res="-9.9000000000000000e+01" rms="0.0000000000000000e+00" purity="4.4117054343223572e-01" nType="-1"/>
              </Node>
              <Node pos="r" depth="2" NCoef="0" IVar="-1" Cut="0.0000000000000000e+00" cType="1" res="-9.9000000000000000e+01" rms="0.0000000000000000e+00" purity="2.6050251722335815e-01" nType="-1"/>
            </Node>
            <Node pos="r" depth="1" NCoef="9" fC0="0.0000000000000000e+00" fC1="0.0000000000000000e+00" fC2="0.0000000000000000e+00" fC3="0.0000000000000000e+00" fC4="-1.2418078848511920e-04" fC5="3.1357195176621370e-03" fC6="0.0000000000000000e+00" fC7="0.0000000000000000e+00" fC8="-2.9710001272038111e-01" IVar="8" Cut="9.9575547501444817e-03" cType="0" res="-9.9000000000000000e+01" rms="0.0000000000000000e+00" purity="4.3990194797515869e-01" nType="0">
              <Node pos="l" depth="2" NCoef="0" IVar="3" Cut="2.0729675292968750e+00" cType="1" res="-9.9000000000000000e+01" rms="0.0000000000000000e+00" purity="5.4678708314895630e-01" nType="0">
                <Node pos="l" depth="3" NCoef="0" IVar="-1" Cut="0.0000000000000000e+00" cType="1" res="-9.9000000000000000e+01" rms="0.0000000000000000e+00" purity="5.7524275779724121e-01" nType="1"/>
                <Node pos="r" depth="3" NCoef="0" IVar="-1" Cut="0.0000000000000000e+00" cType="1" res="-9.9000000000000000e+01" rms="0.0000000000000000e+00" purity="4.2868345975875854e-01" nType="-1"/>
              </Node>
              <Node pos="r" depth="2" NCoef="0" IVar="-1" Cut="6.1105037689208984e+01" cType="1" res="-9.9000000000000000e+01" rms="0.0000000000000000e+00" purity="3.6702701449394226e-01" nType="-1"/>
            </Node>
          </Node>
        </BinaryTree>
        <BinaryTree type="DecisionTree" boostWeight="1.2040612919677100e-01" itree="21">
          <Node pos="s" depth="0" NCoef="0" IVar="7" Cut="1.7523746490478516e+00" cType="1" res="-9.9000000000000000e+01" rms="0.0000000000000000e+00" purity="4.8338100314140320e-01" nType="0">
            <Node pos="l" depth="1" NCoef="0" IVar="3" Cut="9.0730363130569458e-01" cType="1" res="-9.9000000000000000e+01" rms="0.0000000000000000e+00" purity="4.9731379747390747e-01" nType="0">
              <Node pos="l" depth="2" NCoef="0" IVar="0" Cut="4.1732387542724609e+01" cType="0" res="-9.9000000000000000e+01" rms="0.0000000000000000e+00" purity="5.2778345346450806e-01" nType="0">
                <Node pos="l" depth="3" NCoef="0" IVar="-1" Cut="0.0000000000000000e+00" cType="1" res="-9.9000000000000000e+01" rms="0.0000000000000000e+00" purity="5.4541999101638794e-01" nType="1"/>
                <Node pos="r" depth="3" NCoef="0" IVar="-1" Cut="0.0000000000000000e+00" cType="1" res="-9.9000000000000000e+01" rms="0.0000000000000000e+00" purity="2.9764470458030701e-01" nType="-1"/>
              </Node>
              <Node pos="r" depth="2" NCoef="0" IVar="-1" Cut="8.3435618877410889e-01" cType="0" res="-9.9000000000000000e+01" rms="0.0000000000000000e+00" purity="4.5224446058273315e-01" nType="-1"/>
            </Node>
            <Node pos="r" depth="1" NCoef="0" IVar="-1" Cut="8.3290362358093262e-01" cType="0" res="-9.9000000000000000e+01" rms="0.0000000000000000e+00" purity="3.9776739478111267e-01" nType="-1"/>
          </Node>
        </BinaryTree>
        <BinaryTree type="DecisionTree" boostWeight="7.8057203479759252e-02" itree="22">
          <Node pos="s" depth="0" NCoef="0" IVar="2" Cut="2.0946259498596191e+00" cType="0" res="-9.9000000000000000e+01" rms="0.0000000000000000e+00" purity="4.8464712500572205e-01" nType="0">
            <Node pos="l" depth="1" NCoef="9" fC0="0.0000000000000000e+00" fC1="0.0000000000000000e+00" fC2="0.0000000000000000e+00" fC3="0.0000000000000000e+00" fC4="5.3658760844398101e-04" fC5="-1.5385602002922119e-03" fC6="0.0000000000000000e+00" fC7="0.0000000000000000e+00" fC8="9.1525366316478909e-02" IVar="8" Cut="-2.2694889456033707e-02" cType="0" res="-9.9000000000000000e+01" rms="0.0000000000000000e+00" purity="4.8972973227500916e-01" nType="0">
              <Node pos="l" depth="2" NCoef="0" IVar="4" Cut="1.0852371978759766e+02" cType="0" res="-9.9000000000000000e+01" rms="0.0000000000000000e+00" purity="4.9891826510429382e-01" nType="0">
                <Node pos="l" depth="3" NCoef="0" IVar="-1" Cut="0.0000000000000000e+00" cType="1" res="-9.9000000000000000e+01" rms="0.0000000000000000e+00" purity="5.1685732603073120e-01" nType="1"/>
                <Node pos="r" depth="3" NCoef="0" IVar="-1" Cut="0.0000000000000000e+00" cType="1" res="-9.9000000000000000e+01" rms="0.0000000000000000e+00" purity="4.2910981178283691e-01" nType="-1"/>
              </Node>
              <Node pos="r" depth="2" NCoef="0" IVar="-1" Cut="1.2493065595626831e+00" cType="1" res="-9.9000000000000000e+01" rms="0.0000000000000000e+00" purity="4.0041822195053101e-01" nType="-1"/>
            </Node>
            <Node pos="r" depth="1" NCoef="0" IVar="-1" Cut="0.0000000000000000e+00" cType="1" res="-9.9000000000000000e+01" rms="0.0000000000000000e+00" purity="3.1883740425109863e-01" nType="-1"/>
          </Node>
        </BinaryTree>
        <BinaryTree type="DecisionTree" boostWeight="9.2914494225682542e-02" itree="23">
          <Node pos="s" depth="0" NCoef="9" fC0="0.0000000000000000e+00" fC1="0.0000000000000000e+00" fC2="0.0000000000000000e+00" fC3="0.0000000000000000e+00" fC4="-1.1711280208738337e-04" fC5="-3.8648243566342076e-04" fC6="0.0000000000000000e+00" fC7="0.0000000000000000e+00" fC8="5.5807339783684025e-02" IVar="8" Cut="1.2627933174371719e-02" cType="1" res="-9.9000000000000000e+01" rms="0.0000000000000000e+00" purity="4.7673675417900085e-01" nType="0">
            <Node pos="l" depth="1" NCoef="0" IVar="5" Cut="1.3270587158203125e+02" cType="1" res="-9.9000000000000000e+01" rms="0.0000000000000000e+00" purity="4.8400050401687622e-01" nType="0">
              <Node pos="l" depth="2" NCoef="0" IVar="5" Cut="1.0548764801025391e+02" cType="0" res="-9.9000000000000000e+01" rms="0.0000000000000000e+00" purity="4.9749931693077087e-01" nType="0">
                <Node pos="l" depth="3" NCoef="0" IVar="-1" Cut="0.0000000000000000e+00" cType="1" res="-9.9000000000000000e+01" rms="0.0000000000000000e+00" purity="5.2728998661041260e-01" nType="1"/>
                <Node pos="r" depth="3" NCoef="0" IVar="-1" Cut="0.0000000000000000e+00" cType="1" res="-9.9000000000000000e+01" rms="0.0000000000000000e+00" purity="4.7166138887405396e-01" nType="-1"/>
              </Node>
              <Node pos="r" depth="2" NCoef="0" IVar="-1" Cut="0.0000000000000000e+00" cType="1" res="-9.9000000000000000e+01" rms="0.0000000000000000e+00" purity="1.2592534720897675e-01" nType="-1"/>
            </Node>
            <Node pos="r" depth="1" NCoef="0" IVar="-1" Cut="3.7916488647460938e+01" cType="1" res="-9.9000000000000000e+01" rms="0.0000000000000000e+00" purity="3.5438993573188782e-01" nType="-1"/>
          </Node>
        </BinaryTree>
        <BinaryTree type="DecisionTree" boostWeight="1.2550943146115062e-01" itree="24">
          <Node pos="s" depth="0" NCoef="0" IVar="6" Cut="3.7879920959472656e+01" cType="1" res="-9.9000000000000000e+01" rms="0.0000000000000000e+00" purity="4.8023378849029541e-01" nType="0">
            <Node pos="l" depth="1" NCoef="0" IVar="5" Cut="1.1320862579345703e+02" cType="1" res="-9.9000000000000000e+01" rms="0.0000000000000000e+00" purity="5.1228076219558716e-01" nType="0">
              <Node pos="l" depth="2" NCoef="0" IVar="5" Cut="1.0416973114013672e+02" cType="1" res="-9.9000000000000000e+01" rms="0.0000000000000000e+00" purity="5.4023033380508423e-01" nType="0">
                <Node pos="l" depth="3" NCoef="0" IVar="-1" Cut="0.0000000000000000e+00" cType="1" res="-9.9000000000000000e+01" rms="0.0000000000000000e+00" purity="5.6185293197631836e-01" nType="1"/>
                <Node pos="r" depth="3" NCoef="0" IVar="-1" Cut="0.0000000000000000e+00" cType="1" res="-9.9000000000000000e+01" rms="0.0000000000000000e+00" purity="4.7974085807800293e-01" nType="-1"/>
              </Node>
              <Node pos="r" depth="2" NCoef="0" IVar="-1" Cut="5.8285453796386719e+01" cType="1" res="-9.9000000000000000e+01" rms="0.0000000000000000e+00" purity="4.0932950377464294e-01" nType="-1"/>
            </Node>
            <Node pos="r" depth="1" NCoef="0" IVar="2" Cut="2.8424539566040039e+00" cType="0" res="-9.9000000000000000e+01" rms="0.0000000000000000e+00" purity="4.5210009813308716e-01" nType="0">
              <Node pos="l" depth="2" NCoef="0" IVar="7" Cut="9.8572999238967896e-01" cType="1" res="-9.9000000000000000e+01" rms="0.0000000000000000e+00" purity="4.9870550632476807e-01" nType="0">
                <Node pos="l" depth="3" NCoef="0" IVar="-1" Cut="0.0000000000000000e+00" cType="1" res="-9.9000000000000000e+01" rms="0.0000000000000000e+00" purity="5.2696263790130615e-01" nType="1"/>
                <Node pos="r" depth="3" NCoef="0" IVar="-1" Cut="0.0000000000000000e+00" cType="1" res="-9.9000000000000000e+01" rms="0.0000000000000000e+00" purity="4.6122241020202637e-01" nType="-1"/>
              </Node>
              <Node pos="r" depth="2" NCoef="0" IVar="-1" Cut="9.7481719970703125e+01" cType="0" res="-9.9000000000000000e+01" rms="0.0000000000000000e+00" purity="3.9298593997955322e-01" nType="-1"/>
            </Node>
          </Node>
        </BinaryTree>
        <BinaryTree type="DecisionTree" boostWeight="5.0905719386530213e-02" itree="25">
          <Node pos="s" depth="0" NCoef="0" IVar="6" Cut="9.4601951599121094e+01" cType="1" res="-9.9000000000000000e+01" rms="0.0000000000000000e+00" purity="4.8369529843330383e-01" nType="0">
            <Node pos="l" depth="1" NCoef="0" IVar="4" Cut="1.7682060241699219e+02" cType="1" res="-9.9000000000000000e+01" rms="0.0000000000000000e+00" purity="4.9035185575485229e-01" nType="0">
              <Node pos="l" depth="2" NCoef="0" IVar="1" Cut="5.9587661743164062e+01" cType="0" res="-9.9000000000000000e+01" rms="0.0000000000000000e+00" purity="4.9494019150733948e-01" nType="0">
                <Node pos="l" depth="3" NCoef="0" IVar="-1" Cut="0.0000000000000000e+00" cType="1" res="-9.9000000000000000e+01" rms="0.0000000000000000e+00" purity="6.4914822578430176e-01" nType="1"/>
                <Node pos="r" depth="3" NCoef="0" IVar="-1" Cut="0.0000000000000000e+00" cType="1" res="-9.9000000000000000e+01" rms="0.0000000000000000e+00" purity="4.8951789736747742e-01" nType="-1"/>
              </Node>
              <Node pos="r" depth="2" NCoef="0" IVar="-1" Cut="0.0000000000000000e+00" cType="1" res="-9.9000000000000000e+01" rms="0.0000000000000000e+00" purity="3.7025198340415955e-01" nType="-1"/>
            </Node>
            <Node pos="r" depth="1" NCoef="0" IVar="-1" Cut="2.6956090927124023e+00" cType="0" res="-9.9000000000000000e+01" rms="0.0000000000000000e+00" purity="3.8777208328247070e-01" nType="-1"/>
          </Node>
        </BinaryTree>
        <BinaryTree type="DecisionTree" boostWeight="5.1077347935018717e-02" itree="26">
          <Node pos="s" depth="0" NCoef="0" IVar="6" Cut="9.4601951599121094e+01" cType="1" res="-9.9000000000000000e+01" rms="0.0000000000000000e+00" purity="4.9563392996788025e-01" nType="0">
            <Node pos="l" depth="1" NCoef="0" IVar="4" Cut="1.7682060241699219e+02" cType="1" res="-9.9000000000000000e+01" rms="0.0000000000000000e+00" purity="5.0224423408508301e-01" nType="0">
              <Node pos="l" depth="2" NCoef="0" IVar="5" Cut="7.6975700378417969e+01" cType="0" res="-9.9000000000000000e+01" rms="0.0000000000000000e+00" purity="5.0680375099182129e-01" nType="0">
                <Node pos="l" depth="3" NCoef="0" IVar="-1" Cut="0.0000000000000000e+00" cType="1" res="-9.9000000000000000e+01" rms="0.0000000000000000e+00" purity="5.1215291023254395e-01" nType="1"/>
                <Node pos="r" depth="3" NCoef="0" IVar="-1" Cut="0.0000000000000000e+00" cType="1" res="-9.9000000000000000e+01" rms="0.0000000000000000e+00" purity="3.5660943388938904e-01" nType="-1"/>
              </Node>
              <Node pos="r" depth="2" NCoef="0" IVar="-1" Cut="0.0000000000000000e+00" cType="1" res="-9.9000000000000000e+01" rms="0.0000000000000000e+00" purity="3.8219773769378662e-01" nType="-1"/>
            </Node>
            <Node pos="r" depth="1" NCoef="0" IVar="-1" Cut="2.6956090927124023e+00" cType="0" res="-9.9000000000000000e+01" rms="0.0000000000000000e+00" purity="3.9992418885231018e-01" nType="-1"/>
          </Node>
        </BinaryTree>
        <BinaryTree type="DecisionTree" boostWeight="7.2902668402151524e-02" itree="27">
          <Node pos="s" depth="0" NCoef="0" IVar="7" Cut="1.9714214801788330e+00" cType="1" res="-9.9000000000000000e+01" rms="0.0000000000000000e+00" purity="4.8612713813781738e-01" nType="0">
            <Node pos="l" depth="1" NCoef="0" IVar="6" Cut="5.6787265777587891e+01" cType="1" res="-9.9000000000000000e+01" rms="0.0000000000000000e+00" purity="4.9255478382110596e-01" nType="0">
              <Node pos="l" depth="2" NCoef="0" IVar="3" Cut="1.9031639397144318e-01" cType="1" res="-9.9000000000000000e+01" rms="0.0000000000000000e+00" purity="5.0718468427658081e-01" nType="0">
                <Node pos="l" depth="3" NCoef="0" IVar="-1" Cut="0.0000000000000000e+00" cType="1" res="-9.9000000000000000e+01" rms="0.0000000000000000e+00" purity="5.6822663545608521e-01" nType="1"/>
                <Node pos="r" depth="3" NCoef="0" IVar="-1" Cut="0.0000000000000000e+00" cType="1" res="-9.9000000000000000e+01" rms="0.0000000000000000e+00" purity="4.9719557166099548e-01" nType="-1"/>
              </Node>
              <Node pos="r" depth="2" NCoef="9" fC0="0.0000000000000000e+00" fC1="0.0000000000000000e+00" fC2="0.0000000000000000e+00" fC3="0.0000000000000000e+00" fC4="-1.6359071443615017e-03" fC5="4.4621126169266927e-03" fC6="0.0000000000000000e+00" fC7="0.0000000000000000e+00" fC8="-2.5670412408294629e-01" IVar="8" Cut="1.6954861581325531e-02" cType="0" res="-9.9000000000000000e+01" rms="0.0000000000000000e+00" purity="4.6054893732070923e-01" nType="0">
                <Node pos="l" depth="3" NCoef="0" IVar="-1" Cut="0.0000000000000000e+00" cType="1" res="-9.9000000000000000e+01" rms="0.0000000000000000e+00" purity="5.4884308576583862e-01" nType="1"/>
                <Node pos="r" depth="3" NCoef="0" IVar="-1" Cut="0.0000000000000000e+00" cType="1" res="-9.9000000000000000e+01" rms="0.0000000000000000e+00" purity="4.0974894165992737e-01" nType="-1"/>
              </Node>
            </Node>
            <Node pos="r" depth="1" NCoef="0" IVar="-1" Cut="1.0412123203277588e+00" cType="0" res="-9.9000000000000000e+01" rms="0.0000000000000000e+00" purity="4.0780293941497803e-01" nType="-1"/>
          </Node>
        </BinaryTree>
        <BinaryTree type="DecisionTree" boostWeight="8.9395284651859849e-02" itree="28">
          <Node pos="s" depth="0" NCoef="0" IVar="6" Cut="5.6787265777587891e+01" cType="1" res="-9.9000000000000000e+01" rms="0.0000000000000000e+00" purity="4.9720010161399841e-01" nType="0">
            <Node pos="l" depth="1" NCoef="0" IVar="5" Cut="1.1320862579345703e+02" cType="1" res="-9.9000000000000000e+01" rms="0.0000000000000000e+00" purity="5.1402997970581055e-01" nType="0">
              <Node pos="l" depth="2" NCoef="0" IVar="-1" Cut="1.2360270690917969e+02" cType="0" res="-9.9000000000000000e+01" rms="0.0000000000000000e+00" purity="5.2949059009552002e-01" nType="1"/>
              <Node pos="r" depth="2" NCoef="0" IVar="4" Cut="1.4827622985839844e+02" cType="1" res="-9.9000000000000000e+01" rms="0.0000000000000000e+00" purity="4.6163594722747803e-01" nType="0">
                <Node pos="l" depth="3" NCoef="0" IVar="-1" Cut="0.0000000000000000e+00" cType="1" res="-9.9000000000000000e+01" rms="0.0000000000000000e+00" purity="5.1978516578674316e-01" nType="1"/>
                <Node pos="r" depth="3" NCoef="0" IVar="-1" Cut="0.0000000000000000e+00" cType="1" res="-9.9000000000000000e+01" rms="0.0000000000000000e+00" purity="3.5990720987319946e-01" nType="-1"/>
              </Node>
            </Node>
            <Node pos="r" depth="1" NCoef="0" IVar="2" Cut="2.6928749084472656e+00" cType="0" res="-9.9000000000000000e+01" rms="0.0000000000000000e+00" purity="4.6017399430274963e-01" nType="0">
              <Node pos="l" depth="2" NCoef="0" IVar="4" Cut="1.3351194763183594e+02" cType="0" res="-9.9000000000000000e+01" rms="0.0000000000000000e+00" purity="4.9903365969657898e-01" nType="0">
                <Node pos="l" depth="3" NCoef="0" IVar="-1" Cut="0.0000000000000000e+00" cType="1" res="-9.9000000000000000e+01" rms="0.0000000000000000e+00" purity="5.2462160587310791e-01" nType="1"/>
                <Node pos="r" depth="3" NCoef="0" IVar="-1" Cut="0.0000000000000000e+00" cType="1" res="-9.9000000000000000e+01" rms="0.0000000000000000e+00" purity="4.6571263670921326e-01" nType="-1"/>
              </Node>
              <Node pos="r" depth="2" NCoef="0" IVar="5" Cut="1.0801590728759766e+02" cType="0" res="-9.9000000000000000e+01" rms="0.0000000000000000e+00" purity="3.7532630562782288e-01" nType="0">
                <Node pos="l" depth="3" NCoef="0" IVar="-1" Cut="0.0000000000000000e+00" cType="1" res="-9.9000000000000000e+01" rms="0.0000000000000000e+00" purity="5.0657546520233154e-01" nType="1"/>
                <Node pos="r" depth="3" NCoef="0" IVar="-1" Cut="0.0000000000000000e+00" cType="1" res="-9.9000000000000000e+01" rms="0.0000000000000000e+00" purity="2.7649700641632080e-01" nType="-1"/>
              </Node>
            </Node>
          </Node>
        </BinaryTree>
        <BinaryTree type="DecisionTree" boostWeight="4.5600696695158059e-02" itree="29">
          <Node pos="s" depth="0" NCoef="0" IVar="0" Cut="7.7504676818847656e+01" cType="1" res="-9.9000000000000000e+01" rms="0.0000000000000000e+00" purity="4.8389899730682373e-01" nType="0">
            <Node pos="l" depth="1" NCoef="0" IVar="5" Cut="1.3077319335937500e+02" cType="1" res="-9.9000000000000000e+01" rms="0.0000000000000000e+00" purity="4.8904120922088623e-01" nType="0">
              <Node pos="l" depth="2" NCoef="0" IVar="5" Cut="7.6191627502441406e+01" cType="0" res="-9.9000000000000000e+01" rms="0.0000000000000000e+00" purity="4.9803087115287781e-01" nType="0">
                <Node pos="l" depth="3" NCoef="0" IVar="-1" Cut="0.0000000000000000e+00" cType="1" res="-9.9000000000000000e+01" rms="0.0000000000000000e+00" purity="5.0374156236648560e-01" nType="1"/>
                <Node pos="r" depth="3" NCoef="0" IVar="-1" Cut="0.0000000000000000e+00" cType="1" res="-9.9000000000000000e+01" rms="0.0000000000000000e+00" purity="3.2303830981254578e-01" nType="-1"/>
              </Node>
              <Node pos="r" depth="2" NCoef="0" IVar="-1" Cut="0.0000000000000000e+00" cType="1" res="-9.9000000000000000e+01" rms="0.0000000000000000e+00" purity="1.7075216770172119e-01" nType="-1"/>
            </Node>
            <Node pos="r" depth="1" NCoef="0" IVar="-1" Cut="8.7601089477539062e-01" cType="1" res="-9.9000000000000000e+01" rms="0.0000000000000000e+00" purity="3.8949656486511230e-01" nType="-1"/>
          </Node>
        </BinaryTree>
        <BinaryTree type="DecisionTree" boostWeight="6.6010624229168591e-02" itree="30">
          <Node pos="s" depth="0" NCoef="0" IVar="7" Cut="1.9714214801788330e+00" cType="1" res="-9.9000000000000000e+01" rms="0.0000000000000000e+00" purity="4.7488537430763245e-01" nType="0">
            <Node pos="l" depth="1" NCoef="0" IVar="6" Cut="3.7879920959472656e+01" cType="1" res="-9.9000000000000000e+01" rms="0.0000000000000000e+00" purity="4.8075395822525024e-01" nType="0">
              <Node pos="l" depth="2" NCoef="0" IVar="2" Cut="2.5530738830566406e+00" cType="1" res="-9.9000000000000000e+01" rms="0.0000000000000000e+00" purity="5.0091826915740967e-01" nType="0">
                <Node pos="l" depth="3" NCoef="0" IVar="-1" Cut="0.0000000000000000e+00" cType="1" res="-9.9000000000000000e+01" rms="0.0000000000000000e+00" purity="5.9453886747360229e-01" nType="1"/>
                <Node pos="r" depth="3" NCoef="0" IVar="-1" Cut="0.0000000000000000e+00" cType="1" res="-9.9000000000000000e+01" rms="0.0000000000000000e+00" purity="4.9104589223861694e-01" nType="-1"/>
              </Node>
              <Node pos="r" depth="2" NCoef="0" IVar="-1" Cut="2.6928882598876953e+00" cType="0" res="-9.9000000000000000e+01" rms="0.0000000000000000e+00" purity="4.6283254027366638e-01" nType="-1"/>
            </Node>
            <Node pos="r" depth="1" NCoef="0" IVar="-1" Cut="1.0412123203277588e+00" cType="0" res="-9.9000000000000000e+01" rms="0.0000000000000000e+00" purity="4.0344983339309692e-01" nType="-1"/>
          </Node>
        </BinaryTree>
        <BinaryTree type="DecisionTree" boostWeight="5.8860103771953373e-02" itree="31">
          <Node pos="s" depth="0" NCoef="0" IVar="7" Cut="1.9714214801788330e+00" cType="1" res="-9.9000000000000000e+01" rms="0.0000000000000000e+00" purity="4.8998865485191345e-01" nType="0">
            <Node pos="l" depth="1" NCoef="0" IVar="2" Cut="2.6928882598876953e+00" cType="0" res="-9.9000000000000000e+01" rms="0.0000000000000000e+00" purity="4.9575838446617126e-01" nType="0">
              <Node pos="l" depth="2" NCoef="0" IVar="0" Cut="7.7504676818847656e+01" cType="1" res="-9.9000000000000000e+01" rms="0.0000000000000000e+00" purity="5.0589978694915771e-01" nType="0">
                <Node pos="l" depth="3" NCoef="0" IVar="-1" Cut="0.0000000000000000e+00" cType="1" res="-9.9000000000000000e+01" rms="0.0000000000000000e+00" purity="5.1417887210845947e-01" nType="1"/>
                <Node pos="r" depth="3" NCoef="0" IVar="-1" Cut="0.0000000000000000e+00" cType="1" res="-9.9000000000000000e+01" rms="0.0000000000000000e+00" purity="3.4652799367904663e-01" nType="-1"/>
              </Node>
              <Node pos="r" depth="2" NCoef="0" IVar="6" Cut="7.3116256713867188e+01" cType="1" res="-9.9000000000000000e+01" rms="0.0000000000000000e+00" purity="4.6190655231475830e-01" nType="0">
                <Node pos="l" depth="3" NCoef="0" IVar="-1" Cut="0.0000000000000000e+00" cType="1" res="-9.9000000000000000e+01" rms="0.0000000000000000e+00" purity="5.0066250562667847e-01" nType="1"/>
                <Node pos="r" depth="3" NCoef="0" IVar="-1" Cut="0.0000000000000000e+00" cType="1" res="-9.9000000000000000e+01" rms="0.0000000000000000e+00" purity="3.4995275735855103e-01" nType="-1"/>
              </Node>
            </Node>
            <Node pos="r" depth="1" NCoef="0" IVar="-1" Cut="1.0412123203277588e+00" cType="0" res="-9.9000000000000000e+01" rms="0.0000000000000000e+00" purity="4.1943463683128357e-01" nType="-1"/>
          </Node>
        </BinaryTree>
        <BinaryTree type="DecisionTree" boostWeight="3.9964744561051209e-02" itree="32">
          <Node pos="s" depth="0" NCoef="0" IVar="-1" Cut="9.2983032226562500e+01" cType="0" res="-9.9000000000000000e+01" rms="0.0000000000000000e+00" purity="4.8002827167510986e-01" nType="-1"/>
        </BinaryTree>
        <BinaryTree type="DecisionTree" boostWeight="3.2486505456506151e-02" itree="33">
          <Node pos="s" depth="0" NCoef="0" IVar="4" Cut="9.2983032226562500e+01" cType="0" res="-9.9000000000000000e+01" rms="0.0000000000000000e+00" purity="4.9001038074493408e-01" nType="0">
            <Node pos="l" depth="1" NCoef="0" IVar="6" Cut="9.4601951599121094e+01" cType="1" res="-9.9000000000000000e+01" rms="0.0000000000000000e+00" purity="4.9386954307556152e-01" nType="0">
              <Node pos="l" depth="2" NCoef="0" IVar="0" Cut="7.2116119384765625e+01" cType="1" res="-9.9000000000000000e+01" rms="0.0000000000000000e+00" purity="4.9847415089607239e-01" nType="0">
                <Node pos="l" depth="3" NCoef="0" IVar="-1" Cut="0.0000000000000000e+00" cType="1" res="-9.9000000000000000e+01" rms="0.0000000000000000e+00" purity="5.0390166044235229e-01" nType="1"/>
                <Node pos="r" depth="3" NCoef="0" IVar="-1" Cut="0.0000000000000000e+00" cType="1" res="-9.9000000000000000e+01" rms="0.0000000000000000e+00" purity="4.5064818859100342e-01" nType="-1"/>
              </Node>
              <Node pos="r" depth="2" NCoef="0" IVar="-1" Cut="2.6958489418029785e+00" cType="0" res="-9.9000000000000000e+01" rms="0.0000000000000000e+00" purity="4.2831882834434509e-01" nType="-1"/>
            </Node>
            <Node pos="r" depth="1" NCoef="0" IVar="-1" Cut="0.0000000000000000e+00" cType="1" res="-9.9000000000000000e+01" rms="0.0000000000000000e+00" purity="4.0967130661010742e-01" nType="-1"/>
          </Node>
        </BinaryTree>
        <BinaryTree type="DecisionTree" boostWeight="6.1739879267921273e-02" itree="34">
          <Node pos="s" depth="0" NCoef="9" fC0="0.0000000000000000e+00" fC1="0.0000000000000000e+00" fC2="0.0000000000000000e+00" fC3="0.0000000000000000e+00" fC4="3.9705588274295046e-04" fC5="-9.7045312071541968e-04" fC6="0.0000000000000000e+00" fC7="0.0000000000000000e+00" fC8="4.9738792559589629e-02" IVar="8" Cut="-1.7457915470004082e-02" cType="0" res="-9.9000000000000000e+01" rms="0.0000000000000000e+00" purity="4.8508650064468384e-01" nType="0">
            <Node pos="l" depth="1" NCoef="0" IVar="5" Cut="9.5976501464843750e+01" cType="0" res="-9.9000000000000000e+01" rms="0.0000000000000000e+00" purity="4.9215167760848999e-01" nType="0">
              <Node pos="l" depth="2" NCoef="0" IVar="-1" Cut="2.5433173179626465e+00" cType="1" res="-9.9000000000000000e+01" rms="0.0000000000000000e+00" purity="5.1234722137451172e-01" nType="1"/>
              <Node pos="r" depth="2" NCoef="0" IVar="-1" Cut="5.9604553222656250e+01" cType="1" res="-9.9000000000000000e+01" rms="0.0000000000000000e+00" purity="4.4955819845199585e-01" nType="-1"/>
            </Node>
            <Node pos="r" depth="1" NCoef="0" IVar="-1" Cut="0.0000000000000000e+00" cType="1" res="-9.9000000000000000e+01" rms="0.0000000000000000e+00" purity="3.5031101107597351e-01" nType="-1"/>
          </Node>
        </BinaryTree>
        <BinaryTree type="DecisionTree" boostWeight="6.6123022347124430e-02" itree="35">
          <Node pos="s" depth="0" NCoef="0" IVar="6" Cut="3.7879920959472656e+01" cType="1" res="-9.9000000000000000e+01" rms="0.0000000000000000e+00" purity="4.8057484626770020e-01" nType="0">
            <Node pos="l" depth="1" NCoef="0" IVar="5" Cut="1.1320862579345703e+02" cType="1" res="-9.9000000000000000e+01" rms="0.0000000000000000e+00" purity="4.9781164526939392e-01" nType="0">
              <Node pos="l" depth="2" NCoef="0" IVar="5" Cut="9.0612922668457031e+01" cType="1" res="-9.9000000000000000e+01" rms="0.0000000000000000e+00" purity="5.1081019639968872e-01" nType="0">
                <Node pos="l" depth="3" NCoef="0" IVar="-1" Cut="0.0000000000000000e+00" cType="1" res="-9.9000000000000000e+01" rms="0.0000000000000000e+00" purity="5.5719536542892456e-01" nType="1"/>
                <Node pos="r" depth="3" NCoef="0" IVar="-1" Cut="0.0000000000000000e+00" cType="1" res="-9.9000000000000000e+01" rms="0.0000000000000000e+00" purity="4.9337047338485718e-01" nType="-1"/>
              </Node>
              <Node pos="r" depth="2" NCoef="0" IVar="0" Cut="5.8285453796386719e+01" cType="1" res="-9.9000000000000000e+01" rms="0.0000000000000000e+00" purity="4.4871369004249573e-01" nType="0">
                <Node pos="l" depth="3" NCoef="0" IVar="-1" Cut="0.0000000000000000e+00" cType="1" res="-9.9000000000000000e+01" rms="0.0000000000000000e+00" purity="5.2423197031021118e-01" nType="1"/>
                <Node pos="r" depth="3" NCoef="0" IVar="-1" Cut="0.0000000000000000e+00" cType="1" res="-9.9000000000000000e+01" rms="0.0000000000000000e+00" purity="3.9576444029808044e-01" nType="-1"/>
              </Node>
            </Node>
            <Node pos="r" depth="1" NCoef="0" IVar="-1" Cut="2.8424539566040039e+00" cType="0" res="-9.9000000000000000e+01" rms="0.0000000000000000e+00" purity="4.6527323126792908e-01" nType="-1"/>
          </Node>
        </BinaryTree>
        <BinaryTree type="DecisionTree" boostWeight="4.1794134265862502e-02" itree="36">
          <Node pos="s" depth="0" NCoef="0" IVar="6" Cut="9.4601951599121094e+01" cType="1" res="-9.9000000000000000e+01" rms="0.0000000000000000e+00" purity="4.9235200881958008e-01" nType="0">
            <Node pos="l" depth="1" NCoef="0" IVar="5" Cut="7.9635932922363281e+01" cType="0" res="-9.9000000000000000e+01" rms="0.0000000000000000e+00" purity="4.9590316414833069e-01" nType="0">
              <Node pos="l" depth="2" NCoef="0" IVar="3" Cut="6.2457042932510376e-01" cType="1" res="-9.9000000000000000e+01" rms="0.0000000000000000e+00" purity="4.9892261624336243e-01" nType="0">
                <Node pos="l" depth="3" NCoef="0" IVar="-1" Cut="0.0000000000000000e+00" cType="1" res="-9.9000000000000000e+01" rms="0.0000000000000000e+00" purity="5.1722621917724609e-01" nType="1"/>
                <Node pos="r" depth="3" NCoef="0" IVar="-1" Cut="0.0000000000000000e+00" cType="1" res="-9.9000000000000000e+01" rms="0.0000000000000000e+00" purity="4.8632439970970154e-01" nType="-1"/>
              </Node>
              <Node pos="r" depth="2" NCoef="0" IVar="-1" Cut="0.0000000000000000e+00" cType="1" res="-9.9000000000000000e+01" rms="0.0000000000000000e+00" purity="4.3136051297187805e-01" nType="-1"/>
            </Node>
            <Node pos="r" depth="1" NCoef="0" IVar="2" Cut="2.6956090927124023e+00" cType="0" res="-9.9000000000000000e+01" rms="0.0000000000000000e+00" purity="4.3936660885810852e-01" nType="0">
              <Node pos="l" depth="2" NCoef="0" IVar="-1" Cut="0.0000000000000000e+00" cType="1" res="-9.9000000000000000e+01" rms="0.0000000000000000e+00" purity="5.0888341665267944e-01" nType="1"/>
              <Node pos="r" depth="2" NCoef="0" IVar="-1" Cut="0.0000000000000000e+00" cType="1" res="-9.9000000000000000e+01" rms="0.0000000000000000e+00" purity="3.3810862898826599e-01" nType="-1"/>
            </Node>
          </Node>
        </BinaryTree>
        <BinaryTree type="DecisionTree" boostWeight="2.6606462876080834e-02" itree="37">
          <Node pos="s" depth="0" NCoef="0" IVar="6" Cut="9.4601951599121094e+01" cType="1" res="-9.9000000000000000e+01" rms="0.0000000000000000e+00" purity="4.9438220262527466e-01" nType="0">
            <Node pos="l" depth="1" NCoef="0" IVar="4" Cut="1.7682060241699219e+02" cType="1" res="-9.9000000000000000e+01" rms="0.0000000000000000e+00" purity="4.9820756912231445e-01" nType="0">
              <Node pos="l" depth="2" NCoef="0" IVar="1" Cut="5.9587661743164062e+01" cType="0" res="-9.9000000000000000e+01" rms="0.0000000000000000e+00" purity="5.0064414739608765e-01" nType="0">
                <Node pos="l" depth="3" NCoef="0" IVar="-1" Cut="0.0000000000000000e+00" cType="1" res="-9.9000000000000000e+01" rms="0.0000000000000000e+00" purity="6.1711359024047852e-01" nType="1"/>
                <Node pos="r" depth="3" NCoef="0" IVar="-1" Cut="0.0000000000000000e+00" cType="1" res="-9.9000000000000000e+01" rms="0.0000000000000000e+00" purity="4.9664527177810669e-01" nType="-1"/>
              </Node>
              <Node pos="r" depth="2" NCoef="0" IVar="-1" Cut="0.0000000000000000e+00" cType="1" res="-9.9000000000000000e+01" rms="0.0000000000000000e+00" purity="4.3213313817977905e-01" nType="-1"/>
            </Node>
            <Node pos="r" depth="1" NCoef="0" IVar="0" Cut="5.0673995971679688e+01" cType="0" res="-9.9000000000000000e+01" rms="0.0000000000000000e+00" purity="4.3718346953392029e-01" nType="0">
              <Node pos="l" depth="2" NCoef="0" IVar="-1" Cut="0.0000000000000000e+00" cType="1" res="-9.9000000000000000e+01" rms="0.0000000000000000e+00" purity="5.0998026132583618e-01" nType="1"/>
              <Node pos="r" depth="2" NCoef="0" IVar="-1" Cut="0.0000000000000000e+00" cType="1" res="-9.9000000000000000e+01" rms="0.0000000000000000e+00" purity="3.5750320553779602e-01" nType="-1"/>
            </Node>
          </Node>
        </BinaryTree>
        <BinaryTree type="DecisionTree" boostWeight="4.4198384133076016e-02" itree="38">
          <Node pos="s" depth="0" NCoef="0" IVar="6" Cut="9.4601951599121094e+01" cType="1" res="-9.9000000000000000e+01" rms="0.0000000000000000e+00" purity="5.0019729137420654e-01" nType="0">
            <Node pos="l" depth="1" NCoef="0" IVar="4" Cut="1.7682060241699219e+02" cType="1" res="-9.9000000000000000e+01" rms="0.0000000000000000e+00" purity="5.0443375110626221e-01" nType="0">
              <Node pos="l" depth="2" NCoef="0" IVar="5" Cut="1.2258303070068359e+02" cType="1" res="-9.9000000000000000e+01" rms="0.0000000000000000e+00" purity="5.0685477256774902e-01" nType="0">
                <Node pos="l" depth="3" NCoef="0" IVar="-1" Cut="0.0000000000000000e+00" cType="1" res="-9.9000000000000000e+01" rms="0.0000000000000000e+00" purity="5.1272267103195190e-01" nType="1"/>
                <Node pos="r" depth="3" NCoef="0" IVar="-1" Cut="0.0000000000000000e+00" cType="1" res="-9.9000000000000000e+01" rms="0.0000000000000000e+00" purity="4.3128323554992676e-01" nType="-1"/>
              </Node>
              <Node pos="r" depth="2" NCoef="0" IVar="-1" Cut="0.0000000000000000e+00" cType="1" res="-9.9000000000000000e+01" rms="0.0000000000000000e+00" purity="4.3867361545562744e-01" nType="-1"/>
            </Node>
            <Node pos="r" depth="1" NCoef="9" fC0="0.0000000000000000e+00" fC1="0.0000000000000000e+00" fC2="0.0000000000000000e+00" fC3="0.0000000000000000e+00" fC4="-1.4122264553864733e-03" fC5="3.1680574212162144e-03" fC6="0.0000000000000000e+00" fC7="0.0000000000000000e+00" fC8="-1.3634362580157491e-01" IVar="8" Cut="-5.9420522302389145e-03" cType="0" res="-9.9000000000000000e+01" rms="0.0000000000000000e+00" purity="4.3674626946449280e-01" nType="0">
              <Node pos="l" depth="2" NCoef="0" IVar="-1" Cut="0.0000000000000000e+00" cType="1" res="-9.9000000000000000e+01" rms="0.0000000000000000e+00" purity="5.1393008232116699e-01" nType="1"/>
              <Node pos="r" depth="2" NCoef="0" IVar="-1" Cut="0.0000000000000000e+00" cType="1" res="-9.9000000000000000e+01" rms="0.0000000000000000e+00" purity="3.4772026538848877e-01" nType="-1"/>
            </Node>
          </Node>
        </BinaryTree>
        <BinaryTree type="DecisionTree" boostWeight="2.8653408616081285e-02" itree="39">
          <Node pos="s" depth="0" NCoef="0" IVar="6" Cut="9.4601951599121094e+01" cType="1" res="-9.9000000000000000e+01" rms="0.0000000000000000e+00" purity="4.9191704392433167e-01" nType="0">
            <Node pos="l" depth="1" NCoef="0" IVar="4" Cut="9.8254409790039062e+01" cType="0" res="-9.9000000000000000e+01" rms="0.0000000000000000e+00" purity="4.9566087126731873e-01" nType="0">
              <Node pos="l" depth="2" NCoef="0" IVar="0" Cut="7.2116119384765625e+01" cType="1" res="-9.9000000000000000e+01" rms="0.0000000000000000e+00" purity="4.9965858459472656e-01" nType="0">
                <Node pos="l" depth="3" NCoef="0" IVar="-1" Cut="0.0000000000000000e+00" cType="1" res="-9.9000000000000000e+01" rms="0.0000000000000000e+00" purity="5.0406396389007568e-01" nType="1"/>
                <Node pos="r" depth="3" NCoef="0" IVar="-1" Cut="0.0000000000000000e+00" cType="1" res="-9.9000000000000000e+01" rms="0.0000000000000000e+00" purity="4.6209493279457092e-01" nType="-1"/>
              </Node>
              <Node pos="r" depth="2" NCoef="0" IVar="-1" Cut="4.5127086639404297e+01" cType="1" res="-9.9000000000000000e+01" rms="0.0000000000000000e+00" purity="4.5270878076553345e-01" nType="-1"/>
            </Node>
            <Node pos="r" depth="1" NCoef="0" IVar="-1" Cut="2.6956090927124023e+00" cType="0" res="-9.9000000000000000e+01" rms="0.0000000000000000e+00" purity="4.3569621443748474e-01" nType="-1"/>
          </Node>
        </BinaryTree>
        <BinaryTree type="DecisionTree" boostWeight="3.9664866348950494e-02" itree="40">
          <Node pos="s" depth="0" NCoef="0" IVar="7" Cut="1.9714214801788330e+00" cType="1" res="-9.9000000000000000e+01" rms="0.0000000000000000e+00" purity="4.8805642127990723e-01" nType="0">
            <Node pos="l" depth="1" NCoef="0" IVar="2" Cut="2.6928882598876953e+00" cType="0" res="-9.9000000000000000e+01" rms="0.0000000000000000e+00" purity="4.9174106121063232e-01" nType="0">
              <Node pos="l" depth="2" NCoef="0" IVar="0" Cut="7.7504676818847656e+01" cType="1" res="-9.9000000000000000e+01" rms="0.0000000000000000e+00" purity="4.9844342470169067e-01" nType="0">
                <Node pos="l" depth="3" NCoef="0" IVar="-1" Cut="0.0000000000000000e+00" cType="1" res="-9.9000000000000000e+01" rms="0.0000000000000000e+00" purity="5.0396740436553955e-01" nType="1"/>
                <Node pos="r" depth="3" NCoef="0" IVar="-1" Cut="0.0000000000000000e+00" cType="1" res="-9.9000000000000000e+01" rms="0.0000000000000000e+00" purity="3.8884556293487549e-01" nType="-1"/>
              </Node>
              <Node pos="r" depth="2" NCoef="0" IVar="5" Cut="9.4377670288085938e+01" cType="0" res="-9.9000000000000000e+01" rms="0.0000000000000000e+00" purity="4.6925324201583862e-01" nType="0">
                <Node pos="l" depth="3" NCoef="0" IVar="-1" Cut="0.0000000000000000e+00" cType="1" res="-9.9000000000000000e+01" rms="0.0000000000000000e+00" purity="5.0865560770034790e-01" nType="1"/>
                <Node pos="r" depth="3" NCoef="0" IVar="-1" Cut="0.0000000000000000e+00" cType="1" res="-9.9000000000000000e+01" rms="0.0000000000000000e+00" purity="3.8841825723648071e-01" nType="-1"/>
              </Node>
            </Node>
            <Node pos="r" depth="1" NCoef="0" IVar="3" Cut="1.0412123203277588e+00" cType="0" res="-9.9000000000000000e+01" rms="0.0000000000000000e+00" purity="4.4284191727638245e-01" nType="0">
              <Node pos="l" depth="2" NCoef="0" IVar="-1" Cut="0.0000000000000000e+00" cType="1" res="-9.9000000000000000e+01" rms="0.0000000000000000e+00" purity="5.0041693449020386e-01" nType="1"/>
              <Node pos="r" depth="2" NCoef="0" IVar="-1" Cut="0.0000000000000000e+00" cType="1" res="-9.9000000000000000e+01" rms="0.0000000000000000e+00" purity="4.0087893605232239e-01" nType="-1"/>
            </Node>
          </Node>
        </BinaryTree>
        <BinaryTree type="DecisionTree" boostWeight="6.5556409155087328e-02" itree="41">
          <Node pos="s" depth="0" NCoef="0" IVar="6" Cut="7.5694610595703125e+01" cType="1" res="-9.9000000000000000e+01" rms="0.0000000000000000e+00" purity="4.8100462555885315e-01" nType="0">
            <Node pos="l" depth="1" NCoef="0" IVar="2" Cut="2.5451462268829346e+00" cType="1" res="-9.9000000000000000e+01" rms="0.0000000000000000e+00" purity="4.8604151606559753e-01" nType="0">
              <Node pos="l" depth="2" NCoef="0" IVar="5" Cut="9.2196113586425781e+01" cType="0" res="-9.9000000000000000e+01" rms="0.0000000000000000e+00" purity="5.2574086189270020e-01" nType="0">
                <Node pos="l" depth="3" NCoef="0" IVar="-1" Cut="0.0000000000000000e+00" cType="1" res="-9.9000000000000000e+01" rms="0.0000000000000000e+00" purity="5.8024781942367554e-01" nType="1"/>
                <Node pos="r" depth="3" NCoef="0" IVar="-1" Cut="0.0000000000000000e+00" cType="1" res="-9.9000000000000000e+01" rms="0.0000000000000000e+00" purity="4.2067161202430725e-01" nType="-1"/>
              </Node>
              <Node pos="r" depth="2" NCoef="0" IVar="-1" Cut="7.2451828002929688e+01" cType="1" res="-9.9000000000000000e+01" rms="0.0000000000000000e+00" purity="4.8095887899398804e-01" nType="-1"/>
            </Node>
            <Node pos="r" depth="1" NCoef="0" IVar="2" Cut="2.6928687095642090e+00" cType="0" res="-9.9000000000000000e+01" rms="0.0000000000000000e+00" purity="4.5244613289833069e-01" nType="0">
              <Node pos="l" depth="2" NCoef="0" IVar="0" Cut="5.0673995971679688e+01" cType="0" res="-9.9000000000000000e+01" rms="0.0000000000000000e+00" purity="4.9157398939132690e-01" nType="0">
                <Node pos="l" depth="3" NCoef="0" IVar="-1" Cut="0.0000000000000000e+00" cType="1" res="-9.9000000000000000e+01" rms="0.0000000000000000e+00" purity="5.2835297584533691e-01" nType="1"/>
                <Node pos="r" depth="3" NCoef="0" IVar="-1" Cut="0.0000000000000000e+00" cType="1" res="-9.9000000000000000e+01" rms="0.0000000000000000e+00" purity="4.4018054008483887e-01" nType="-1"/>
              </Node>
              <Node pos="r" depth="2" NCoef="0" IVar="5" Cut="1.0801590728759766e+02" cType="0" res="-9.9000000000000000e+01" rms="0.0000000000000000e+00" purity="3.8172185420989990e-01" nType="0">
                <Node pos="l" depth="3" NCoef="0" IVar="-1" Cut="0.0000000000000000e+00" cType="1" res="-9.9000000000000000e+01" rms="0.0000000000000000e+00" purity="5.0655162334442139e-01" nType="1"/>
                <Node pos="r" depth="3" NCoef="0" IVar="-1" Cut="0.0000000000000000e+00" cType="1" res="-9.9000000000000000e+01" rms="0.0000000000000000e+00" purity="2.5686785578727722e-01" nType="-1"/>
              </Node>
            </Node>
          </Node>
        </BinaryTree>
        <BinaryTree type="DecisionTree" boostWeight="6.9124350169805920e-02" itree="42">
          <Node pos="s" depth="0" NCoef="0" IVar="6" Cut="7.5694610595703125e+01" cType="1" res="-9.9000000000000000e+01" rms="0.0000000000000000e+00" purity="4.9256458878517151e-01" nType="0">
            <Node pos="l" depth="1" NCoef="0" IVar="6" Cut="4.3280216217041016e+01" cType="1" res="-9.9000000000000000e+01" rms="0.0000000000000000e+00" purity="4.9997299909591675e-01" nType="0">
              <Node pos="l" depth="2" NCoef="0" IVar="5" Cut="1.1320862579345703e+02" cType="1" res="-9.9000000000000000e+01" rms="0.0000000000000000e+00" purity="5.0926440954208374e-01" nType="0">
                <Node pos="l" depth="3" NCoef="0" IVar="-1" Cut="0.0000000000000000e+00" cType="1" res="-9.9000000000000000e+01" rms="0.0000000000000000e+00" purity="5.2160286903381348e-01" nType="1"/>
                <Node pos="r" depth="3" NCoef="0" IVar="-1" Cut="0.0000000000000000e+00" cType="1" res="-9.9000000000000000e+01" rms="0.0000000000000000e+00" purity="4.6308287978172302e-01" nType="-1"/>
              </Node>
              <Node pos="r" depth="2" NCoef="0" IVar="5" Cut="9.5252838134765625e+01" cType="0" res="-9.9000000000000000e+01" rms="0.0000000000000000e+00" purity="4.8396459221839905e-01" nType="0">
                <Node pos="l" depth="3" NCoef="0" IVar="-1" Cut="0.0000000000000000e+00" cType="1" res="-9.9000000000000000e+01" rms="0.0000000000000000e+00" purity="5.1401066780090332e-01" nType="1"/>
                <Node pos="r" depth="3" NCoef="0" IVar="-1" Cut="0.0000000000000000e+00" cType="1" res="-9.9000000000000000e+01" rms="0.0000000000000000e+00" purity="3.9822739362716675e-01" nType="-1"/>
              </Node>
            </Node>
            <Node pos="r" depth="1" NCoef="0" IVar="2" Cut="2.6928687095642090e+00" cType="0" res="-9.9000000000000000e+01" rms="0.0000000000000000e+00" purity="4.5043730735778809e-01" nType="0">
              <Node pos="l" depth="2" NCoef="0" IVar="4" Cut="1.4291954040527344e+02" cType="0" res="-9.9000000000000000e+01" rms="0.0000000000000000e+00" purity="4.8879700899124146e-01" nType="0">
                <Node pos="l" depth="3" NCoef="0" IVar="-1" Cut="0.0000000000000000e+00" cType="1" res="-9.9000000000000000e+01" rms="0.0000000000000000e+00" purity="5.1838034391403198e-01" nType="1"/>
                <Node pos="r" depth="3" NCoef="0" IVar="-1" Cut="0.0000000000000000e+00" cType="1" res="-9.9000000000000000e+01" rms="0.0000000000000000e+00" purity="4.3786543607711792e-01" nType="-1"/>
              </Node>
              <Node pos="r" depth="2" NCoef="0" IVar="-1" Cut="1.0801590728759766e+02" cType="0" res="-9.9000000000000000e+01" rms="0.0000000000000000e+00" purity="3.8071975111961365e-01" nType="-1"/>
            </Node>
          </Node>
        </BinaryTree>
        <BinaryTree type="DecisionTree" boostWeight="4.8380936329714630e-02" itree="43">
          <Node pos="s" depth="0" NCoef="0" IVar="6" Cut="9.4601951599121094e+01" cType="1" res="-9.9000000000000000e+01" rms="0.0000000000000000e+00" purity="4.8499387502670288e-01" nType="0">
            <Node pos="l" depth="1" NCoef="0" IVar="6" Cut="3.1574216842651367e+01" cType="1" res="-9.9000000000000000e+01" rms="0.0000000000000000e+00" purity="4.8846495151519775e-01" nType="0">
              <Node pos="l" depth="2" NCoef="0" IVar="7" Cut="7.6656061410903931e-01" cType="1" res="-9.9000000000000000e+01" rms="0.0000000000000000e+00" purity="5.0086855888366699e-01" nType="0">
                <Node pos="l" depth="3" NCoef="0" IVar="-1" Cut="0.0000000000000000e+00" cType="1" res="-9.9000000000000000e+01" rms="0.0000000000000000e+00" purity="5.2352094650268555e-01" nType="1"/>
                <Node pos="r" depth="3" NCoef="0" IVar="-1" Cut="0.0000000000000000e+00" cType="1" res="-9.9000000000000000e+01" rms="0.0000000000000000e+00" purity="4.7993576526641846e-01" nType="-1"/>
              </Node>
              <Node pos="r" depth="2" NCoef="0" IVar="5" Cut="1.0212137603759766e+02" cType="0" res="-9.9000000000000000e+01" rms="0.0000000000000000e+00" purity="4.7960898280143738e-01" nType="0">
                <Node pos="l" depth="3" NCoef="0" IVar="-1" Cut="0.0000000000000000e+00" cType="1" res="-9.9000000000000000e+01" rms="0.0000000000000000e+00" purity="5.0054317712783813e-01" nType="1"/>
                <Node pos="r" depth="3" NCoef="0" IVar="-1" Cut="0.0000000000000000e+00" cType="1" res="-9.9000000000000000e+01" rms="0.0000000000000000e+00" purity="4.5220088958740234e-01" nType="-1"/>
              </Node>
            </Node>
            <Node pos="r" depth="1" NCoef="0" IVar="-1" Cut="5.0673995971679688e+01" cType="0" res="-9.9000000000000000e+01" rms="0.0000000000000000e+00" purity="4.3243095278739929e-01" nType="-1"/>
          </Node>
        </BinaryTree>
        <BinaryTree type="DecisionTree" boostWeight="4.8269385623781504e-02" itree="44">
          <Node pos="s" depth="0" NCoef="0" IVar="6" Cut="7.5694610595703125e+01" cType="1" res="-9.9000000000000000e+01" rms="0.0000000000000000e+00" purity="4.8500618338584900e-01" nType="0">
            <Node pos="l" depth="1" NCoef="0" IVar="6" Cut="4.3280216217041016e+01" cType="1" res="-9.9000000000000000e+01" rms="0.0000000000000000e+00" purity="4.9010282754898071e-01" nType="0">
              <Node pos="l" depth="2" NCoef="0" IVar="2" Cut="2.5530738830566406e+00" cType="1" res="-9.9000000000000000e+01" rms="0.0000000000000000e+00" purity="4.9960678815841675e-01" nType="0">
                <Node pos="l" depth="3" NCoef="0" IVar="-1" Cut="0.0000000000000000e+00" cType="1" res="-9.9000000000000000e+01" rms="0.0000000000000000e+00" purity="5.5148637294769287e-01" nType="1"/>
                <Node pos="r" depth="3" NCoef="0" IVar="-1" Cut="0.0000000000000000e+00" cType="1" res="-9.9000000000000000e+01" rms="0.0000000000000000e+00" purity="4.9409198760986328e-01" nType="-1"/>
              </Node>
              <Node pos="r" depth="2" NCoef="0" IVar="-1" Cut="9.5252838134765625e+01" cType="0" res="-9.9000000000000000e+01" rms="0.0000000000000000e+00" purity="4.7370949387550354e-01" nType="-1"/>
            </Node>
            <Node pos="r" depth="1" NCoef="9" fC0="0.0000000000000000e+00" fC1="0.0000000000000000e+00" fC2="0.0000000000000000e+00" fC3="0.0000000000000000e+00" fC4="-8.8328818441419613e-04" fC5="2.0194951377359134e-03" fC6="0.0000000000000000e+00" fC7="0.0000000000000000e+00" fC8="-9.1948662157787353e-02" IVar="8" Cut="4.1669774800539017e-03" cType="0" res="-9.9000000000000000e+01" rms="0.0000000000000000e+00" purity="4.5587289333343506e-01" nType="0">
              <Node pos="l" depth="2" NCoef="0" IVar="7" Cut="9.8489159345626831e-01" cType="1" res="-9.9000000000000000e+01" rms="0.0000000000000000e+00" purity="5.0698357820510864e-01" nType="0">
                <Node pos="l" depth="3" NCoef="0" IVar="-1" Cut="0.0000000000000000e+00" cType="1" res="-9.9000000000000000e+01" rms="0.0000000000000000e+00" purity="5.4891079664230347e-01" nType="1"/>
                <Node pos="r" depth="3" NCoef="0" IVar="-1" Cut="0.0000000000000000e+00" cType="1" res="-9.9000000000000000e+01" rms="0.0000000000000000e+00" purity="4.4532161951065063e-01" nType="-1"/>
              </Node>
              <Node pos="r" depth="2" NCoef="9" fC0="0.0000000000000000e+00" fC1="0.0000000000000000e+00" fC2="0.0000000000000000e+00" fC3="0.0000000000000000e+00" fC4="4.5391575102952995e-04" fC5="7.0651413760195085e-03" fC6="0.0000000000000000e+00" fC7="0.0000000000000000e+00" fC8="-7.9222118151652476e-01" IVar="8" Cut="-2.6381041854619980e-02" cType="0" res="-9.9000000000000000e+01" rms="0.0000000000000000e+00" purity="4.1867056488990784e-01" nType="0">
                <Node pos="l" depth="3" NCoef="0" IVar="-1" Cut="0.0000000000000000e+00" cType="1" res="-9.9000000000000000e+01" rms="0.0000000000000000e+00" purity="5.0131416320800781e-01" nType="1"/>
                <Node pos="r" depth="3" NCoef="0" IVar="-1" Cut="0.0000000000000000e+00" cType="1" res="-9.9000000000000000e+01" rms="0.0000000000000000e+00" purity="2.8675770759582520e-01" nType="-1"/>
              </Node>
            </Node>
          </Node>
        </BinaryTree>
        <BinaryTree type="DecisionTree" boostWeight="3.7591489612475507e-02" itree="45">
          <Node pos="s" depth="0" NCoef="0" IVar="6" Cut="7.5694610595703125e+01" cType="1" res="-9.9000000000000000e+01" rms="0.0000000000000000e+00" purity="4.9363085627555847e-01" nType="0">
            <Node pos="l" depth="1" NCoef="0" IVar="3" Cut="1.6654872894287109e+00" cType="1" res="-9.9000000000000000e+01" rms="0.0000000000000000e+00" purity="5.0069832801818848e-01" nType="0">
              <Node pos="l" depth="2" NCoef="0" IVar="7" Cut="2.0809259414672852e+00" cType="1" res="-9.9000000000000000e+01" rms="0.0000000000000000e+00" purity="5.0469750165939331e-01" nType="0">
                <Node pos="l" depth="3" NCoef="0" IVar="-1" Cut="0.0000000000000000e+00" cType="1" res="-9.9000000000000000e+01" rms="0.0000000000000000e+00" purity="5.0783061981201172e-01" nType="1"/>
                <Node pos="r" depth="3" NCoef="0" IVar="-1" Cut="0.0000000000000000e+00" cType="1" res="-9.9000000000000000e+01" rms="0.0000000000000000e+00" purity="4.3593344092369080e-01" nType="-1"/>
              </Node>
              <Node pos="r" depth="2" NCoef="0" IVar="5" Cut="1.2090673828125000e+02" cType="1" res="-9.9000000000000000e+01" rms="0.0000000000000000e+00" purity="4.6771904826164246e-01" nType="0">
                <Node pos="l" depth="3" NCoef="0" IVar="-1" Cut="0.0000000000000000e+00" cType="1" res="-9.9000000000000000e+01" rms="0.0000000000000000e+00" purity="5.0817763805389404e-01" nType="1"/>
                <Node pos="r" depth="3" NCoef="0" IVar="-1" Cut="0.0000000000000000e+00" cType="1" res="-9.9000000000000000e+01" rms="0.0000000000000000e+00" purity="3.7637317180633545e-01" nType="-1"/>
              </Node>
            </Node>
            <Node pos="r" depth="1" NCoef="0" IVar="-1" Cut="2.5433042049407959e+00" cType="0" res="-9.9000000000000000e+01" rms="0.0000000000000000e+00" purity="4.5312878489494324e-01" nType="-1"/>
          </Node>
        </BinaryTree>
        <BinaryTree type="DecisionTree" boostWeight="5.1149744159109597e-02" itree="46">
          <Node pos="s" depth="0" NCoef="0" IVar="2" Cut="2.6928882598876953e+00" cType="0" res="-9.9000000000000000e+01" rms="0.0000000000000000e+00" purity="4.8814922571182251e-01" nType="0">
            <Node pos="l" depth="1" NCoef="0" IVar="0" Cut="7.7504676818847656e+01" cType="1" res="-9.9000000000000000e+01" rms="0.0000000000000000e+00" purity="4.9463903903961182e-01" nType="0">
              <Node pos="l" depth="2" NCoef="0" IVar="0" Cut="3.4063858032226562e+01" cType="0" res="-9.9000000000000000e+01" rms="0.0000000000000000e+00" purity="4.9965971708297729e-01" nType="0">
                <Node pos="l" depth="3" NCoef="0" IVar="-1" Cut="0.0000000000000000e+00" cType="1" res="-9.9000000000000000e+01" rms="0.0000000000000000e+00" purity="5.0501352548599243e-01" nType="1"/>
                <Node pos="r" depth="3" NCoef="0" IVar="-1" Cut="0.0000000000000000e+00" cType="1" res="-9.9000000000000000e+01" rms="0.0000000000000000e+00" purity="3.6677774786949158e-01" nType="-1"/>
              </Node>
              <Node pos="r" depth="2" NCoef="0" IVar="-1" Cut="0.0000000000000000e+00" cType="1" res="-9.9000000000000000e+01" rms="0.0000000000000000e+00" purity="3.9503365755081177e-01" nType="-1"/>
            </Node>
            <Node pos="r" depth="1" NCoef="0" IVar="0" Cut="6.3898559570312500e+01" cType="0" res="-9.9000000000000000e+01" rms="0.0000000000000000e+00" purity="4.6609896421432495e-01" nType="0">
              <Node pos="l" depth="2" NCoef="0" IVar="-1" Cut="0.0000000000000000e+00" cType="1" res="-9.9000000000000000e+01" rms="0.0000000000000000e+00" purity="5.3820371627807617e-01" nType="1"/>
              <Node pos="r" depth="2" NCoef="0" IVar="0" Cut="4.4965843200683594e+01" cType="1" res="-9.9000000000000000e+01" rms="0.0000000000000000e+00" purity="4.4521638751029968e-01" nType="0">
                <Node pos="l" depth="3" NCoef="0" IVar="-1" Cut="0.0000000000000000e+00" cType="1" res="-9.9000000000000000e+01" rms="0.0000000000000000e+00" purity="5.2058863639831543e-01" nType="1"/>
                <Node pos="r" depth="3" NCoef="0" IVar="-1" Cut="0.0000000000000000e+00" cType="1" res="-9.9000000000000000e+01" rms="0.0000000000000000e+00" purity="4.0032142400741577e-01" nType="-1"/>
              </Node>
            </Node>
          </Node>
        </BinaryTree>
        <BinaryTree type="DecisionTree" boostWeight="7.3123455696617531e-02" itree="47">
          <Node pos="s" depth="0" NCoef="0" IVar="6" Cut="7.5694610595703125e+01" cType="1" res="-9.9000000000000000e+01" rms="0.0000000000000000e+00" purity="4.7980514168739319e-01" nType="0">
            <Node pos="l" depth="1" NCoef="0" IVar="0" Cut="5.6130550384521484e+01" cType="1" res="-9.9000000000000000e+01" rms="0.0000000000000000e+00" purity="4.8408237099647522e-01" nType="0">
              <Node pos="l" depth="2" NCoef="0" IVar="4" Cut="1.2000691223144531e+02" cType="0" res="-9.9000000000000000e+01" rms="0.0000000000000000e+00" purity="4.9507394433021545e-01" nType="0">
                <Node pos="l" depth="3" NCoef="0" IVar="-1" Cut="0.0000000000000000e+00" cType="1" res="-9.9000000000000000e+01" rms="0.0000000000000000e+00" purity="5.3194248676300049e-01" nType="1"/>
                <Node pos="r" depth="3" NCoef="0" IVar="-1" Cut="0.0000000000000000e+00" cType="1" res="-9.9000000000000000e+01" rms="0.0000000000000000e+00" purity="4.6049788594245911e-01" nType="-1"/>
              </Node>
              <Node pos="r" depth="2" NCoef="0" IVar="3" Cut="8.3275508880615234e-01" cType="1" res="-9.9000000000000000e+01" rms="0.0000000000000000e+00" purity="4.7219005227088928e-01" nType="0">
                <Node pos="l" depth="3" NCoef="0" IVar="-1" Cut="0.0000000000000000e+00" cType="1" res="-9.9000000000000000e+01" rms="0.0000000000000000e+00" purity="5.0438821315765381e-01" nType="1"/>
                <Node pos="r" depth="3" NCoef="0" IVar="-1" Cut="0.0000000000000000e+00" cType="1" res="-9.9000000000000000e+01" rms="0.0000000000000000e+00" purity="3.8548374176025391e-01" nType="-1"/>
              </Node>
            </Node>
            <Node pos="r" depth="1" NCoef="0" IVar="-1" Cut="2.5433042049407959e+00" cType="0" res="-9.9000000000000000e+01" rms="0.0000000000000000e+00" purity="4.5524817705154419e-01" nType="-1"/>
          </Node>
        </BinaryTree>
        <BinaryTree type="DecisionTree" boostWeight="6.1890270483076888e-02" itree="48">
          <Node pos="s" depth="0" NCoef="0" IVar="1" Cut="6.5536392211914062e+01" cType="0" res="-9.9000000000000000e+01" rms="0.0000000000000000e+00" purity="4.7927331924438477e-01" nType="0">
            <Node pos="l" depth="1" NCoef="0" IVar="-1" Cut="0.0000000000000000e+00" cType="1" res="-9.9000000000000000e+01" rms="0.0000000000000000e+00" purity="5.3423321247100830e-01" nType="1"/>
            <Node pos="r" depth="1" NCoef="0" IVar="5" Cut="1.2999206542968750e+02" cType="1" res="-9.9000000000000000e+01" rms="0.0000000000000000e+00" purity="4.7777169942855835e-01" nType="0">
              <Node pos="l" depth="2" NCoef="0" IVar="4" Cut="1.6792425537109375e+02" cType="0" res="-9.9000000000000000e+01" rms="0.0000000000000000e+00" purity="4.8742672801017761e-01" nType="0">
                <Node pos="l" depth="3" NCoef="0" IVar="-1" Cut="0.0000000000000000e+00" cType="1" res="-9.9000000000000000e+01" rms="0.0000000000000000e+00" purity="5.7856720685958862e-01" nType="1"/>
                <Node pos="r" depth="3" NCoef="0" IVar="-1" Cut="0.0000000000000000e+00" cType="1" res="-9.9000000000000000e+01" rms="0.0000000000000000e+00" purity="4.8199069499969482e-01" nType="-1"/>
              </Node>
              <Node pos="r" depth="2" NCoef="0" IVar="-1" Cut="0.0000000000000000e+00" cType="1" res="-9.9000000000000000e+01" rms="0.0000000000000000e+00" purity="1.5666939318180084e-01" nType="-1"/>
            </Node>
          </Node>
        </BinaryTree>
        <BinaryTree type="DecisionTree" boostWeight="3.6876176303977694e-02" itree="49">
          <Node pos="s" depth="0" NCoef="0" IVar="5" Cut="8.2189170837402344e+01" cType="1" res="-9.9000000000000000e+01" rms="0.0000000000000000e+00" purity="4.9225288629531860e-01" nType="0">
            <Node pos="l" depth="1" NCoef="0" IVar="5" Cut="7.5896484375000000e+01" cType="0" res="-9.9000000000000000e+01" rms="0.0000000000000000e+00" purity="5.2777606248855591e-01" nType="0">
              <Node pos="l" depth="2" NCoef="0" IVar="-1" Cut="0.0000000000000000e+00" cType="1" res="-9.9000000000000000e+01" rms="0.0000000000000000e+00" purity="6.1252266168594360e-01" nType="1"/>
              <Node pos="r" depth="2" NCoef="0" IVar="-1" Cut="0.0000000000000000e+00" cType="1" res="-9.9000000000000000e+01" rms="0.0000000000000000e+00" purity="4.0448740124702454e-01" nType="-1"/>
            </Node>
            <Node pos="r" depth="1" NCoef="0" IVar="3" Cut="1.6654936075210571e+00" cType="1" res="-9.9000000000000000e+01" rms="0.0000000000000000e+00" purity="4.8982807993888855e-01" nType="0">
              <Node pos="l" depth="2" NCoef="0" IVar="-1" Cut="1.9714034795761108e+00" cType="1" res="-9.9000000000000000e+01" rms="0.0000000000000000e+00" purity="4.9288061261177063e-01" nType="-1"/>
              <Node pos="r" depth="2" NCoef="0" IVar="7" Cut="9.8575437068939209e-01" cType="0" res="-9.9000000000000000e+01" rms="0.0000000000000000e+00" purity="4.6663916110992432e-01" nType="0">
                <Node pos="l" depth="3" NCoef="0" IVar="-1" Cut="0.0000000000000000e+00" cType="1" res="-9.9000000000000000e+01" rms="0.0000000000000000e+00" purity="5.2088075876235962e-01" nType="1"/>
                <Node pos="r" depth="3" NCoef="0" IVar="-1" Cut="0.0000000000000000e+00" cType="1" res="-9.9000000000000000e+01" rms="0.0000000000000000e+00" purity="4.1754266619682312e-01" nType="-1"/>
              </Node>
            </Node>
          </Node>
        </BinaryTree>
        <BinaryTree type="DecisionTree" boostWeight="5.2606368197727536e-02" itree="50">
          <Node pos="s" depth="0" NCoef="0" IVar="3" Cut="1.6654872894287109e+00" cType="1" res="-9.9000000000000000e+01" rms="0.0000000000000000e+00" purity="4.9980416893959045e-01" nType="0">
            <Node pos="l" depth="1" NCoef="0" IVar="4" Cut="8.8695335388183594e+01" cType="0" res="-9.9000000000000000e+01" rms="0.0000000000000000e+00" purity="5.0366401672363281e-01" nType="0">
              <Node pos="l" depth="2" NCoef="0" IVar="0" Cut="5.8187274932861328e+01" cType="1" res="-9.9000000000000000e+01" rms="0.0000000000000000e+00" purity="5.0642442703247070e-01" nType="0">
                <Node pos="l" depth="3" NCoef="0" IVar="-1" Cut="0.0000000000000000e+00" cType="1" res="-9.9000000000000000e+01" rms="0.0000000000000000e+00" purity="5.1981621980667114e-01" nType="1"/>
                <Node pos="r" depth="3" NCoef="0" IVar="-1" Cut="0.0000000000000000e+00" cType="1" res="-9.9000000000000000e+01" rms="0.0000000000000000e+00" purity="4.9031332135200500e-01" nType="-1"/>
              </Node>
              <Node pos="r" depth="2" NCoef="0" IVar="-1" Cut="0.0000000000000000e+00" cType="1" res="-9.9000000000000000e+01" rms="0.0000000000000000e+00" purity="4.0810069441795349e-01" nType="-1"/>
            </Node>
