<?xml version="1.0"?>
<MethodSetup Method="BDT::BDTG">
  <GeneralInfo>
    <Info name="TMVA Release" value="4.2.1 [262657]"/>
    <Info name="ROOT Release" value="6.10/09 [395785]"/>
    <Info name="Creator" value="psiddire"/>
    <Info name="Date" value="Thu Apr 11 04:50:35 2019"/>
    <Info name="Host" value="Linux cmsbuild76.cern.ch 2.6.32-696.30.1.el6.x86_64 #1 SMP Tue May 22 06:09:36 CEST 2018 x86_64 x86_64 x86_64 GNU/Linux"/>
    <Info name="Dir" value="/afs/hep.wisc.edu/user/psiddire/CMSSW_9_4_9/src/UWHiggs/mte"/>
    <Info name="Training events" value="3645000"/>
    <Info name="TrainingTime" value="4.92925092e+03"/>
    <Info name="AnalysisType" value="Classification"/>
  </GeneralInfo>
  <Options>
    <Option name="V" modified="Yes">False</Option>
    <Option name="VerbosityLevel" modified="No">Default</Option>
    <Option name="VarTransform" modified="No">None</Option>
    <Option name="H" modified="Yes">False</Option>
    <Option name="CreateMVAPdfs" modified="No">False</Option>
    <Option name="IgnoreNegWeightsInTraining" modified="No">False</Option>
    <Option name="NTrees" modified="Yes">1000</Option>
    <Option name="MaxDepth" modified="Yes">2</Option>
    <Option name="MinNodeSize" modified="Yes">2.5%</Option>
    <Option name="nCuts" modified="Yes">20</Option>
    <Option name="BoostType" modified="Yes">Grad</Option>
    <Option name="AdaBoostR2Loss" modified="No">quadratic</Option>
    <Option name="UseBaggedBoost" modified="Yes">True</Option>
    <Option name="Shrinkage" modified="Yes">1.000000e-01</Option>
    <Option name="AdaBoostBeta" modified="No">5.000000e-01</Option>
    <Option name="UseRandomisedTrees" modified="No">False</Option>
    <Option name="UseNvars" modified="No">3</Option>
    <Option name="UsePoissonNvars" modified="No">True</Option>
    <Option name="BaggedSampleFraction" modified="Yes">5.000000e-01</Option>
    <Option name="UseYesNoLeaf" modified="No">True</Option>
    <Option name="NegWeightTreatment" modified="No">pray</Option>
    <Option name="Css" modified="No">1.000000e+00</Option>
    <Option name="Cts_sb" modified="No">1.000000e+00</Option>
    <Option name="Ctb_ss" modified="No">1.000000e+00</Option>
    <Option name="Cbb" modified="No">1.000000e+00</Option>
    <Option name="NodePurityLimit" modified="No">5.000000e-01</Option>
    <Option name="SeparationType" modified="No">giniindex</Option>
    <Option name="RegressionLossFunctionBDTG" modified="No">huber</Option>
    <Option name="HuberQuantile" modified="No">7.000000e-01</Option>
    <Option name="DoBoostMonitor" modified="No">False</Option>
    <Option name="UseFisherCuts" modified="No">False</Option>
    <Option name="MinLinCorrForFisher" modified="No">8.000000e-01</Option>
    <Option name="UseExclusiveVars" modified="No">False</Option>
    <Option name="DoPreselection" modified="No">False</Option>
    <Option name="SigToBkgFraction" modified="No">1.000000e+00</Option>
    <Option name="PruneMethod" modified="No">nopruning</Option>
    <Option name="PruneStrength" modified="No">0.000000e+00</Option>
    <Option name="PruningValFraction" modified="No">5.000000e-01</Option>
    <Option name="SkipNormalization" modified="No">False</Option>
    <Option name="nEventsMin" modified="No">0</Option>
    <Option name="UseBaggedGrad" modified="No">False</Option>
    <Option name="GradBaggingFraction" modified="No">5.000000e-01</Option>
    <Option name="UseNTrainEvents" modified="No">0</Option>
    <Option name="NNodesMax" modified="No">0</Option>
  </Options>
  <Variables NVar="8">
    <Variable VarIndex="0" Expression="mPt" Label="mPt" Title="mPt" Unit="" Internal="mPt" Type="F" Min="2.80000000e+01" Max="1.19848975e+03"/>
    <Variable VarIndex="1" Expression="ePt" Label="ePt" Title="ePt" Unit="" Internal="ePt" Type="F" Min="1.00000019e+01" Max="9.80885254e+02"/>
    <Variable VarIndex="2" Expression="m_e_collinearMass" Label="m_e_collinearMass" Title="m_e_collinearMass" Unit="" Internal="m_e_collinearMass" Type="F" Min="7.46588373e+00" Max="2.38611670e+03"/>
    <Variable VarIndex="3" Expression="dPhiMuMET" Label="dPhiMuMET" Title="dPhiMuMET" Unit="" Internal="dPhiMuMET" Type="F" Min="7.15255737e-07" Max="3.14159226e+00"/>
    <Variable VarIndex="4" Expression="dPhiEMET" Label="dPhiEMET" Title="dPhiEMET" Unit="" Internal="dPhiEMET" Type="F" Min="7.15255737e-07" Max="3.14159226e+00"/>
    <Variable VarIndex="5" Expression="dPhiMuE" Label="dPhiMuE" Title="dPhiMuE" Unit="" Internal="dPhiMuE" Type="F" Min="5.48362732e-06" Max="3.14159250e+00"/>
    <Variable VarIndex="6" Expression="MTMuMET" Label="MTMuMET" Title="MTMuMET" Unit="" Internal="MTMuMET" Type="F" Min="2.39805244e-02" Max="2.23281201e+03"/>
    <Variable VarIndex="7" Expression="MTEMET" Label="MTEMET" Title="MTEMET" Unit="" Internal="MTEMET" Type="F" Min="1.55695176e-04" Max="1.42370520e+03"/>
  </Variables>
  <Spectators NSpec="0"/>
  <Classes NClass="2">
    <Class Name="Signal" Index="0"/>
    <Class Name="Background" Index="1"/>
  </Classes>
  <Transformations NTransformations="0"/>
  <MVAPdfs/>
  <Weights NTrees="1000" AnalysisType="1">
    <BinaryTree type="DecisionTree" boostWeight="1.0000000000000000e+00" itree="0">
      <Node pos="s" depth="0" NCoef="0" IVar="2" Cut="1.1759838867187500e+02" cType="1" res="8.2128396024927497e-04" rms="4.9999931454658508e-01" purity="5.0082129240036011e-01" nType="0">
        <Node pos="l" depth="1" NCoef="0" IVar="0" Cut="5.4539150238037109e+01" cType="1" res="-1.7469213902950287e-01" rms="4.6848976612091064e-01" purity="3.2530784606933594e-01" nType="0">
          <Node pos="l" depth="2" NCoef="0" IVar="-1" Cut="0.0000000000000000e+00" cType="1" res="-8.9839724823832512e-03" rms="3.9579716324806213e-01" purity="1.9447648525238037e-01" nType="-99"/>
          <Node pos="r" depth="2" NCoef="0" IVar="-1" Cut="0.0000000000000000e+00" cType="1" res="2.7298002969473600e-03" rms="4.2189353704452515e-01" purity="7.6833897829055786e-01" nType="-99"/>
        </Node>
        <Node pos="r" depth="1" NCoef="0" IVar="7" Cut="4.8791309356689453e+01" cType="1" res="2.2049294412136078e-01" rms="4.4875702261924744e-01" purity="7.2049289941787720e-01" nType="0">
          <Node pos="l" depth="2" NCoef="0" IVar="-1" Cut="0.0000000000000000e+00" cType="1" res="3.4166669938713312e-03" rms="3.3159917593002319e-01" purity="8.7422186136245728e-01" nType="-99"/>
          <Node pos="r" depth="2" NCoef="0" IVar="-1" Cut="0.0000000000000000e+00" cType="1" res="-2.7272333391010761e-03" rms="4.7108611464500427e-01" purity="3.3243548870086670e-01" nType="-99"/>
        </Node>
      </Node>
    </BinaryTree>
    <BinaryTree type="DecisionTree" boostWeight="1.0000000000000000e+00" itree="1">
      <Node pos="s" depth="0" NCoef="0" IVar="2" Cut="8.8295257568359375e+01" cType="1" res="8.7026046821847558e-04" rms="4.9827614426612854e-01" purity="4.9947622418403625e-01" nType="0">
        <Node pos="l" depth="1" NCoef="0" IVar="2" Cut="7.6748130798339844e+01" cType="1" res="-4.0395277738571167e-01" rms="2.8847107291221619e-01" purity="9.2151604592800140e-02" nType="0">
          <Node pos="l" depth="2" NCoef="0" IVar="-1" Cut="0.0000000000000000e+00" cType="1" res="-2.7455061674118042e-02" rms="2.1933588385581970e-01" purity="5.0934910774230957e-02" nType="-99"/>
          <Node pos="r" depth="2" NCoef="0" IVar="-1" Cut="0.0000000000000000e+00" cType="1" res="-1.1619955301284790e-02" rms="3.6884614825248718e-01" purity="1.6355353593826294e-01" nType="-99"/>
        </Node>
        <Node pos="r" depth="1" NCoef="0" IVar="7" Cut="4.8770072937011719e+01" cType="1" res="1.5839183330535889e-01" rms="4.7320815920829773e-01" purity="6.5797120332717896e-01" nType="0">
          <Node pos="l" depth="2" NCoef="0" IVar="-1" Cut="0.0000000000000000e+00" cType="1" res="2.8802491724491119e-03" rms="4.0765786170959473e-01" purity="7.8804653882980347e-01" nType="-99"/>
          <Node pos="r" depth="2" NCoef="0" IVar="-1" Cut="0.0000000000000000e+00" cType="1" res="-3.4475268330425024e-03" rms="4.6081876754760742e-01" purity="3.0685207247734070e-01" nType="-99"/>
        </Node>
      </Node>
    </BinaryTree>
    <BinaryTree type="DecisionTree" boostWeight="1.0000000000000000e+00" itree="2">
      <Node pos="s" depth="0" NCoef="0" IVar="2" Cut="9.3953277587890625e+01" cType="1" res="6.6158017143607140e-03" rms="4.9513101577758789e-01" purity="5.0265765190124512e-01" nType="0">
        <Node pos="l" depth="1" NCoef="0" IVar="0" Cut="4.3095264434814453e+01" cType="1" res="-3.6001029610633850e-01" rms="3.3069998025894165e-01" purity="1.2713304162025452e-01" nType="0">
          <Node pos="l" depth="2" NCoef="0" IVar="-1" Cut="0.0000000000000000e+00" cType="1" res="-3.6599867045879364e-02" rms="1.7519091069698334e-01" purity="3.1979788094758987e-02" nType="-99"/>
          <Node pos="r" depth="2" NCoef="0" IVar="-1" Cut="0.0000000000000000e+00" cType="1" res="-1.1560389539226890e-03" rms="4.8954859375953674e-01" purity="4.1255691647529602e-01" nType="-99"/>
        </Node>
        <Node pos="r" depth="1" NCoef="0" IVar="7" Cut="6.7796859741210938e+01" cType="1" res="1.8667429685592651e-01" rms="4.6196344494819641e-01" purity="6.8708646297454834e-01" nType="0">
          <Node pos="l" depth="2" NCoef="0" IVar="-1" Cut="0.0000000000000000e+00" cType="1" res="2.8368737548589706e-03" rms="4.0950220823287964e-01" purity="7.8522682189941406e-01" nType="-99"/>
          <Node pos="r" depth="2" NCoef="0" IVar="-1" Cut="0.0000000000000000e+00" cType="1" res="-6.2979813665151596e-03" rms="3.9820080995559692e-01" purity="1.9780632853507996e-01" nType="-99"/>
        </Node>
      </Node>
    </BinaryTree>
    <BinaryTree type="DecisionTree" boostWeight="1.0000000000000000e+00" itree="3">
      <Node pos="s" depth="0" NCoef="0" IVar="2" Cut="1.2128581237792969e+02" cType="1" res="8.9674759656190872e-03" rms="4.9031937122344971e-01" purity="5.0084078311920166e-01" nType="0">
        <Node pos="l" depth="1" NCoef="0" IVar="2" Cut="9.9715980529785156e+01" cType="1" res="-1.2562219798564911e-01" rms="4.6946129202842712e-01" purity="3.5953411459922791e-01" nType="0">
          <Node pos="l" depth="2" NCoef="0" IVar="-1" Cut="0.0000000000000000e+00" cType="1" res="-1.0600043460726738e-02" rms="3.6046564579010010e-01" purity="1.6119994223117828e-01" nType="-99"/>
          <Node pos="r" depth="2" NCoef="0" IVar="-1" Cut="0.0000000000000000e+00" cType="1" res="2.2183817345649004e-03" rms="4.5380312204360962e-01" purity="7.0525801181793213e-01" nType="-99"/>
        </Node>
        <Node pos="r" depth="1" NCoef="0" IVar="7" Cut="4.8770267486572266e+01" cType="1" res="2.0799133181571960e-01" rms="4.5124194025993347e-01" purity="7.0979750156402588e-01" nType="0">
          <Node pos="l" depth="2" NCoef="0" IVar="-1" Cut="0.0000000000000000e+00" cType="1" res="3.3729928545653820e-03" rms="3.3320403099060059e-01" purity="8.7279355525970459e-01" nType="-99"/>
          <Node pos="r" depth="2" NCoef="0" IVar="-1" Cut="0.0000000000000000e+00" cType="1" res="-3.0960761941969395e-03" rms="4.6248009800910950e-01" purity="3.1166175007820129e-01" nType="-99"/>
        </Node>
      </Node>
    </BinaryTree>
    <BinaryTree type="DecisionTree" boostWeight="1.0000000000000000e+00" itree="4">
      <Node pos="s" depth="0" NCoef="0" IVar="2" Cut="1.2073497009277344e+02" cType="1" res="1.0477238334715366e-02" rms="4.8846504092216492e-01" purity="5.0089240074157715e-01" nType="0">
        <Node pos="l" depth="1" NCoef="0" IVar="0" Cut="5.1870159149169922e+01" cType="1" res="-1.2967930734157562e-01" rms="4.6577209234237671e-01" purity="3.5223564505577087e-01" nType="0">
          <Node pos="l" depth="2" NCoef="0" IVar="-1" Cut="0.0000000000000000e+00" cType="1" res="-8.5242595523595810e-03" rms="3.8252100348472595e-01" purity="1.8884113430976868e-01" nType="-99"/>
          <Node pos="r" depth="2" NCoef="0" IVar="-1" Cut="0.0000000000000000e+00" cType="1" res="2.7631933335214853e-03" rms="4.1432729363441467e-01" purity="7.7402007579803467e-01" nType="-99"/>
        </Node>
        <Node pos="r" depth="1" NCoef="0" IVar="7" Cut="4.8770267486572266e+01" cType="1" res="2.1183410286903381e-01" rms="4.4826558232307434e-01" purity="7.1446108818054199e-01" nType="0">
          <Node pos="l" depth="2" NCoef="0" IVar="-1" Cut="0.0000000000000000e+00" cType="1" res="3.3683390356600285e-03" rms="3.3145260810852051e-01" purity="8.7435269355773926e-01" nType="-99"/>
          <Node pos="r" depth="2" NCoef="0" IVar="-1" Cut="0.0000000000000000e+00" cType="1" res="-3.0407400336116552e-03" rms="4.6283024549484253e-01" purity="3.1261026859283447e-01" nType="-99"/>
        </Node>
      </Node>
    </BinaryTree>
    <BinaryTree type="DecisionTree" boostWeight="1.0000000000000000e+00" itree="5">
      <Node pos="s" depth="0" NCoef="0" IVar="2" Cut="7.8780464172363281e+01" cType="1" res="9.5882788300514221e-03" rms="4.8684537410736084e-01" purity="4.9869596958160400e-01" nType="0">
        <Node pos="l" depth="1" NCoef="0" IVar="0" Cut="4.6105388641357422e+01" cType="1" res="-4.0467545390129089e-01" rms="2.2306533157825470e-01" purity="5.4442275315523148e-02" nType="0">
          <Node pos="l" depth="2" NCoef="0" IVar="-1" Cut="0.0000000000000000e+00" cType="1" res="-4.0615066885948181e-02" rms="1.2717700004577637e-01" purity="1.6561547294259071e-02" nType="-99"/>
          <Node pos="r" depth="2" NCoef="0" IVar="-1" Cut="0.0000000000000000e+00" cType="1" res="-3.9595626294612885e-03" rms="4.4385832548141479e-01" purity="2.7193522453308105e-01" nType="-99"/>
        </Node>
        <Node pos="r" depth="1" NCoef="0" IVar="7" Cut="4.8770240783691406e+01" cType="1" res="1.1003620177507401e-01" rms="4.8033562302589417e-01" purity="6.0641568899154663e-01" nType="0">
          <Node pos="l" depth="2" NCoef="0" IVar="-1" Cut="0.0000000000000000e+00" cType="1" res="2.4124765768647194e-03" rms="4.3928840756416321e-01" purity="7.2310090065002441e-01" nType="-99"/>
          <Node pos="r" depth="2" NCoef="0" IVar="-1" Cut="0.0000000000000000e+00" cType="1" res="-3.8041551597416401e-03" rms="4.4835045933723450e-01" purity="2.8571602702140808e-01" nType="-99"/>
        </Node>
      </Node>
    </BinaryTree>
    <BinaryTree type="DecisionTree" boostWeight="1.0000000000000000e+00" itree="6">
      <Node pos="s" depth="0" NCoef="0" IVar="2" Cut="9.4956443786621094e+01" cType="1" res="1.4198931865394115e-02" rms="4.8321235179901123e-01" purity="5.0025832653045654e-01" nType="0">
        <Node pos="l" depth="1" NCoef="0" IVar="2" Cut="8.6623985290527344e+01" cType="1" res="-3.2609254121780396e-01" rms="3.2505342364311218e-01" purity="1.2928281724452972e-01" nType="0">
          <Node pos="l" depth="2" NCoef="0" IVar="-1" Cut="0.0000000000000000e+00" cType="1" res="-1.7838137224316597e-02" rms="2.6631572842597961e-01" purity="8.1902466714382172e-02" nType="-99"/>
          <Node pos="r" depth="2" NCoef="0" IVar="-1" Cut="0.0000000000000000e+00" cType="1" res="-3.6878872197121382e-03" rms="4.4937562942504883e-01" purity="2.9752939939498901e-01" nType="-99"/>
        </Node>
        <Node pos="r" depth="1" NCoef="0" IVar="7" Cut="4.8771755218505859e+01" cType="1" res="1.8877743184566498e-01" rms="4.5737445354461670e-01" purity="6.9057852029800415e-01" nType="0">
          <Node pos="l" depth="2" NCoef="0" IVar="-1" Cut="0.0000000000000000e+00" cType="1" res="3.0649974942207336e-03" rms="3.7852793931961060e-01" purity="8.2451087236404419e-01" nType="-99"/>
          <Node pos="r" depth="2" NCoef="0" IVar="-1" Cut="0.0000000000000000e+00" cType="1" res="-2.7867194730788469e-03" rms="4.6727132797241211e-01" purity="3.2636857032775879e-01" nType="-99"/>
        </Node>
      </Node>
    </BinaryTree>
    <BinaryTree type="DecisionTree" boostWeight="1.0000000000000000e+00" itree="7">
      <Node pos="s" depth="0" NCoef="0" IVar="2" Cut="8.8749885559082031e+01" cType="1" res="1.7119631171226501e-02" rms="4.8082962632179260e-01" purity="5.0123238563537598e-01" nType="0">
        <Node pos="l" depth="1" NCoef="0" IVar="2" Cut="7.3358123779296875e+01" cType="1" res="-3.4670385718345642e-01" rms="2.8515449166297913e-01" purity="9.5545485615730286e-02" nType="0">
          <Node pos="l" depth="2" NCoef="0" IVar="-1" Cut="0.0000000000000000e+00" cType="1" res="-2.4762684479355812e-02" rms="1.8623368442058563e-01" purity="3.7887781858444214e-02" nType="-99"/>
          <Node pos="r" depth="2" NCoef="0" IVar="-1" Cut="0.0000000000000000e+00" cType="1" res="-1.0587149299681187e-02" rms="3.5601356625556946e-01" purity="1.5790314972400665e-01" nType="-99"/>
        </Node>
        <Node pos="r" depth="1" NCoef="0" IVar="7" Cut="4.8789237976074219e+01" cType="1" res="1.6128931939601898e-01" rms="4.6621173620223999e-01" purity="6.6199105978012085e-01" nType="0">
          <Node pos="l" depth="2" NCoef="0" IVar="-1" Cut="0.0000000000000000e+00" cType="1" res="2.8623039834201336e-03" rms="4.0148186683654785e-01" purity="7.9236549139022827e-01" nType="-99"/>
          <Node pos="r" depth="2" NCoef="0" IVar="-1" Cut="0.0000000000000000e+00" cType="1" res="-3.2130100298672915e-03" rms="4.5938730239868164e-01" purity="3.0802768468856812e-01" nType="-99"/>
        </Node>
      </Node>
    </BinaryTree>
    <BinaryTree type="DecisionTree" boostWeight="1.0000000000000000e+00" itree="8">
      <Node pos="s" depth="0" NCoef="0" IVar="2" Cut="9.4956443786621094e+01" cType="1" res="1.5538427047431469e-02" rms="4.7831538319587708e-01" purity="4.9745988845825195e-01" nType="0">
        <Node pos="l" depth="1" NCoef="0" IVar="0" Cut="4.6105354309082031e+01" cType="1" res="-3.1080892682075500e-01" rms="3.2401019334793091e-01" purity="1.3009457290172577e-01" nType="0">
          <Node pos="l" depth="2" NCoef="0" IVar="-1" Cut="0.0000000000000000e+00" cType="1" res="-2.6113308966159821e-02" rms="1.9525958597660065e-01" purity="4.1268028318881989e-02" nType="-99"/>
          <Node pos="r" depth="2" NCoef="0" IVar="-1" Cut="0.0000000000000000e+00" cType="1" res="-2.3003009118838236e-05" rms="4.9227184057235718e-01" purity="4.7252681851387024e-01" nType="-99"/>
        </Node>
        <Node pos="r" depth="1" NCoef="0" IVar="7" Cut="4.8789554595947266e+01" cType="1" res="1.8428994715213776e-01" rms="4.5744335651397705e-01" purity="6.8742144107818604e-01" nType="0">
          <Node pos="l" depth="2" NCoef="0" IVar="-1" Cut="0.0000000000000000e+00" cType="1" res="3.0220346525311470e-03" rms="3.8036340475082397e-01" purity="8.2239937782287598e-01" nType="-99"/>
          <Node pos="r" depth="2" NCoef="0" IVar="-1" Cut="0.0000000000000000e+00" cType="1" res="-2.9188280459493399e-03" rms="4.6448475122451782e-01" purity="3.1892827153205872e-01" nType="-99"/>
        </Node>
      </Node>
    </BinaryTree>
    <BinaryTree type="DecisionTree" boostWeight="1.0000000000000000e+00" itree="9">
      <Node pos="s" depth="0" NCoef="0" IVar="2" Cut="1.2073497009277344e+02" cType="1" res="2.2879779338836670e-02" rms="4.7481140494346619e-01" purity="5.0205749273300171e-01" nType="0">
        <Node pos="l" depth="1" NCoef="0" IVar="0" Cut="5.1868637084960938e+01" cType="1" res="-1.0698946565389633e-01" rms="4.5157244801521301e-01" purity="3.5378006100654602e-01" nType="0">
          <Node pos="l" depth="2" NCoef="0" IVar="-1" Cut="0.0000000000000000e+00" cType="1" res="-7.7269892208278179e-03" rms="3.7122222781181335e-01" purity="1.8792723119258881e-01" nType="-99"/>
          <Node pos="r" depth="2" NCoef="0" IVar="-1" Cut="0.0000000000000000e+00" cType="1" res="2.7782008983194828e-03" rms="4.0869328379631042e-01" purity="7.7586072683334351e-01" nType="-99"/>
        </Node>
        <Node pos="r" depth="1" NCoef="0" IVar="7" Cut="4.8770389556884766e+01" cType="1" res="2.0976421236991882e-01" rms="4.4410479068756104e-01" purity="7.1543186902999878e-01" nType="0">
          <Node pos="l" depth="2" NCoef="0" IVar="-1" Cut="0.0000000000000000e+00" cType="1" res="3.2884019892662764e-03" rms="3.3212003111839294e-01" purity="8.7376034259796143e-01" nType="-99"/>
          <Node pos="r" depth="2" NCoef="0" IVar="-1" Cut="0.0000000000000000e+00" cType="1" res="-2.8434435371309519e-03" rms="4.6450403332710266e-01" purity="3.1678867340087891e-01" nType="-99"/>
        </Node>
      </Node>
    </BinaryTree>
    <BinaryTree type="DecisionTree" boostWeight="1.0000000000000000e+00" itree="10">
      <Node pos="s" depth="0" NCoef="0" IVar="2" Cut="7.7472343444824219e+01" cType="1" res="2.3630829527974129e-02" rms="4.7340324521064758e-01" purity="5.0166058540344238e-01" nType="0">
        <Node pos="l" depth="1" NCoef="0" IVar="0" Cut="4.3095264434814453e+01" cType="1" res="-3.5831731557846069e-01" rms="2.0871140062808990e-01" purity="4.9045886844396591e-02" nType="0">
          <Node pos="l" depth="2" NCoef="0" IVar="-1" Cut="0.0000000000000000e+00" cType="1" res="-4.0358588099479675e-02" rms="1.1690583825111389e-01" purity="1.3902070932090282e-02" nType="-99"/>
          <Node pos="r" depth="2" NCoef="0" IVar="-1" Cut="0.0000000000000000e+00" cType="1" res="-5.2690776064991951e-03" rms="4.0171453356742859e-01" purity="2.0761922001838684e-01" nType="-99"/>
        </Node>
        <Node pos="r" depth="1" NCoef="0" IVar="7" Cut="4.8789554595947266e+01" cType="1" res="1.0890368372201920e-01" rms="4.7389724850654602e-01" purity="6.0271024703979492e-01" nType="0">
          <Node pos="l" depth="2" NCoef="0" IVar="-1" Cut="0.0000000000000000e+00" cType="1" res="2.3790919221937656e-03" rms="4.3462389707565308e-01" purity="7.1836757659912109e-01" nType="-99"/>
          <Node pos="r" depth="2" NCoef="0" IVar="-1" Cut="0.0000000000000000e+00" cType="1" res="-3.8396725431084633e-03" rms="4.4367641210556030e-01" purity="2.7991124987602234e-01" nType="-99"/>
        </Node>
      </Node>
    </BinaryTree>
    <BinaryTree type="DecisionTree" boostWeight="1.0000000000000000e+00" itree="11">
      <Node pos="s" depth="0" NCoef="0" IVar="4" Cut="1.1967966556549072e+00" cType="1" res="2.3575788363814354e-02" rms="4.7039332985877991e-01" purity="4.9881756305694580e-01" nType="0">
        <Node pos="l" depth="1" NCoef="0" IVar="2" Cut="1.2186699676513672e+02" cType="1" res="1.5042088925838470e-01" rms="4.5262071490287781e-01" purity="6.4094132184982300e-01" nType="0">
          <Node pos="l" depth="2" NCoef="0" IVar="-1" Cut="0.0000000000000000e+00" cType="1" res="-3.8409570697695017e-04" rms="4.6568155288696289e-01" purity="4.4456598162651062e-01" nType="-99"/>
          <Node pos="r" depth="2" NCoef="0" IVar="-1" Cut="0.0000000000000000e+00" cType="1" res="3.1039319001138210e-03" rms="3.5717219114303589e-01" purity="8.4720224142074585e-01" nType="-99"/>
        </Node>
        <Node pos="r" depth="1" NCoef="0" IVar="0" Cut="5.0548671722412109e+01" cType="1" res="-1.5413393080234528e-01" rms="4.3603900074958801e-01" purity="2.9970261454582214e-01" nType="0">
          <Node pos="l" depth="2" NCoef="0" IVar="-1" Cut="0.0000000000000000e+00" cType="1" res="-8.3975624293088913e-03" rms="3.4652033448219299e-01" purity="1.5754504501819611e-01" nType="-99"/>
          <Node pos="r" depth="2" NCoef="0" IVar="-1" Cut="0.0000000000000000e+00" cType="1" res="5.8050389634445310e-04" rms="4.9183133244514465e-01" purity="5.3420615196228027e-01" nType="-99"/>
        </Node>
      </Node>
    </BinaryTree>
    <BinaryTree type="DecisionTree" boostWeight="1.0000000000000000e+00" itree="12">
      <Node pos="s" depth="0" NCoef="0" IVar="2" Cut="1.1750217437744141e+02" cType="1" res="2.4486510083079338e-02" rms="4.6956536173820496e-01" purity="4.9910831451416016e-01" nType="0">
        <Node pos="l" depth="1" NCoef="0" IVar="0" Cut="5.1868644714355469e+01" cType="1" res="-1.2694615125656128e-01" rms="4.3657076358795166e-01" purity="3.2156157493591309e-01" nType="0">
          <Node pos="l" depth="2" NCoef="0" IVar="-1" Cut="0.0000000000000000e+00" cType="1" res="-8.8850883767008781e-03" rms="3.5203519463539124e-01" purity="1.6592910885810852e-01" nType="-99"/>
          <Node pos="r" depth="2" NCoef="0" IVar="-1" Cut="0.0000000000000000e+00" cType="1" res="2.6336284354329109e-03" rms="4.2076256871223450e-01" purity="7.5544869899749756e-01" nType="-99"/>
        </Node>
        <Node pos="r" depth="1" NCoef="0" IVar="7" Cut="6.7798103332519531e+01" cType="1" res="2.1292555332183838e-01" rms="4.4005721807479858e-01" purity="7.2004312276840210e-01" nType="0">
          <Node pos="l" depth="2" NCoef="0" IVar="-1" Cut="0.0000000000000000e+00" cType="1" res="3.1047980301082134e-03" rms="3.6032119393348694e-01" purity="8.4426575899124146e-01" nType="-99"/>
          <Node pos="r" depth="2" NCoef="0" IVar="-1" Cut="0.0000000000000000e+00" cType="1" res="-5.2273026667535305e-03" rms="4.1072419285774231e-01" purity="2.1495582163333893e-01" nType="-99"/>
        </Node>
      </Node>
    </BinaryTree>
    <BinaryTree type="DecisionTree" boostWeight="1.0000000000000000e+00" itree="13">
      <Node pos="s" depth="0" NCoef="0" IVar="4" Cut="1.0471972227096558e+00" cType="1" res="2.4893362075090408e-02" rms="4.6803784370422363e-01" purity="4.9811658263206482e-01" nType="0">
        <Node pos="l" depth="1" NCoef="0" IVar="2" Cut="1.2285602569580078e+02" cType="1" res="1.6054099798202515e-01" rms="4.4814676046371460e-01" purity="6.5328133106231689e-01" nType="0">
          <Node pos="l" depth="2" NCoef="0" IVar="-1" Cut="0.0000000000000000e+00" cType="1" res="-1.8497578275855631e-04" rms="4.6639391779899597e-01" purity="4.5654577016830444e-01" nType="-99"/>
          <Node pos="r" depth="2" NCoef="0" IVar="-1" Cut="0.0000000000000000e+00" cType="1" res="3.1470258254557848e-03" rms="3.4955900907516479e-01" purity="8.5543429851531982e-01" nType="-99"/>
        </Node>
        <Node pos="r" depth="1" NCoef="0" IVar="0" Cut="5.0473251342773438e+01" cType="1" res="-1.3248528540134430e-01" rms="4.4055280089378357e-01" purity="3.1809416413307190e-01" nType="0">
          <Node pos="l" depth="2" NCoef="0" IVar="-1" Cut="0.0000000000000000e+00" cType="1" res="-7.3823221027851105e-03" rms="3.5469424724578857e-01" purity="1.6835616528987885e-01" nType="-99"/>
          <Node pos="r" depth="2" NCoef="0" IVar="-1" Cut="0.0000000000000000e+00" cType="1" res="8.3843682659789920e-04" rms="4.8857095837593079e-01" purity="5.5777829885482788e-01" nType="-99"/>
        </Node>
      </Node>
    </BinaryTree>
    <BinaryTree type="DecisionTree" boostWeight="1.0000000000000000e+00" itree="14">
      <Node pos="s" depth="0" NCoef="0" IVar="4" Cut="1.1967958211898804e+00" cType="1" res="2.9200518503785133e-02" rms="4.6692904829978943e-01" purity="5.0219523906707764e-01" nType="0">
        <Node pos="l" depth="1" NCoef="0" IVar="2" Cut="1.2285602569580078e+02" cType="1" res="1.5327955782413483e-01" rms="4.4924095273017883e-01" purity="6.4465379714965820e-01" nType="0">
          <Node pos="l" depth="2" NCoef="0" IVar="-1" Cut="0.0000000000000000e+00" cType="1" res="-7.3727271228563040e-05" rms="4.6537381410598755e-01" purity="4.6163216233253479e-01" nType="-99"/>
          <Node pos="r" depth="2" NCoef="0" IVar="-1" Cut="0.0000000000000000e+00" cType="1" res="3.0692305881530046e-03" rms="3.5692033171653748e-01" purity="8.4722888469696045e-01" nType="-99"/>
        </Node>
        <Node pos="r" depth="1" NCoef="0" IVar="0" Cut="5.1491897583007812e+01" cType="1" res="-1.4574934542179108e-01" rms="4.3423146009445190e-01" purity="3.0133038759231567e-01" nType="0">
          <Node pos="l" depth="2" NCoef="0" IVar="-1" Cut="0.0000000000000000e+00" cType="1" res="-7.4769034981727600e-03" rms="3.5373494029045105e-01" purity="1.6650694608688354e-01" nType="-99"/>
          <Node pos="r" depth="2" NCoef="0" IVar="-1" Cut="0.0000000000000000e+00" cType="1" res="6.2557833734899759e-04" rms="4.9087202548980713e-01" purity="5.3911536931991577e-01" nType="-99"/>
        </Node>
      </Node>
    </BinaryTree>
    <BinaryTree type="DecisionTree" boostWeight="1.0000000000000000e+00" itree="15">
      <Node pos="s" depth="0" NCoef="0" IVar="4" Cut="1.3463943004608154e+00" cType="1" res="2.9300985857844353e-02" rms="4.6624401211738586e-01" purity="5.0172632932662964e-01" nType="0">
        <Node pos="l" depth="1" NCoef="0" IVar="2" Cut="1.2186699676513672e+02" cType="1" res="1.4095790684223175e-01" rms="4.5171478390693665e-01" purity="6.3016784191131592e-01" nType="0">
          <Node pos="l" depth="2" NCoef="0" IVar="-1" Cut="0.0000000000000000e+00" cType="1" res="-2.6273832190781832e-04" rms="4.6335738897323608e-01" purity="4.4645816087722778e-01" nType="-99"/>
          <Node pos="r" depth="2" NCoef="0" IVar="-1" Cut="0.0000000000000000e+00" cType="1" res="3.0147549696266651e-03" rms="3.6276173591613770e-01" purity="8.4027981758117676e-01" nType="-99"/>
        </Node>
        <Node pos="r" depth="1" NCoef="0" IVar="0" Cut="5.0548698425292969e+01" cType="1" res="-1.5636061131954193e-01" rms="4.2937138676643372e-01" purity="2.8815540671348572e-01" nType="0">
          <Node pos="l" depth="2" NCoef="0" IVar="-1" Cut="0.0000000000000000e+00" cType="1" res="-7.8848116099834442e-03" rms="3.4444108605384827e-01" purity="1.5460884571075439e-01" nType="-99"/>
          <Node pos="r" depth="2" NCoef="0" IVar="-1" Cut="0.0000000000000000e+00" cType="1" res="3.7098376196809113e-04" rms="4.9274611473083496e-01" purity="5.1663464307785034e-01" nType="-99"/>
        </Node>
      </Node>
    </BinaryTree>
    <BinaryTree type="DecisionTree" boostWeight="1.0000000000000000e+00" itree="16">
      <Node pos="s" depth="0" NCoef="0" IVar="4" Cut="1.1968016624450684e+00" cType="1" res="2.5754505768418312e-02" rms="4.6526861190795898e-01" purity="4.9738940596580505e-01" nType="0">
        <Node pos="l" depth="1" NCoef="0" IVar="2" Cut="1.2186699676513672e+02" cType="1" res="1.4668162167072296e-01" rms="4.5025977492332458e-01" purity="6.3912451267242432e-01" nType="0">
          <Node pos="l" depth="2" NCoef="0" IVar="-1" Cut="0.0000000000000000e+00" cType="1" res="-3.4049319219775498e-04" rms="4.6419581770896912e-01" purity="4.4411516189575195e-01" nType="-99"/>
          <Node pos="r" depth="2" NCoef="0" IVar="-1" Cut="0.0000000000000000e+00" cType="1" res="3.0474339146167040e-03" rms="3.5819399356842041e-01" purity="8.4598535299301147e-01" nType="-99"/>
        </Node>
        <Node pos="r" depth="1" NCoef="0" IVar="0" Cut="5.0287712097167969e+01" cType="1" res="-1.4335365593433380e-01" rms="4.3202245235443115e-01" purity="2.9918271303176880e-01" nType="0">
          <Node pos="l" depth="2" NCoef="0" IVar="-1" Cut="0.0000000000000000e+00" cType="1" res="-7.9654585570096970e-03" rms="3.4402072429656982e-01" purity="1.5509139001369476e-01" nType="-99"/>
          <Node pos="r" depth="2" NCoef="0" IVar="-1" Cut="0.0000000000000000e+00" cType="1" res="5.7872786419466138e-04" rms="4.9099650979042053e-01" purity="5.3489798307418823e-01" nType="-99"/>
        </Node>
      </Node>
    </BinaryTree>
    <BinaryTree type="DecisionTree" boostWeight="1.0000000000000000e+00" itree="17">
      <Node pos="s" depth="0" NCoef="0" IVar="2" Cut="8.2888137817382812e+01" cType="1" res="3.0006738379597664e-02" rms="4.6430748701095581e-01" purity="5.0137472152709961e-01" nType="0">
        <Node pos="l" depth="1" NCoef="0" IVar="0" Cut="4.0648544311523438e+01" cType="1" res="-3.1935301423072815e-01" rms="2.3908163607120514e-01" purity="6.7953132092952728e-02" nType="0">
          <Node pos="l" depth="2" NCoef="0" IVar="-1" Cut="0.0000000000000000e+00" cType="1" res="-4.1922450065612793e-02" rms="1.2229536473751068e-01" purity="1.5000667423009872e-02" nType="-99"/>
          <Node pos="r" depth="2" NCoef="0" IVar="-1" Cut="0.0000000000000000e+00" cType="1" res="-4.2559588328003883e-03" rms="4.0828964114189148e-01" purity="2.2788725793361664e-01" nType="-99"/>
        </Node>
        <Node pos="r" depth="1" NCoef="0" IVar="7" Cut="4.8770240783691406e+01" cType="1" res="1.3517425954341888e-01" rms="4.6418684720993042e-01" purity="6.3184732198715210e-01" nType="0">
          <Node pos="l" depth="2" NCoef="0" IVar="-1" Cut="0.0000000000000000e+00" cType="1" res="2.5955510791391134e-03" rms="4.1543912887573242e-01" purity="7.5682497024536133e-01" nType="-99"/>
          <Node pos="r" depth="2" NCoef="0" IVar="-1" Cut="0.0000000000000000e+00" cType="1" res="-3.3385951537638903e-03" rms="4.4713905453681946e-01" purity="2.9085323214530945e-01" nType="-99"/>
        </Node>
      </Node>
    </BinaryTree>
    <BinaryTree type="DecisionTree" boostWeight="1.0000000000000000e+00" itree="18">
      <Node pos="s" depth="0" NCoef="0" IVar="2" Cut="1.1704755401611328e+02" cType="1" res="3.0234182253479958e-02" rms="4.6134841442108154e-01" purity="4.9823951721191406e-01" nType="0">
        <Node pos="l" depth="1" NCoef="0" IVar="0" Cut="5.4539146423339844e+01" cType="1" res="-1.1395806819200516e-01" rms="4.2897453904151917e-01" purity="3.1961175799369812e-01" nType="0">
          <Node pos="l" depth="2" NCoef="0" IVar="-1" Cut="0.0000000000000000e+00" cType="1" res="-6.7094662226736546e-03" rms="3.6863502860069275e-01" purity="1.9358235597610474e-01" nType="-99"/>
          <Node pos="r" depth="2" NCoef="0" IVar="-1" Cut="0.0000000000000000e+00" cType="1" res="2.6412005536258221e-03" rms="4.1808104515075684e-01" purity="7.5945198535919189e-01" nType="-99"/>
        </Node>
        <Node pos="r" depth="1" NCoef="0" IVar="7" Cut="6.7797706604003906e+01" cType="1" res="2.0820966362953186e-01" rms="4.3712776899337769e-01" purity="7.1871858835220337e-01" nType="0">
          <Node pos="l" depth="2" NCoef="0" IVar="-1" Cut="0.0000000000000000e+00" cType="1" res="3.0581359751522541e-03" rms="3.6030119657516479e-01" purity="8.4378612041473389e-01" nType="-99"/>
          <Node pos="r" depth="2" NCoef="0" IVar="-1" Cut="0.0000000000000000e+00" cType="1" res="-5.3016473539173603e-03" rms="4.0472662448883057e-01" purity="2.0642451941967010e-01" nType="-99"/>
        </Node>
      </Node>
    </BinaryTree>
    <BinaryTree type="DecisionTree" boostWeight="1.0000000000000000e+00" itree="19">
      <Node pos="s" depth="0" NCoef="0" IVar="2" Cut="1.2128581237792969e+02" cType="1" res="3.3420812338590622e-02" rms="4.5971852540969849e-01" purity="5.0073534250259399e-01" nType="0">
        <Node pos="l" depth="1" NCoef="0" IVar="2" Cut="9.9715873718261719e+01" cType="1" res="-8.0043070018291473e-02" rms="4.3865552544593811e-01" purity="3.5692989826202393e-01" nType="0">
          <Node pos="l" depth="2" NCoef="0" IVar="-1" Cut="0.0000000000000000e+00" cType="1" res="-8.0343885347247124e-03" rms="3.4499749541282654e-01" purity="1.6654506325721741e-01" nType="-99"/>
          <Node pos="r" depth="2" NCoef="0" IVar="-1" Cut="0.0000000000000000e+00" cType="1" res="2.2178364451974630e-03" rms="4.4781047105789185e-01" purity="6.9772797822952271e-01" nType="-99"/>
        </Node>
        <Node pos="r" depth="1" NCoef="0" IVar="7" Cut="4.8491573333740234e+01" cType="1" res="2.0032081007957458e-01" rms="4.3861424922943115e-01" purity="7.1226632595062256e-01" nType="0">
          <Node pos="l" depth="2" NCoef="0" IVar="-1" Cut="0.0000000000000000e+00" cType="1" res="3.1885630451142788e-03" rms="3.3010816574096680e-01" purity="8.7540954351425171e-01" nType="-99"/>
          <Node pos="r" depth="2" NCoef="0" IVar="-1" Cut="0.0000000000000000e+00" cType="1" res="-2.6522071566432714e-03" rms="4.6282359957695007e-01" purity="3.1682270765304565e-01" nType="-99"/>
        </Node>
      </Node>
    </BinaryTree>
    <BinaryTree type="DecisionTree" boostWeight="1.0000000000000000e+00" itree="20">
      <Node pos="s" depth="0" NCoef="0" IVar="4" Cut="1.3463957309722900e+00" cType="1" res="3.3444594591856003e-02" rms="4.5843866467475891e-01" purity="4.9990490078926086e-01" nType="0">
        <Node pos="l" depth="1" NCoef="0" IVar="2" Cut="1.2234557342529297e+02" cType="1" res="1.4083227515220642e-01" rms="4.4543993473052979e-01" purity="6.2906414270401001e-01" nType="0">
          <Node pos="l" depth="2" NCoef="0" IVar="-1" Cut="0.0000000000000000e+00" cType="1" res="-1.0900588677031919e-04" rms="4.5684286952018738e-01" purity="4.4827029109001160e-01" nType="-99"/>
          <Node pos="r" depth="2" NCoef="0" IVar="-1" Cut="0.0000000000000000e+00" cType="1" res="2.9493602924048901e-03" rms="3.6343935132026672e-01" purity="8.3864629268646240e-01" nType="-99"/>
        </Node>
        <Node pos="r" depth="1" NCoef="0" IVar="0" Cut="5.1491912841796875e+01" cType="1" res="-1.4631646871566772e-01" rms="4.2215576767921448e-01" purity="2.8369936347007751e-01" nType="0">
          <Node pos="l" depth="2" NCoef="0" IVar="-1" Cut="0.0000000000000000e+00" cType="1" res="-7.2363154031336308e-03" rms="3.4499034285545349e-01" purity="1.5898229181766510e-01" nType="-99"/>
          <Node pos="r" depth="2" NCoef="0" IVar="-1" Cut="0.0000000000000000e+00" cType="1" res="3.0676642199978232e-04" rms="4.9112260341644287e-01" purity="5.1023542881011963e-01" nType="-99"/>
        </Node>
      </Node>
    </BinaryTree>
    <BinaryTree type="DecisionTree" boostWeight="1.0000000000000000e+00" itree="21">
      <Node pos="s" depth="0" NCoef="0" IVar="2" Cut="9.4052238464355469e+01" cType="1" res="3.3946763724088669e-02" rms="4.5768788456916809e-01" purity="5.0007581710815430e-01" nType="0">
        <Node pos="l" depth="1" NCoef="0" IVar="2" Cut="8.1968162536621094e+01" cType="1" res="-2.5951361656188965e-01" rms="3.0982995033264160e-01" purity="1.2744875252246857e-01" nType="0">
          <Node pos="l" depth="2" NCoef="0" IVar="-1" Cut="0.0000000000000000e+00" cType="1" res="-1.7422297969460487e-02" rms="2.3187671601772308e-01" purity="6.5624922513961792e-02" nType="-99"/>
          <Node pos="r" depth="2" NCoef="0" IVar="-1" Cut="0.0000000000000000e+00" cType="1" res="-4.5364266261458397e-03" rms="4.1724094748497009e-01" purity="2.5478172302246094e-01" nType="-99"/>
        </Node>
        <Node pos="r" depth="1" NCoef="0" IVar="7" Cut="4.8771755218505859e+01" cType="1" res="1.7935156822204590e-01" rms="4.4932654500007629e-01" purity="6.8470638990402222e-01" nType="0">
          <Node pos="l" depth="2" NCoef="0" IVar="-1" Cut="0.0000000000000000e+00" cType="1" res="2.8985135722905397e-03" rms="3.7956464290618896e-01" purity="8.1893563270568848e-01" nType="-99"/>
          <Node pos="r" depth="2" NCoef="0" IVar="-1" Cut="0.0000000000000000e+00" cType="1" res="-2.5791551452130079e-03" rms="4.6084401011466980e-01" purity="3.1956011056900024e-01" nType="-99"/>
        </Node>
      </Node>
    </BinaryTree>
    <BinaryTree type="DecisionTree" boostWeight="1.0000000000000000e+00" itree="22">
      <Node pos="s" depth="0" NCoef="0" IVar="2" Cut="1.2073497009277344e+02" cType="1" res="3.6699496209621429e-02" rms="4.5590475201606750e-01" purity="5.0127476453781128e-01" nType="0">
        <Node pos="l" depth="1" NCoef="0" IVar="2" Cut="9.9159774780273438e+01" cType="1" res="-7.7056005597114563e-02" rms="4.3435516953468323e-01" purity="3.5293817520141602e-01" nType="0">
          <Node pos="l" depth="2" NCoef="0" IVar="-1" Cut="0.0000000000000000e+00" cType="1" res="-7.6949037611484528e-03" rms="3.4278351068496704e-01" purity="1.6478963196277618e-01" nType="-99"/>
          <Node pos="r" depth="2" NCoef="0" IVar="-1" Cut="0.0000000000000000e+00" cType="1" res="2.1553868427872658e-03" rms="4.5024400949478149e-01" purity="6.8941044807434082e-01" nType="-99"/>
        </Node>
        <Node pos="r" depth="1" NCoef="0" IVar="7" Cut="4.6428680419921875e+01" cType="1" res="1.9985620677471161e-01" rms="4.3610236048698425e-01" purity="7.1403032541275024e-01" nType="0">
          <Node pos="l" depth="2" NCoef="0" IVar="-1" Cut="0.0000000000000000e+00" cType="1" res="3.1648084986954927e-03" rms="3.2824444770812988e-01" purity="8.7704861164093018e-01" nType="-99"/>
          <Node pos="r" depth="2" NCoef="0" IVar="-1" Cut="0.0000000000000000e+00" cType="1" res="-2.2970773279666901e-03" rms="4.6714437007904053e-01" purity="3.3205890655517578e-01" nType="-99"/>
        </Node>
      </Node>
    </BinaryTree>
    <BinaryTree type="DecisionTree" boostWeight="1.0000000000000000e+00" itree="23">
      <Node pos="s" depth="0" NCoef="0" IVar="2" Cut="1.1704755401611328e+02" cType="1" res="3.7914421409368515e-02" rms="4.5451128482818604e-01" purity="5.0154441595077515e-01" nType="0">
        <Node pos="l" depth="1" NCoef="0" IVar="0" Cut="5.4539146423339844e+01" cType="1" res="-1.0038311779499054e-01" rms="4.2431017756462097e-01" purity="3.2219570875167847e-01" nType="0">
          <Node pos="l" depth="2" NCoef="0" IVar="-1" Cut="0.0000000000000000e+00" cType="1" res="-6.2363795004785061e-03" rms="3.6421054601669312e-01" purity="1.9205284118652344e-01" nType="-99"/>
          <Node pos="r" depth="2" NCoef="0" IVar="-1" Cut="0.0000000000000000e+00" cType="1" res="2.7305812109261751e-03" rms="4.0847909450531006e-01" purity="7.6982444524765015e-01" nType="-99"/>
        </Node>
        <Node pos="r" depth="1" NCoef="0" IVar="7" Cut="4.8772026062011719e+01" cType="1" res="2.0841555297374725e-01" rms="4.3203204870223999e-01" purity="7.2265583276748657e-01" nType="0">
          <Node pos="l" depth="2" NCoef="0" IVar="-1" Cut="0.0000000000000000e+00" cType="1" res="3.1535294838249683e-03" rms="3.2987368106842041e-01" purity="8.7555873394012451e-01" nType="-99"/>
          <Node pos="r" depth="2" NCoef="0" IVar="-1" Cut="0.0000000000000000e+00" cType="1" res="-2.2672149352729321e-03" rms="4.6803429722785950e-01" purity="3.3147442340850830e-01" nType="-99"/>
        </Node>
      </Node>
    </BinaryTree>
    <BinaryTree type="DecisionTree" boostWeight="1.0000000000000000e+00" itree="24">
      <Node pos="s" depth="0" NCoef="0" IVar="2" Cut="1.1704755401611328e+02" cType="1" res="3.5527568310499191e-02" rms="4.5364430546760559e-01" purity="4.9806994199752808e-01" nType="0">
        <Node pos="l" depth="1" NCoef="0" IVar="0" Cut="5.4539146423339844e+01" cType="1" res="-9.9190838634967804e-02" rms="4.2359012365341187e-01" purity="3.2129165530204773e-01" nType="0">
          <Node pos="l" depth="2" NCoef="0" IVar="-1" Cut="0.0000000000000000e+00" cType="1" res="-6.1586890369653702e-03" rms="3.6495321989059448e-01" purity="1.9262219965457916e-01" nType="-99"/>
          <Node pos="r" depth="2" NCoef="0" IVar="-1" Cut="0.0000000000000000e+00" cType="1" res="2.6918572839349508e-03" rms="4.1134691238403320e-01" purity="7.6559740304946899e-01" nType="-99"/>
        </Node>
        <Node pos="r" depth="1" NCoef="0" IVar="7" Cut="6.7795829772949219e+01" cType="1" res="2.0311653614044189e-01" rms="4.3350565433502197e-01" purity="7.1798110008239746e-01" nType="0">
          <Node pos="l" depth="2" NCoef="0" IVar="-1" Cut="0.0000000000000000e+00" cType="1" res="2.9863903764635324e-03" rms="3.6061614751815796e-01" purity="8.4233689308166504e-01" nType="-99"/>
          <Node pos="r" depth="2" NCoef="0" IVar="-1" Cut="0.0000000000000000e+00" cType="1" res="-4.9280803650617599e-03" rms="4.0937009453773499e-01" purity="2.1322943270206451e-01" nType="-99"/>
        </Node>
      </Node>
    </BinaryTree>
    <BinaryTree type="DecisionTree" boostWeight="1.0000000000000000e+00" itree="25">
      <Node pos="s" depth="0" NCoef="0" IVar="2" Cut="1.1750217437744141e+02" cType="1" res="3.4774281084537506e-02" rms="4.5238491892814636e-01" purity="4.9653422832489014e-01" nType="0">
        <Node pos="l" depth="1" NCoef="0" IVar="0" Cut="5.4539146423339844e+01" cType="1" res="-9.8789826035499573e-02" rms="4.2233884334564209e-01" purity="3.2004839181900024e-01" nType="0">
          <Node pos="l" depth="2" NCoef="0" IVar="-1" Cut="0.0000000000000000e+00" cType="1" res="-6.0492511838674545e-03" rms="3.6515989899635315e-01" purity="1.9336247444152832e-01" nType="-99"/>
          <Node pos="r" depth="2" NCoef="0" IVar="-1" Cut="0.0000000000000000e+00" cType="1" res="2.6445938274264336e-03" rms="4.1474992036819458e-01" purity="7.6002043485641479e-01" nType="-99"/>
        </Node>
        <Node pos="r" depth="1" NCoef="0" IVar="7" Cut="4.8770389556884766e+01" cType="1" res="2.0279560983181000e-01" rms="4.3248307704925537e-01" purity="7.1855026483535767e-01" nType="0">
          <Node pos="l" depth="2" NCoef="0" IVar="-1" Cut="0.0000000000000000e+00" cType="1" res="3.1297740060836077e-03" rms="3.3162000775337219e-01" purity="8.7406295537948608e-01" nType="-99"/>
          <Node pos="r" depth="2" NCoef="0" IVar="-1" Cut="0.0000000000000000e+00" cType="1" res="-2.3209266364574432e-03" rms="4.6530225872993469e-01" purity="3.2624691724777222e-01" nType="-99"/>
        </Node>
      </Node>
    </BinaryTree>
    <BinaryTree type="DecisionTree" boostWeight="1.0000000000000000e+00" itree="26">
      <Node pos="s" depth="0" NCoef="0" IVar="2" Cut="9.6088478088378906e+01" cType="1" res="3.8994651287794113e-02" rms="4.5114597678184509e-01" purity="5.0043612718582153e-01" nType="0">
        <Node pos="l" depth="1" NCoef="0" IVar="2" Cut="8.7761375427246094e+01" cType="1" res="-2.3479433357715607e-01" rms="3.2041290402412415e-01" purity="1.4027106761932373e-01" nType="0">
          <Node pos="l" depth="2" NCoef="0" IVar="-1" Cut="0.0000000000000000e+00" cType="1" res="-1.3548644259572029e-02" rms="2.6723799109458923e-01" purity="9.0554967522621155e-02" nType="-99"/>
          <Node pos="r" depth="2" NCoef="0" IVar="-1" Cut="0.0000000000000000e+00" cType="1" res="-2.3734911810606718e-03" rms="4.4768002629280090e-01" purity="3.2259541749954224e-01" nType="-99"/>
        </Node>
        <Node pos="r" depth="1" NCoef="0" IVar="7" Cut="4.8770267486572266e+01" cType="1" res="1.8668815493583679e-01" rms="4.4237443804740906e-01" purity="6.9472455978393555e-01" nType="0">
          <Node pos="l" depth="2" NCoef="0" IVar="-1" Cut="0.0000000000000000e+00" cType="1" res="2.9250890947878361e-03" rms="3.6971005797386169e-01" purity="8.2989543676376343e-01" nType="-99"/>
          <Node pos="r" depth="2" NCoef="0" IVar="-1" Cut="0.0000000000000000e+00" cType="1" res="-2.3088257294148207e-03" rms="4.6332427859306335e-01" purity="3.2820305228233337e-01" nType="-99"/>
        </Node>
      </Node>
    </BinaryTree>
    <BinaryTree type="DecisionTree" boostWeight="1.0000000000000000e+00" itree="27">
      <Node pos="s" depth="0" NCoef="0" IVar="4" Cut="1.4959958791732788e+00" cType="1" res="4.1715357452630997e-02" rms="4.4953846931457520e-01" purity="5.0208121538162231e-01" nType="0">
        <Node pos="l" depth="1" NCoef="0" IVar="2" Cut="1.2186699676513672e+02" cType="1" res="1.3497608900070190e-01" rms="4.3807497620582581e-01" purity="6.1782473325729370e-01" nType="0">
          <Node pos="l" depth="2" NCoef="0" IVar="-1" Cut="0.0000000000000000e+00" cType="1" res="6.7088913056068122e-05" rms="4.4719213247299194e-01" purity="4.4385397434234619e-01" nType="-99"/>
          <Node pos="r" depth="2" NCoef="0" IVar="-1" Cut="0.0000000000000000e+00" cType="1" res="2.8162933886051178e-03" rms="3.6780798435211182e-01" purity="8.3090621232986450e-01" nType="-99"/>
        </Node>
        <Node pos="r" depth="1" NCoef="0" IVar="0" Cut="5.1491897583007812e+01" cType="1" res="-1.4061561226844788e-01" rms="4.1440200805664062e-01" purity="2.7579480409622192e-01" nType="0">
          <Node pos="l" depth="2" NCoef="0" IVar="-1" Cut="0.0000000000000000e+00" cType="1" res="-7.0874728262424469e-03" rms="3.3624640107154846e-01" purity="1.5216144919395447e-01" nType="-99"/>
          <Node pos="r" depth="2" NCoef="0" IVar="-1" Cut="0.0000000000000000e+00" cType="1" res="2.7090063667856157e-04" rms="4.8890757560729980e-01" purity="5.0202834606170654e-01" nType="-99"/>
        </Node>
      </Node>
    </BinaryTree>
    <BinaryTree type="DecisionTree" boostWeight="1.0000000000000000e+00" itree="28">
      <Node pos="s" depth="0" NCoef="0" IVar="2" Cut="9.3759925842285156e+01" cType="1" res="4.0159065276384354e-02" rms="4.4893994927406311e-01" purity="5.0020301342010498e-01" nType="0">
        <Node pos="l" depth="1" NCoef="0" IVar="0" Cut="4.3095268249511719e+01" cType="1" res="-2.3605909943580627e-01" rms="3.0718165636062622e-01" purity="1.2743036448955536e-01" nType="0">
          <Node pos="l" depth="2" NCoef="0" IVar="-1" Cut="0.0000000000000000e+00" cType="1" res="-2.9673006385564804e-02" rms="1.7075139284133911e-01" purity="3.0369831249117851e-02" nType="-99"/>
          <Node pos="r" depth="2" NCoef="0" IVar="-1" Cut="0.0000000000000000e+00" cType="1" res="-2.4069841310847551e-04" rms="4.7589188814163208e-01" purity="4.2037734389305115e-01" nType="-99"/>
        </Node>
        <Node pos="r" depth="1" NCoef="0" IVar="7" Cut="6.7795837402343750e+01" cType="1" res="1.7591819167137146e-01" rms="4.4530749320983887e-01" purity="6.8341791629791260e-01" nType="0">
          <Node pos="l" depth="2" NCoef="0" IVar="-1" Cut="0.0000000000000000e+00" cType="1" res="2.6409139391034842e-03" rms="4.0200176835060120e-01" purity="7.8113406896591187e-01" nType="-99"/>
          <Node pos="r" depth="2" NCoef="0" IVar="-1" Cut="0.0000000000000000e+00" cType="1" res="-5.5027804337441921e-03" rms="3.9517879486083984e-01" purity="1.9587047398090363e-01" nType="-99"/>
        </Node>
      </Node>
    </BinaryTree>
    <BinaryTree type="DecisionTree" boostWeight="1.0000000000000000e+00" itree="29">
      <Node pos="s" depth="0" NCoef="0" IVar="2" Cut="1.1793316650390625e+02" cType="1" res="4.3924361467361450e-02" rms="4.4583252072334290e-01" purity="5.0123566389083862e-01" nType="0">
        <Node pos="l" depth="1" NCoef="0" IVar="0" Cut="5.4539150238037109e+01" cType="1" res="-8.0139562487602234e-02" rms="4.1882836818695068e-01" purity="3.2889163494110107e-01" nType="0">
          <Node pos="l" depth="2" NCoef="0" IVar="-1" Cut="0.0000000000000000e+00" cType="1" res="-5.4609356448054314e-03" rms="3.6463755369186401e-01" purity="1.9924636185169220e-01" nType="-99"/>
          <Node pos="r" depth="2" NCoef="0" IVar="-1" Cut="0.0000000000000000e+00" cType="1" res="2.6820502243936062e-03" rms="4.0936279296875000e-01" purity="7.6573854684829712e-01" nType="-99"/>
        </Node>
        <Node pos="r" depth="1" NCoef="0" IVar="7" Cut="6.7798103332519531e+01" cType="1" res="2.0170865952968597e-01" rms="4.2894193530082703e-01" purity="7.2042256593704224e-01" nType="0">
          <Node pos="l" depth="2" NCoef="0" IVar="-1" Cut="0.0000000000000000e+00" cType="1" res="2.9311731923371553e-03" rms="3.5781595110893250e-01" purity="8.4497159719467163e-01" nType="-99"/>
          <Node pos="r" depth="2" NCoef="0" IVar="-1" Cut="0.0000000000000000e+00" cType="1" res="-4.7973482869565487e-03" rms="4.0872123837471008e-01" purity="2.1239383518695831e-01" nType="-99"/>
        </Node>
      </Node>
    </BinaryTree>
    <BinaryTree type="DecisionTree" boostWeight="1.0000000000000000e+00" itree="30">
      <Node pos="s" depth="0" NCoef="0" IVar="2" Cut="1.1704755401611328e+02" cType="1" res="4.1827853769063950e-02" rms="4.4484183192253113e-01" purity="4.9801900982856750e-01" nType="0">
        <Node pos="l" depth="1" NCoef="0" IVar="0" Cut="5.0548656463623047e+01" cType="1" res="-8.7041676044464111e-02" rms="4.1519722342491150e-01" purity="3.1790247559547424e-01" nType="0">
          <Node pos="l" depth="2" NCoef="0" IVar="-1" Cut="0.0000000000000000e+00" cType="1" res="-7.5128208845853806e-03" rms="3.3425733447074890e-01" purity="1.5518236160278320e-01" nType="-99"/>
          <Node pos="r" depth="2" NCoef="0" IVar="-1" Cut="0.0000000000000000e+00" cType="1" res="2.5708295870572329e-03" rms="4.2073595523834229e-01" purity="7.4523305892944336e-01" nType="-99"/>
        </Node>
        <Node pos="r" depth="1" NCoef="0" IVar="7" Cut="4.8770389556884766e+01" cType="1" res="1.9975583255290985e-01" rms="4.2876023054122925e-01" purity="7.1874958276748657e-01" nType="0">
          <Node pos="l" depth="2" NCoef="0" IVar="-1" Cut="0.0000000000000000e+00" cType="1" res="3.0777179636061192e-03" rms="3.2907971739768982e-01" purity="8.7627154588699341e-01" nType="-99"/>
          <Node pos="r" depth="2" NCoef="0" IVar="-1" Cut="0.0000000000000000e+00" cType="1" res="-2.4476293474435806e-03" rms="4.6002393960952759e-01" purity="3.1600582599639893e-01" nType="-99"/>
        </Node>
      </Node>
    </BinaryTree>
    <BinaryTree type="DecisionTree" boostWeight="1.0000000000000000e+00" itree="31">
      <Node pos="s" depth="0" NCoef="0" IVar="2" Cut="9.4956443786621094e+01" cType="1" res="4.4372990727424622e-02" rms="4.4361025094985962e-01" purity="5.0001239776611328e-01" nType="0">
        <Node pos="l" depth="1" NCoef="0" IVar="0" Cut="4.6105354309082031e+01" cType="1" res="-2.1779876947402954e-01" rms="3.1067454814910889e-01" purity="1.3460583984851837e-01" nType="0">
          <Node pos="l" depth="2" NCoef="0" IVar="-1" Cut="0.0000000000000000e+00" cType="1" res="-2.1722149103879929e-02" rms="1.9344390928745270e-01" purity="4.0808413177728653e-02" nType="-99"/>
          <Node pos="r" depth="2" NCoef="0" IVar="-1" Cut="0.0000000000000000e+00" cType="1" res="5.5199238704517484e-04" rms="4.8601001501083374e-01" purity="4.8850858211517334e-01" nType="-99"/>
        </Node>
        <Node pos="r" depth="1" NCoef="0" IVar="7" Cut="6.7795837402343750e+01" cType="1" res="1.7982569336891174e-01" rms="4.4128969311714172e-01" purity="6.8880194425582886e-01" nType="0">
          <Node pos="l" depth="2" NCoef="0" IVar="-1" Cut="0.0000000000000000e+00" cType="1" res="2.6812518481165171e-03" rms="3.9647835493087769e-01" purity="7.8899449110031128e-01" nType="-99"/>
          <Node pos="r" depth="2" NCoef="0" IVar="-1" Cut="0.0000000000000000e+00" cType="1" res="-5.3811231628060341e-03" rms="3.9622512459754944e-01" purity="1.9723358750343323e-01" nType="-99"/>
        </Node>
      </Node>
    </BinaryTree>
    <BinaryTree type="DecisionTree" boostWeight="1.0000000000000000e+00" itree="32">
      <Node pos="s" depth="0" NCoef="0" IVar="4" Cut="1.6455947160720825e+00" cType="1" res="4.7467336058616638e-02" rms="4.4101187586784363e-01" purity="5.0127291679382324e-01" nType="0">
        <Node pos="l" depth="1" NCoef="0" IVar="2" Cut="1.2186699676513672e+02" cType="1" res="1.2975405156612396e-01" rms="4.3127521872520447e-01" purity="6.0512870550155640e-01" nType="0">
          <Node pos="l" depth="2" NCoef="0" IVar="-1" Cut="0.0000000000000000e+00" cType="1" res="2.1426769671961665e-04" rms="4.3712902069091797e-01" purity="4.3825107812881470e-01" nType="-99"/>
          <Node pos="r" depth="2" NCoef="0" IVar="-1" Cut="0.0000000000000000e+00" cType="1" res="2.7179813478142023e-03" rms="3.7075087428092957e-01" purity="8.2509946823120117e-01" nType="-99"/>
        </Node>
        <Node pos="r" depth="1" NCoef="0" IVar="0" Cut="5.1491897583007812e+01" cType="1" res="-1.4162775874137878e-01" rms="4.0335071086883545e-01" purity="2.6261201500892639e-01" nType="0">
          <Node pos="l" depth="2" NCoef="0" IVar="-1" Cut="0.0000000000000000e+00" cType="1" res="-6.9632749073207378e-03" rms="3.2581615447998047e-01" purity="1.4340528845787048e-01" nType="-99"/>
          <Node pos="r" depth="2" NCoef="0" IVar="-1" Cut="0.0000000000000000e+00" cType="1" res="9.5162708021234721e-05" rms="4.8535609245300293e-01" purity="4.8747307062149048e-01" nType="-99"/>
        </Node>
      </Node>
    </BinaryTree>
    <BinaryTree type="DecisionTree" boostWeight="1.0000000000000000e+00" itree="33">
      <Node pos="s" depth="0" NCoef="0" IVar="2" Cut="1.1750217437744141e+02" cType="1" res="4.5348487794399261e-02" rms="4.4068920612335205e-01" purity="4.9873000383377075e-01" nType="0">
        <Node pos="l" depth="1" NCoef="0" IVar="0" Cut="5.0548656463623047e+01" cType="1" res="-7.6081521809101105e-02" rms="4.1240945458412170e-01" purity="3.2325673103332520e-01" nType="0">
          <Node pos="l" depth="2" NCoef="0" IVar="-1" Cut="0.0000000000000000e+00" cType="1" res="-7.3488750495016575e-03" rms="3.3272117376327515e-01" purity="1.5571315586566925e-01" nType="-99"/>
          <Node pos="r" depth="2" NCoef="0" IVar="-1" Cut="0.0000000000000000e+00" cType="1" res="2.5754102971404791e-03" rms="4.1731905937194824e-01" purity="7.4982947111129761e-01" nType="-99"/>
        </Node>
        <Node pos="r" depth="1" NCoef="0" IVar="7" Cut="6.7795951843261719e+01" cType="1" res="1.9756765663623810e-01" rms="4.2754516005516052e-01" purity="7.1869534254074097e-01" nType="0">
          <Node pos="l" depth="2" NCoef="0" IVar="-1" Cut="0.0000000000000000e+00" cType="1" res="2.8730840422213078e-03" rms="3.6027827858924866e-01" purity="8.4231495857238770e-01" nType="-99"/>
          <Node pos="r" depth="2" NCoef="0" IVar="-1" Cut="0.0000000000000000e+00" cType="1" res="-4.6708127483725548e-03" rms="4.0942788124084473e-01" purity="2.1296751499176025e-01" nType="-99"/>
        </Node>
      </Node>
    </BinaryTree>
    <BinaryTree type="DecisionTree" boostWeight="1.0000000000000000e+00" itree="34">
      <Node pos="s" depth="0" NCoef="0" IVar="2" Cut="1.1759838867187500e+02" cType="1" res="4.5951079577207565e-02" rms="4.3948984146118164e-01" purity="4.9852406978607178e-01" nType="0">
        <Node pos="l" depth="1" NCoef="0" IVar="0" Cut="5.0548656463623047e+01" cType="1" res="-7.4702911078929901e-02" rms="4.1149860620498657e-01" purity="3.2248604297637939e-01" nType="0">
          <Node pos="l" depth="2" NCoef="0" IVar="-1" Cut="0.0000000000000000e+00" cType="1" res="-6.8644536659121513e-03" rms="3.3442878723144531e-01" purity="1.5801696479320526e-01" nType="-99"/>
          <Node pos="r" depth="2" NCoef="0" IVar="-1" Cut="0.0000000000000000e+00" cType="1" res="2.5249463506042957e-03" rms="4.1990241408348083e-01" purity="7.4545735120773315e-01" nType="-99"/>
        </Node>
        <Node pos="r" depth="1" NCoef="0" IVar="7" Cut="6.7795951843261719e+01" cType="1" res="1.9703309237957001e-01" rms="4.2652601003646851e-01" purity="7.1895754337310791e-01" nType="0">
          <Node pos="l" depth="2" NCoef="0" IVar="-1" Cut="0.0000000000000000e+00" cType="1" res="2.8709091711789370e-03" rms="3.5916474461555481e-01" purity="8.4354877471923828e-01" nType="-99"/>
          <Node pos="r" depth="2" NCoef="0" IVar="-1" Cut="0.0000000000000000e+00" cType="1" res="-4.7304960899055004e-03" rms="4.0735012292861938e-01" purity="2.1036583185195923e-01" nType="-99"/>
        </Node>
      </Node>
    </BinaryTree>
    <BinaryTree type="DecisionTree" boostWeight="1.0000000000000000e+00" itree="35">
      <Node pos="s" depth="0" NCoef="0" IVar="7" Cut="4.8789237976074219e+01" cType="1" res="4.6307530254125595e-02" rms="4.3808069825172424e-01" purity="4.9812892079353333e-01" nType="0">
        <Node pos="l" depth="1" NCoef="0" IVar="2" Cut="1.2128581237792969e+02" cType="1" res="1.1600991338491440e-01" rms="4.2288595438003540e-01" purity="5.7787865400314331e-01" nType="0">
          <Node pos="l" depth="2" NCoef="0" IVar="-1" Cut="0.0000000000000000e+00" cType="1" res="-1.7374334856867790e-04" rms="4.2254045605659485e-01" purity="3.9824616909027100e-01" nType="-99"/>
          <Node pos="r" depth="2" NCoef="0" IVar="-1" Cut="0.0000000000000000e+00" cType="1" res="2.9796427115797997e-03" rms="3.3347257971763611e-01" purity="8.7231671810150146e-01" nType="-99"/>
        </Node>
        <Node pos="r" depth="1" NCoef="0" IVar="5" Cut="2.0943961143493652e+00" cType="1" res="-1.6763171553611755e-01" rms="4.1398790478706360e-01" purity="2.5335118174552917e-01" nType="0">
          <Node pos="l" depth="2" NCoef="0" IVar="-1" Cut="0.0000000000000000e+00" cType="1" res="-6.9141113199293613e-03" rms="3.3129853010177612e-01" purity="1.3821035623550415e-01" nType="-99"/>
          <Node pos="r" depth="2" NCoef="0" IVar="-1" Cut="0.0000000000000000e+00" cType="1" res="-2.2789586801081896e-03" rms="4.3809673190116882e-01" purity="3.0652451515197754e-01" nType="-99"/>
        </Node>
      </Node>
    </BinaryTree>
    <BinaryTree type="DecisionTree" boostWeight="1.0000000000000000e+00" itree="36">
      <Node pos="s" depth="0" NCoef="0" IVar="2" Cut="1.1704755401611328e+02" cType="1" res="4.8913080245256424e-02" rms="4.3774852156639099e-01" purity="5.0068372488021851e-01" nType="0">
        <Node pos="l" depth="1" NCoef="0" IVar="0" Cut="4.6352989196777344e+01" cType="1" res="-7.2641178965568542e-02" rms="4.1033464670181274e-01" purity="3.2133755087852478e-01" nType="0">
          <Node pos="l" depth="2" NCoef="0" IVar="-1" Cut="0.0000000000000000e+00" cType="1" res="-9.4690192490816116e-03" rms="3.0202966928482056e-01" purity="1.2208146601915359e-01" nType="-99"/>
          <Node pos="r" depth="2" NCoef="0" IVar="-1" Cut="0.0000000000000000e+00" cType="1" res="2.3919246159493923e-03" rms="4.3325638771057129e-01" purity="7.0972931385040283e-01" nType="-99"/>
        </Node>
        <Node pos="r" depth="1" NCoef="0" IVar="7" Cut="4.8789554595947266e+01" cType="1" res="1.9857904314994812e-01" rms="4.2386010289192200e-01" purity="7.2150719165802002e-01" nType="0">
          <Node pos="l" depth="2" NCoef="0" IVar="-1" Cut="0.0000000000000000e+00" cType="1" res="3.0125170014798641e-03" rms="3.2974150776863098e-01" purity="8.7561595439910889e-01" nType="-99"/>
          <Node pos="r" depth="2" NCoef="0" IVar="-1" Cut="0.0000000000000000e+00" cType="1" res="-2.1743813995271921e-03" rms="4.6196818351745605e-01" purity="3.2554784417152405e-01" nType="-99"/>
        </Node>
      </Node>
    </BinaryTree>
    <BinaryTree type="DecisionTree" boostWeight="1.0000000000000000e+00" itree="37">
      <Node pos="s" depth="0" NCoef="0" IVar="2" Cut="8.8846099853515625e+01" cType="1" res="4.7748498618602753e-02" rms="4.3639039993286133e-01" purity="4.9830666184425354e-01" nType="0">
        <Node pos="l" depth="1" NCoef="0" IVar="0" Cut="4.6105381011962891e+01" cType="1" res="-2.2556374967098236e-01" rms="2.6639297604560852e-01" purity="9.4976373016834259e-02" nType="0">
          <Node pos="l" depth="2" NCoef="0" IVar="-1" Cut="0.0000000000000000e+00" cType="1" res="-2.3575410246849060e-02" rms="1.6688822209835052e-01" purity="2.9507439583539963e-02" nType="-99"/>
          <Node pos="r" depth="2" NCoef="0" IVar="-1" Cut="0.0000000000000000e+00" cType="1" res="-6.6629552748054266e-04" rms="4.7760766744613647e-01" purity="3.9649963378906250e-01" nType="-99"/>
        </Node>
        <Node pos="r" depth="1" NCoef="0" IVar="7" Cut="4.8770339965820312e+01" cType="1" res="1.5750186145305634e-01" rms="4.4313618540763855e-01" purity="6.6027104854583740e-01" nType="0">
          <Node pos="l" depth="2" NCoef="0" IVar="-1" Cut="0.0000000000000000e+00" cType="1" res="2.6746899820864201e-03" rms="3.8892143964767456e-01" purity="7.9078698158264160e-01" nType="-99"/>
          <Node pos="r" depth="2" NCoef="0" IVar="-1" Cut="0.0000000000000000e+00" cType="1" res="-2.4645815137773752e-03" rms="4.4930490851402283e-01" purity="3.0889660120010376e-01" nType="-99"/>
        </Node>
      </Node>
    </BinaryTree>
    <BinaryTree type="DecisionTree" boostWeight="1.0000000000000000e+00" itree="38">
      <Node pos="s" depth="0" NCoef="0" IVar="2" Cut="9.5842056274414062e+01" cType="1" res="4.9768190830945969e-02" rms="4.3413898348808289e-01" purity="4.9893128871917725e-01" nType="0">
        <Node pos="l" depth="1" NCoef="0" IVar="0" Cut="4.2609191894531250e+01" cType="1" res="-1.9549308717250824e-01" rms="3.0654829740524292e-01" purity="1.3597691059112549e-01" nType="0">
          <Node pos="l" depth="2" NCoef="0" IVar="-1" Cut="0.0000000000000000e+00" cType="1" res="-2.4774020537734032e-02" rms="1.7492686212062836e-01" purity="3.2629881054162979e-02" nType="-99"/>
          <Node pos="r" depth="2" NCoef="0" IVar="-1" Cut="0.0000000000000000e+00" cType="1" res="-9.7162344900425524e-05" rms="4.7064545750617981e-01" purity="4.2326211929321289e-01" nType="-99"/>
        </Node>
        <Node pos="r" depth="1" NCoef="0" IVar="7" Cut="6.7795799255371094e+01" cType="1" res="1.8006919324398041e-01" rms="4.3560129404067993e-01" purity="6.9175952672958374e-01" nType="0">
          <Node pos="l" depth="2" NCoef="0" IVar="-1" Cut="0.0000000000000000e+00" cType="1" res="2.6695777196437120e-03" rms="3.9141535758972168e-01" purity="7.9401725530624390e-01" nType="-99"/>
          <Node pos="r" depth="2" NCoef="0" IVar="-1" Cut="0.0000000000000000e+00" cType="1" res="-5.1828469149768353e-03" rms="3.9252319931983948e-01" purity="1.9309544563293457e-01" nType="-99"/>
        </Node>
      </Node>
    </BinaryTree>
    <BinaryTree type="DecisionTree" boostWeight="1.0000000000000000e+00" itree="39">
      <Node pos="s" depth="0" NCoef="0" IVar="2" Cut="8.8295257568359375e+01" cType="1" res="5.2772227674722672e-02" rms="4.3176618218421936e-01" purity="4.9969345331192017e-01" nType="0">
        <Node pos="l" depth="1" NCoef="0" IVar="0" Cut="4.1336273193359375e+01" cType="1" res="-2.1317762136459351e-01" rms="2.5781849026679993e-01" purity="9.0136148035526276e-02" nType="0">
          <Node pos="l" depth="2" NCoef="0" IVar="-1" Cut="0.0000000000000000e+00" cType="1" res="-3.2390739768743515e-02" rms="1.3263154029846191e-01" purity="1.7799220979213715e-02" nType="-99"/>
          <Node pos="r" depth="2" NCoef="0" IVar="-1" Cut="0.0000000000000000e+00" cType="1" res="-1.8328515579923987e-03" rms="4.3748983740806580e-01" purity="3.0231112241744995e-01" nType="-99"/>
        </Node>
        <Node pos="r" depth="1" NCoef="0" IVar="7" Cut="4.2771530151367188e+01" cType="1" res="1.5595830976963043e-01" rms="4.4144362211227417e-01" purity="6.5859788656234741e-01" nType="0">
          <Node pos="l" depth="2" NCoef="0" IVar="-1" Cut="0.0000000000000000e+00" cType="1" res="2.6960007380694151e-03" rms="3.8306945562362671e-01" purity="7.9672008752822876e-01" nType="-99"/>
          <Node pos="r" depth="2" NCoef="0" IVar="-1" Cut="0.0000000000000000e+00" cType="1" res="-1.5812283381819725e-03" rms="4.5885673165321350e-01" purity="3.5367149114608765e-01" nType="-99"/>
        </Node>
      </Node>
    </BinaryTree>
    <BinaryTree type="DecisionTree" boostWeight="1.0000000000000000e+00" itree="40">
      <Node pos="s" depth="0" NCoef="0" IVar="4" Cut="1.6455962657928467e+00" cType="1" res="5.6554816663265228e-02" rms="4.2954736948013306e-01" purity="5.0173008441925049e-01" nType="0">
        <Node pos="l" depth="1" NCoef="0" IVar="2" Cut="1.2234557342529297e+02" cType="1" res="1.3479013741016388e-01" rms="4.1999697685241699e-01" purity="6.0616713762283325e-01" nType="0">
          <Node pos="l" depth="2" NCoef="0" IVar="-1" Cut="0.0000000000000000e+00" cType="1" res="5.6212150957435369e-04" rms="4.2574501037597656e-01" purity="4.4612678885459900e-01" nType="-99"/>
          <Node pos="r" depth="2" NCoef="0" IVar="-1" Cut="0.0000000000000000e+00" cType="1" res="2.6325026992708445e-03" rms="3.7019762396812439e-01" purity="8.2319200038909912e-01" nType="-99"/>
        </Node>
        <Node pos="r" depth="1" NCoef="0" IVar="0" Cut="5.0548656463623047e+01" cType="1" res="-1.2468735873699188e-01" rms="3.9532089233398438e-01" purity="2.5978818535804749e-01" nType="0">
          <Node pos="l" depth="2" NCoef="0" IVar="-1" Cut="0.0000000000000000e+00" cType="1" res="-6.4699552021920681e-03" rms="3.1640842556953430e-01" purity="1.3850153982639313e-01" nType="-99"/>
          <Node pos="r" depth="2" NCoef="0" IVar="-1" Cut="0.0000000000000000e+00" cType="1" res="6.9317893576226197e-06" rms="4.8158559203147888e-01" purity="4.7597655653953552e-01" nType="-99"/>
        </Node>
      </Node>
    </BinaryTree>
    <BinaryTree type="DecisionTree" boostWeight="1.0000000000000000e+00" itree="41">
      <Node pos="s" depth="0" NCoef="0" IVar="4" Cut="1.6455994844436646e+00" cType="1" res="5.3776826709508896e-02" rms="4.2914324998855591e-01" purity="4.9837690591812134e-01" nType="0">
        <Node pos="l" depth="1" NCoef="0" IVar="2" Cut="1.2073497009277344e+02" cType="1" res="1.3138875365257263e-01" rms="4.2035633325576782e-01" purity="6.0295909643173218e-01" nType="0">
          <Node pos="l" depth="2" NCoef="0" IVar="-1" Cut="0.0000000000000000e+00" cType="1" res="3.0154464184306562e-04" rms="4.2437610030174255e-01" purity="4.2464369535446167e-01" nType="-99"/>
          <Node pos="r" depth="2" NCoef="0" IVar="-1" Cut="0.0000000000000000e+00" cType="1" res="2.6328493840992451e-03" rms="3.6889910697937012e-01" purity="8.2509458065032959e-01" nType="-99"/>
        </Node>
        <Node pos="r" depth="1" NCoef="0" IVar="0" Cut="5.0548721313476562e+01" cType="1" res="-1.2386815249919891e-01" rms="3.9484709501266479e-01" purity="2.5900000333786011e-01" nType="0">
          <Node pos="l" depth="2" NCoef="0" IVar="-1" Cut="0.0000000000000000e+00" cType="1" res="-6.6588013432919979e-03" rms="3.1360465288162231e-01" purity="1.3486237823963165e-01" nType="-99"/>
          <Node pos="r" depth="2" NCoef="0" IVar="-1" Cut="0.0000000000000000e+00" cType="1" res="2.3978134777280502e-05" rms="4.8199760913848877e-01" purity="4.7720864415168762e-01" nType="-99"/>
        </Node>
      </Node>
    </BinaryTree>
    <BinaryTree type="DecisionTree" boostWeight="1.0000000000000000e+00" itree="42">
      <Node pos="s" depth="0" NCoef="0" IVar="7" Cut="6.7795829772949219e+01" cType="1" res="5.4763037711381912e-02" rms="4.2852190136909485e-01" purity="4.9925830960273743e-01" nType="0">
        <Node pos="l" depth="1" NCoef="0" IVar="2" Cut="1.2118959045410156e+02" cType="1" res="1.0055021196603775e-01" rms="4.1876989603042603e-01" purity="5.5044186115264893e-01" nType="0">
          <Node pos="l" depth="2" NCoef="0" IVar="-1" Cut="0.0000000000000000e+00" cType="1" res="-2.0614956156350672e-04" rms="4.1088652610778809e-01" purity="3.7917035818099976e-01" nType="-99"/>
          <Node pos="r" depth="2" NCoef="0" IVar="-1" Cut="0.0000000000000000e+00" cType="1" res="2.7607260271906853e-03" rms="3.6013850569725037e-01" purity="8.4129846096038818e-01" nType="-99"/>
        </Node>
        <Node pos="r" depth="1" NCoef="0" IVar="5" Cut="2.6928498744964600e+00" cType="1" res="-2.3764546215534210e-01" rms="3.7082073092460632e-01" purity="1.7238728702068329e-01" nType="0">
          <Node pos="l" depth="2" NCoef="0" IVar="-1" Cut="0.0000000000000000e+00" cType="1" res="-6.9832443259656429e-03" rms="3.2378509640693665e-01" purity="1.2286453694105148e-01" nType="-99"/>
          <Node pos="r" depth="2" NCoef="0" IVar="-1" Cut="0.0000000000000000e+00" cType="1" res="-3.3925438765436411e-03" rms="4.2893582582473755e-01" purity="2.5719091296195984e-01" nType="-99"/>
        </Node>
      </Node>
    </BinaryTree>
    <BinaryTree type="DecisionTree" boostWeight="1.0000000000000000e+00" itree="43">
      <Node pos="s" depth="0" NCoef="0" IVar="2" Cut="1.1750217437744141e+02" cType="1" res="5.6133497506380081e-02" rms="4.2794403433799744e-01" purity="5.0057512521743774e-01" nType="0">
        <Node pos="l" depth="1" NCoef="0" IVar="0" Cut="4.8519477844238281e+01" cType="1" res="-5.4529346525669098e-02" rms="4.0128344297409058e-01" purity="3.2370167970657349e-01" nType="0">
          <Node pos="l" depth="2" NCoef="0" IVar="-1" Cut="0.0000000000000000e+00" cType="1" res="-7.0932856760919094e-03" rms="3.1574732065200806e-01" purity="1.4146588742733002e-01" nType="-99"/>
          <Node pos="r" depth="2" NCoef="0" IVar="-1" Cut="0.0000000000000000e+00" cType="1" res="2.4808391463011503e-03" rms="4.2180228233337402e-01" purity="7.3483467102050781e-01" nType="-99"/>
        </Node>
        <Node pos="r" depth="1" NCoef="0" IVar="7" Cut="6.7795951843261719e+01" cType="1" res="1.9445449113845825e-01" rms="4.1991606354713440e-01" purity="7.2165489196777344e-01" nType="0">
          <Node pos="l" depth="2" NCoef="0" IVar="-1" Cut="0.0000000000000000e+00" cType="1" res="2.7952494565397501e-03" rms="3.5649514198303223e-01" purity="8.4541368484497070e-01" nType="-99"/>
          <Node pos="r" depth="2" NCoef="0" IVar="-1" Cut="0.0000000000000000e+00" cType="1" res="-4.3156603351235390e-03" rms="4.1162610054016113e-01" purity="2.1620626747608185e-01" nType="-99"/>
        </Node>
      </Node>
    </BinaryTree>
    <BinaryTree type="DecisionTree" boostWeight="1.0000000000000000e+00" itree="44">
      <Node pos="s" depth="0" NCoef="0" IVar="2" Cut="9.6088478088378906e+01" cType="1" res="5.6799788028001785e-02" rms="4.2688000202178955e-01" purity="5.0083291530609131e-01" nType="0">
        <Node pos="l" depth="1" NCoef="0" IVar="0" Cut="4.3095268249511719e+01" cType="1" res="-1.7434975504875183e-01" rms="3.0522924661636353e-01" purity="1.3859975337982178e-01" nType="0">
          <Node pos="l" depth="2" NCoef="0" IVar="-1" Cut="0.0000000000000000e+00" cType="1" res="-2.3496748879551888e-02" rms="1.8308183550834656e-01" purity="3.6216624081134796e-02" nType="-99"/>
          <Node pos="r" depth="2" NCoef="0" IVar="-1" Cut="0.0000000000000000e+00" cType="1" res="6.8232475314289331e-05" rms="4.7319945693016052e-01" purity="4.3675172328948975e-01" nType="-99"/>
        </Node>
        <Node pos="r" depth="1" NCoef="0" IVar="7" Cut="4.8789554595947266e+01" cType="1" res="1.8028052151203156e-01" rms="4.3129280209541321e-01" purity="6.9433891773223877e-01" nType="0">
          <Node pos="l" depth="2" NCoef="0" IVar="-1" Cut="0.0000000000000000e+00" cType="1" res="2.8042898047715425e-03" rms="3.6624565720558167e-01" purity="8.3002352714538574e-01" nType="-99"/>
          <Node pos="r" depth="2" NCoef="0" IVar="-1" Cut="0.0000000000000000e+00" cType="1" res="-1.9815266132354736e-03" rms="4.5646277070045471e-01" purity="3.2690462470054626e-01" nType="-99"/>
        </Node>
      </Node>
    </BinaryTree>
    <BinaryTree type="DecisionTree" boostWeight="1.0000000000000000e+00" itree="45">
      <Node pos="s" depth="0" NCoef="0" IVar="7" Cut="4.8491573333740234e+01" cType="1" res="5.7446319609880447e-02" rms="4.2513924837112427e-01" purity="4.9945637583732605e-01" nType="0">
        <Node pos="l" depth="1" NCoef="0" IVar="2" Cut="1.2128581237792969e+02" cType="1" res="1.2477585673332214e-01" rms="4.0843397378921509e-01" purity="5.8015954494476318e-01" nType="0">
          <Node pos="l" depth="2" NCoef="0" IVar="-1" Cut="0.0000000000000000e+00" cType="1" res="2.2420972527470440e-04" rms="4.0932965278625488e-01" purity="4.0074443817138672e-01" nType="-99"/>
          <Node pos="r" depth="2" NCoef="0" IVar="-1" Cut="0.0000000000000000e+00" cType="1" res="2.8655501082539558e-03" rms="3.3381897211074829e-01" purity="8.7199145555496216e-01" nType="-99"/>
        </Node>
        <Node pos="r" depth="1" NCoef="0" IVar="5" Cut="2.0943996906280518e+00" cType="1" res="-1.4887543022632599e-01" rms="4.0860074758529663e-01" purity="2.5215300917625427e-01" nType="0">
          <Node pos="l" depth="2" NCoef="0" IVar="-1" Cut="0.0000000000000000e+00" cType="1" res="-6.3027613796293736e-03" rms="3.3344149589538574e-01" purity="1.4272196590900421e-01" nType="-99"/>
          <Node pos="r" depth="2" NCoef="0" IVar="-1" Cut="0.0000000000000000e+00" cType="1" res="-2.0231364760547876e-03" rms="4.3122789263725281e-01" purity="3.0305701494216919e-01" nType="-99"/>
        </Node>
      </Node>
    </BinaryTree>
    <BinaryTree type="DecisionTree" boostWeight="1.0000000000000000e+00" itree="46">
      <Node pos="s" depth="0" NCoef="0" IVar="2" Cut="9.5507286071777344e+01" cType="1" res="5.8476060628890991e-02" rms="4.2466044425964355e-01" purity="5.0089830160140991e-01" nType="0">
        <Node pos="l" depth="1" NCoef="0" IVar="0" Cut="4.3095268249511719e+01" cType="1" res="-1.6595569252967834e-01" rms="3.0403545498847961e-01" purity="1.3936230540275574e-01" nType="0">
          <Node pos="l" depth="2" NCoef="0" IVar="-1" Cut="0.0000000000000000e+00" cType="1" res="-2.2916357964277267e-02" rms="1.8105298280715942e-01" purity="3.5019069910049438e-02" nType="-99"/>
          <Node pos="r" depth="2" NCoef="0" IVar="-1" Cut="0.0000000000000000e+00" cType="1" res="8.6076710431370884e-05" rms="4.7212436795234680e-01" purity="4.3720015883445740e-01" nType="-99"/>
        </Node>
        <Node pos="r" depth="1" NCoef="0" IVar="7" Cut="6.7797317504882812e+01" cType="1" res="1.7660170793533325e-01" rms="4.3143448233604431e-01" purity="6.9118630886077881e-01" nType="0">
          <Node pos="l" depth="2" NCoef="0" IVar="-1" Cut="0.0000000000000000e+00" cType="1" res="2.5755874812602997e-03" rms="3.9142909646034241e-01" purity="7.9108613729476929e-01" nType="-99"/>
          <Node pos="r" depth="2" NCoef="0" IVar="-1" Cut="0.0000000000000000e+00" cType="1" res="-4.6780286356806755e-03" rms="3.9729243516921997e-01" purity="2.0030055940151215e-01" nType="-99"/>
        </Node>
      </Node>
    </BinaryTree>
    <BinaryTree type="DecisionTree" boostWeight="1.0000000000000000e+00" itree="47">
      <Node pos="s" depth="0" NCoef="0" IVar="2" Cut="9.4956443786621094e+01" cType="1" res="5.8478128165006638e-02" rms="4.2285406589508057e-01" purity="4.9847355484962463e-01" nType="0">
        <Node pos="l" depth="1" NCoef="0" IVar="0" Cut="4.3095268249511719e+01" cType="1" res="-1.6343854367733002e-01" rms="2.9708296060562134e-01" purity="1.3255330920219421e-01" nType="0">
          <Node pos="l" depth="2" NCoef="0" IVar="-1" Cut="0.0000000000000000e+00" cType="1" res="-2.1967871114611626e-02" rms="1.7973941564559937e-01" purity="3.4555394202470779e-02" nType="-99"/>
          <Node pos="r" depth="2" NCoef="0" IVar="-1" Cut="0.0000000000000000e+00" cType="1" res="-6.7818917159456760e-05" rms="4.7104367613792419e-01" purity="4.2570623755455017e-01" nType="-99"/>
        </Node>
        <Node pos="r" depth="1" NCoef="0" IVar="7" Cut="8.4148452758789062e+01" cType="1" res="1.7288221418857574e-01" rms="4.3244498968124390e-01" purity="6.8711543083190918e-01" nType="0">
          <Node pos="l" depth="2" NCoef="0" IVar="-1" Cut="0.0000000000000000e+00" cType="1" res="2.4026257451623678e-03" rms="4.0757510066032410e-01" purity="7.5719690322875977e-01" nType="-99"/>
          <Node pos="r" depth="2" NCoef="0" IVar="-1" Cut="0.0000000000000000e+00" cType="1" res="-7.3034358210861683e-03" rms="3.2590466737747192e-01" purity="1.2088786810636520e-01" nType="-99"/>
        </Node>
      </Node>
    </BinaryTree>
    <BinaryTree type="DecisionTree" boostWeight="1.0000000000000000e+00" itree="48">
      <Node pos="s" depth="0" NCoef="0" IVar="2" Cut="9.6088478088378906e+01" cType="1" res="6.2161915004253387e-02" rms="4.2076492309570312e-01" purity="5.0097841024398804e-01" nType="0">
        <Node pos="l" depth="1" NCoef="0" IVar="0" Cut="4.3093742370605469e+01" cType="1" res="-1.5315955877304077e-01" rms="3.0324199795722961e-01" purity="1.4118547737598419e-01" nType="0">
          <Node pos="l" depth="2" NCoef="0" IVar="-1" Cut="0.0000000000000000e+00" cType="1" res="-2.0477384328842163e-02" rms="1.8231815099716187e-01" purity="3.5962708294391632e-02" nType="-99"/>
          <Node pos="r" depth="2" NCoef="0" IVar="-1" Cut="0.0000000000000000e+00" cType="1" res="1.7587927868589759e-04" rms="4.7337701916694641e-01" purity="4.4358757138252258e-01" nType="-99"/>
        </Node>
        <Node pos="r" depth="1" NCoef="0" IVar="7" Cut="4.8789443969726562e+01" cType="1" res="1.7772527039051056e-01" rms="4.2950144410133362e-01" purity="6.9407981634140015e-01" nType="0">
          <Node pos="l" depth="2" NCoef="0" IVar="-1" Cut="0.0000000000000000e+00" cType="1" res="2.7390003670006990e-03" rms="3.6732810735702515e-01" purity="8.2856678962707520e-01" nType="-99"/>
          <Node pos="r" depth="2" NCoef="0" IVar="-1" Cut="0.0000000000000000e+00" cType="1" res="-1.7742832424119115e-03" rms="4.5681074261665344e-01" purity="3.3227604627609253e-01" nType="-99"/>
        </Node>
      </Node>
    </BinaryTree>
    <BinaryTree type="DecisionTree" boostWeight="1.0000000000000000e+00" itree="49">
      <Node pos="s" depth="0" NCoef="0" IVar="2" Cut="7.9235084533691406e+01" cType="1" res="6.2008690088987350e-02" rms="4.1890844702720642e-01" purity="4.9952995777130127e-01" nType="0">
        <Node pos="l" depth="1" NCoef="0" IVar="5" Cut="1.6456387042999268e+00" cType="1" res="-1.8941637873649597e-01" rms="2.0689706504344940e-01" purity="5.5527336895465851e-02" nType="0">
          <Node pos="l" depth="2" NCoef="0" IVar="-1" Cut="0.0000000000000000e+00" cType="1" res="-1.2881982140243053e-02" rms="1.7022134363651276e-01" purity="2.3376507684588432e-02" nType="-99"/>
          <Node pos="r" depth="2" NCoef="0" IVar="-1" Cut="0.0000000000000000e+00" cType="1" res="-1.3791557401418686e-02" rms="2.0977413654327393e-01" purity="6.3086666166782379e-02" nType="-99"/>
        </Node>
        <Node pos="r" depth="1" NCoef="0" IVar="7" Cut="4.8789443969726562e+01" cType="1" res="1.2442035228013992e-01" rms="4.3454810976982117e-01" purity="6.0974550247192383e-01" nType="0">
          <Node pos="l" depth="2" NCoef="0" IVar="-1" Cut="0.0000000000000000e+00" cType="1" res="2.3539832327514887e-03" rms="3.9908003807067871e-01" purity="7.2761362791061401e-01" nType="-99"/>
          <Node pos="r" depth="2" NCoef="0" IVar="-1" Cut="0.0000000000000000e+00" cType="1" res="-2.6363055221736431e-03" rms="4.2720285058021545e-01" purity="2.8089705109596252e-01" nType="-99"/>
        </Node>
      </Node>
    </BinaryTree>
    <BinaryTree type="DecisionTree" boostWeight="1.0000000000000000e+00" itree="50">
      <Node pos="s" depth="0" NCoef="0" IVar="7" Cut="6.7795799255371094e+01" cType="1" res="6.1676613986492157e-02" rms="4.1785091161727905e-01" purity="4.9838212132453918e-01" nType="0">
        <Node pos="l" depth="1" NCoef="0" IVar="2" Cut="1.2073497009277344e+02" cType="1" res="1.0661402344703674e-01" rms="4.0740746259689331e-01" purity="5.5006527900695801e-01" nType="0">
          <Node pos="l" depth="2" NCoef="0" IVar="-1" Cut="0.0000000000000000e+00" cType="1" res="8.1139814938069321e-06" rms="3.9882442355155945e-01" purity="3.7249854207038879e-01" nType="-99"/>
          <Node pos="r" depth="2" NCoef="0" IVar="-1" Cut="0.0000000000000000e+00" cType="1" res="2.7008007746189833e-03" rms="3.5799360275268555e-01" purity="8.4271746873855591e-01" nType="-99"/>
        </Node>
        <Node pos="r" depth="1" NCoef="0" IVar="5" Cut="2.6928498744964600e+00" cType="1" res="-2.2604568302631378e-01" rms="3.6615303158760071e-01" purity="1.6746881604194641e-01" nType="0">
          <Node pos="l" depth="2" NCoef="0" IVar="-1" Cut="0.0000000000000000e+00" cType="1" res="-6.7854379303753376e-03" rms="3.1982690095901489e-01" purity="1.1906675249338150e-01" nType="-99"/>
          <Node pos="r" depth="2" NCoef="0" IVar="-1" Cut="0.0000000000000000e+00" cType="1" res="-3.2652935478836298e-03" rms="4.2428433895111084e-01" purity="2.5026032328605652e-01" nType="-99"/>
        </Node>
      </Node>
    </BinaryTree>
    <BinaryTree type="DecisionTree" boostWeight="1.0000000000000000e+00" itree="51">
      <Node pos="s" depth="0" NCoef="0" IVar="2" Cut="1.1704755401611328e+02" cType="1" res="6.3761107623577118e-02" rms="4.1749766469001770e-01" purity="5.0044739246368408e-01" nType="0">
        <Node pos="l" depth="1" NCoef="0" IVar="0" Cut="5.4539146423339844e+01" cType="1" res="-4.0029782801866531e-02" rms="3.9042136073112488e-01" purity="3.1977885961532593e-01" nType="0">
          <Node pos="l" depth="2" NCoef="0" IVar="-1" Cut="0.0000000000000000e+00" cType="1" res="-3.8874712772667408e-03" rms="3.4404411911964417e-01" purity="1.9288536906242371e-01" nType="-99"/>
          <Node pos="r" depth="2" NCoef="0" IVar="-1" Cut="0.0000000000000000e+00" cType="1" res="2.5317885447293520e-03" rms="4.0819710493087769e-01" purity="7.5952517986297607e-01" nType="-99"/>
        </Node>
        <Node pos="r" depth="1" NCoef="0" IVar="7" Cut="4.8789554595947266e+01" cType="1" res="1.9152377545833588e-01" rms="4.1430452466011047e-01" purity="7.2284340858459473e-01" nType="0">
          <Node pos="l" depth="2" NCoef="0" IVar="-1" Cut="0.0000000000000000e+00" cType="1" res="2.8723641298711300e-03" rms="3.2811617851257324e-01" purity="8.7705016136169434e-01" nType="-99"/>
          <Node pos="r" depth="2" NCoef="0" IVar="-1" Cut="0.0000000000000000e+00" cType="1" res="-1.7181887524202466e-03" rms="4.5997828245162964e-01" purity="3.3342170715332031e-01" nType="-99"/>
        </Node>
      </Node>
    </BinaryTree>
    <BinaryTree type="DecisionTree" boostWeight="1.0000000000000000e+00" itree="52">
      <Node pos="s" depth="0" NCoef="0" IVar="2" Cut="1.1750217437744141e+02" cType="1" res="6.3036717474460602e-02" rms="4.1676023602485657e-01" purity="4.9960854649543762e-01" nType="0">
        <Node pos="l" depth="1" NCoef="0" IVar="0" Cut="5.1870159149169922e+01" cType="1" res="-3.7838183343410492e-02" rms="3.9019477367401123e-01" purity="3.2135683298110962e-01" nType="0">
          <Node pos="l" depth="2" NCoef="0" IVar="-1" Cut="0.0000000000000000e+00" cType="1" res="-4.8039690591394901e-03" rms="3.3049303293228149e-01" purity="1.6898234188556671e-01" nType="-99"/>
          <Node pos="r" depth="2" NCoef="0" IVar="-1" Cut="0.0000000000000000e+00" cType="1" res="2.5284376461058855e-03" rms="4.0980657935142517e-01" purity="7.5620549917221069e-01" nType="-99"/>
        </Node>
        <Node pos="r" depth="1" NCoef="0" IVar="7" Cut="6.7795829772949219e+01" cType="1" res="1.8858852982521057e-01" rms="4.1465896368026733e-01" purity="7.2146576642990112e-01" nType="0">
          <Node pos="l" depth="2" NCoef="0" IVar="-1" Cut="0.0000000000000000e+00" cType="1" res="2.7156244032084942e-03" rms="3.5593229532241821e-01" purity="8.4545516967773438e-01" nType="-99"/>
          <Node pos="r" depth="2" NCoef="0" IVar="-1" Cut="0.0000000000000000e+00" cType="1" res="-4.0954863652586937e-03" rms="4.0811210870742798e-01" purity="2.1234542131423950e-01" nType="-99"/>
        </Node>
      </Node>
    </BinaryTree>
    <BinaryTree type="DecisionTree" boostWeight="1.0000000000000000e+00" itree="53">
      <Node pos="s" depth="0" NCoef="0" IVar="7" Cut="4.6425525665283203e+01" cType="1" res="6.4284972846508026e-02" rms="4.1626092791557312e-01" purity="5.0113976001739502e-01" nType="0">
        <Node pos="l" depth="1" NCoef="0" IVar="2" Cut="1.2162058258056641e+02" cType="1" res="1.3286773860454559e-01" rms="3.9787364006042480e-01" purity="5.8658003807067871e-01" nType="0">
          <Node pos="l" depth="2" NCoef="0" IVar="-1" Cut="0.0000000000000000e+00" cType="1" res="5.3715979447588325e-04" rms="4.0102252364158630e-01" purity="4.0879625082015991e-01" nType="-99"/>
          <Node pos="r" depth="2" NCoef="0" IVar="-1" Cut="0.0000000000000000e+00" cType="1" res="2.8104826342314482e-03" rms="3.2913216948509216e-01" purity="8.7624049186706543e-01" nType="-99"/>
        </Node>
        <Node pos="r" depth="1" NCoef="0" IVar="5" Cut="2.2439959049224854e+00" cType="1" res="-1.2982392311096191e-01" rms="4.0577211976051331e-01" purity="2.5931936502456665e-01" nType="0">
          <Node pos="l" depth="2" NCoef="0" IVar="-1" Cut="0.0000000000000000e+00" cType="1" res="-5.8144656941294670e-03" rms="3.4108465909957886e-01" purity="1.5383473038673401e-01" nType="-99"/>
          <Node pos="r" depth="2" NCoef="0" IVar="-1" Cut="0.0000000000000000e+00" cType="1" res="-1.4805041719228029e-03" rms="4.2765831947326660e-01" purity="3.1695759296417236e-01" nType="-99"/>
        </Node>
      </Node>
    </BinaryTree>
    <BinaryTree type="DecisionTree" boostWeight="1.0000000000000000e+00" itree="54">
      <Node pos="s" depth="0" NCoef="0" IVar="2" Cut="9.5842056274414062e+01" cType="1" res="6.3568197190761566e-02" rms="4.1545775532722473e-01" purity="5.0040596723556519e-01" nType="0">
        <Node pos="l" depth="1" NCoef="0" IVar="0" Cut="4.2609172821044922e+01" cType="1" res="-1.4859753847122192e-01" rms="2.9420021176338196e-01" purity="1.3350126147270203e-01" nType="0">
          <Node pos="l" depth="2" NCoef="0" IVar="-1" Cut="0.0000000000000000e+00" cType="1" res="-2.2068088874220848e-02" rms="1.7278930544853210e-01" purity="3.1931556761264801e-02" nType="-99"/>
          <Node pos="r" depth="2" NCoef="0" IVar="-1" Cut="0.0000000000000000e+00" cType="1" res="-8.7489388533867896e-05" rms="4.6560814976692200e-01" purity="4.1655465960502625e-01" nType="-99"/>
        </Node>
        <Node pos="r" depth="1" NCoef="0" IVar="7" Cut="4.8790466308593750e+01" cType="1" res="1.7592634260654449e-01" rms="4.2627817392349243e-01" purity="6.9471037387847900e-01" nType="0">
          <Node pos="l" depth="2" NCoef="0" IVar="-1" Cut="0.0000000000000000e+00" cType="1" res="2.6933490298688412e-03" rms="3.6746779084205627e-01" purity="8.2727563381195068e-01" nType="-99"/>
          <Node pos="r" depth="2" NCoef="0" IVar="-1" Cut="0.0000000000000000e+00" cType="1" res="-1.6299218405038118e-03" rms="4.5666420459747314e-01" purity="3.3562406897544861e-01" nType="-99"/>
        </Node>
      </Node>
    </BinaryTree>
    <BinaryTree type="DecisionTree" boostWeight="1.0000000000000000e+00" itree="55">
      <Node pos="s" depth="0" NCoef="0" IVar="7" Cut="4.8789443969726562e+01" cType="1" res="6.4047515392303467e-02" rms="4.1454285383224487e-01" purity="4.9838763475418091e-01" nType="0">
        <Node pos="l" depth="1" NCoef="0" IVar="2" Cut="1.2073497009277344e+02" cType="1" res="1.2732444703578949e-01" rms="3.9682549238204956e-01" purity="5.7800859212875366e-01" nType="0">
          <Node pos="l" depth="2" NCoef="0" IVar="-1" Cut="0.0000000000000000e+00" cType="1" res="4.3878573342226446e-04" rms="3.9707967638969421e-01" purity="3.9567127823829651e-01" nType="-99"/>
          <Node pos="r" depth="2" NCoef="0" IVar="-1" Cut="0.0000000000000000e+00" cType="1" res="2.7678178157657385e-03" rms="3.3403217792510986e-01" purity="8.7174725532531738e-01" nType="-99"/>
        </Node>
        <Node pos="r" depth="1" NCoef="0" IVar="5" Cut="2.2440016269683838e+00" cType="1" res="-1.2951111793518066e-01" rms="4.0756082534790039e-01" purity="2.5483393669128418e-01" nType="0">
          <Node pos="l" depth="2" NCoef="0" IVar="-1" Cut="0.0000000000000000e+00" cType="1" res="-5.8599524199962616e-03" rms="3.3582779765129089e-01" purity="1.4575968682765961e-01" nType="-99"/>
          <Node pos="r" depth="2" NCoef="0" IVar="-1" Cut="0.0000000000000000e+00" cType="1" res="-1.4614600222557783e-03" rms="4.3251278996467590e-01" purity="3.1542843580245972e-01" nType="-99"/>
        </Node>
      </Node>
    </BinaryTree>
    <BinaryTree type="DecisionTree" boostWeight="1.0000000000000000e+00" itree="56">
      <Node pos="s" depth="0" NCoef="0" IVar="2" Cut="9.2149330139160156e+01" cType="1" res="6.2814049422740936e-02" rms="4.1395995020866394e-01" purity="4.9778544902801514e-01" nType="0">
        <Node pos="l" depth="1" NCoef="0" IVar="0" Cut="4.1745273590087891e+01" cType="1" res="-1.5252633392810822e-01" rms="2.7437424659729004e-01" purity="1.1218733340501785e-01" nType="0">
          <Node pos="l" depth="2" NCoef="0" IVar="-1" Cut="0.0000000000000000e+00" cType="1" res="-2.6684204116463661e-02" rms="1.5615619719028473e-01" purity="2.5336869060993195e-02" nType="-99"/>
          <Node pos="r" depth="2" NCoef="0" IVar="-1" Cut="0.0000000000000000e+00" cType="1" res="-7.8893773024901748e-04" rms="4.5007273554801941e-01" purity="3.5571813583374023e-01" nType="-99"/>
        </Node>
        <Node pos="r" depth="1" NCoef="0" IVar="7" Cut="6.7795799255371094e+01" cType="1" res="1.6143213212490082e-01" rms="4.2942139506340027e-01" purity="6.7437541484832764e-01" nType="0">
          <Node pos="l" depth="2" NCoef="0" IVar="-1" Cut="0.0000000000000000e+00" cType="1" res="2.4249288253486156e-03" rms="3.9662489295005798e-01" purity="7.7157366275787354e-01" nType="-99"/>
          <Node pos="r" depth="2" NCoef="0" IVar="-1" Cut="0.0000000000000000e+00" cType="1" res="-4.6735191717743874e-03" rms="3.8978579640388489e-01" purity="1.9192488491535187e-01" nType="-99"/>
        </Node>
      </Node>
    </BinaryTree>
    <BinaryTree type="DecisionTree" boostWeight="1.0000000000000000e+00" itree="57">
      <Node pos="s" depth="0" NCoef="0" IVar="7" Cut="6.7795631408691406e+01" cType="1" res="6.7628793418407440e-02" rms="4.1212338209152222e-01" purity="5.0088852643966675e-01" nType="0">
        <Node pos="l" depth="1" NCoef="0" IVar="2" Cut="1.1704755401611328e+02" cType="1" res="1.1075894534587860e-01" rms="4.0148103237152100e-01" purity="5.5233311653137207e-01" nType="0">
          <Node pos="l" depth="2" NCoef="0" IVar="-1" Cut="0.0000000000000000e+00" cType="1" res="-2.0112178754061460e-04" rms="3.8908377289772034e-01" purity="3.4265351295471191e-01" nType="-99"/>
          <Node pos="r" depth="2" NCoef="0" IVar="-1" Cut="0.0000000000000000e+00" cType="1" res="2.6799773331731558e-03" rms="3.5561022162437439e-01" purity="8.4507745504379272e-01" nType="-99"/>
        </Node>
        <Node pos="r" depth="1" NCoef="0" IVar="5" Cut="2.6928508281707764e+00" cType="1" res="-2.0555114746093750e-01" rms="3.7185853719711304e-01" purity="1.7504617571830750e-01" nType="0">
          <Node pos="l" depth="2" NCoef="0" IVar="-1" Cut="0.0000000000000000e+00" cType="1" res="-6.0184583999216557e-03" rms="3.3315563201904297e-01" purity="1.3108628988265991e-01" nType="-99"/>
          <Node pos="r" depth="2" NCoef="0" IVar="-1" Cut="0.0000000000000000e+00" cType="1" res="-3.0452592764049768e-03" rms="4.2383661866188049e-01" purity="2.5151243805885315e-01" nType="-99"/>
        </Node>
      </Node>
    </BinaryTree>
    <BinaryTree type="DecisionTree" boostWeight="1.0000000000000000e+00" itree="58">
      <Node pos="s" depth="0" NCoef="0" IVar="7" Cut="4.8491458892822266e+01" cType="1" res="6.7614264786243439e-02" rms="4.1163507103919983e-01" purity="5.0149047374725342e-01" nType="0">
        <Node pos="l" depth="1" NCoef="0" IVar="2" Cut="1.2118959045410156e+02" cType="1" res="1.3079920411109924e-01" rms="3.9392566680908203e-01" purity="5.8240997791290283e-01" nType="0">
          <Node pos="l" depth="2" NCoef="0" IVar="-1" Cut="0.0000000000000000e+00" cType="1" res="5.6110927835106850e-04" rms="3.9570876955986023e-01" purity="4.0080863237380981e-01" nType="-99"/>
          <Node pos="r" depth="2" NCoef="0" IVar="-1" Cut="0.0000000000000000e+00" cType="1" res="2.7518689166754484e-03" rms="3.3241277933120728e-01" purity="8.7322282791137695e-01" nType="-99"/>
        </Node>
        <Node pos="r" depth="1" NCoef="0" IVar="5" Cut="2.2440011501312256e+00" cType="1" res="-1.2535524368286133e-01" rms="4.0445330739021301e-01" purity="2.5435894727706909e-01" nType="0">
          <Node pos="l" depth="2" NCoef="0" IVar="-1" Cut="0.0000000000000000e+00" cType="1" res="-5.6291343644261360e-03" rms="3.3830329775810242e-01" purity="1.4923925697803497e-01" nType="-99"/>
          <Node pos="r" depth="2" NCoef="0" IVar="-1" Cut="0.0000000000000000e+00" cType="1" res="-1.4060094254091382e-03" rms="4.2857739329338074e-01" purity="3.1432098150253296e-01" nType="-99"/>
        </Node>
      </Node>
    </BinaryTree>
    <BinaryTree type="DecisionTree" boostWeight="1.0000000000000000e+00" itree="59">
      <Node pos="s" depth="0" NCoef="0" IVar="7" Cut="4.8770240783691406e+01" cType="1" res="6.5762899816036224e-02" rms="4.1121980547904968e-01" purity="4.9975508451461792e-01" nType="0">
        <Node pos="l" depth="1" NCoef="0" IVar="2" Cut="1.2162058258056641e+02" cType="1" res="1.2797145545482635e-01" rms="3.9385652542114258e-01" purity="5.7975441217422485e-01" nType="0">
          <Node pos="l" depth="2" NCoef="0" IVar="-1" Cut="0.0000000000000000e+00" cType="1" res="5.6253478396683931e-04" rms="3.9506322145462036e-01" purity="4.0341565012931824e-01" nType="-99"/>
          <Node pos="r" depth="2" NCoef="0" IVar="-1" Cut="0.0000000000000000e+00" cType="1" res="2.7260186616331339e-03" rms="3.3440071344375610e-01" purity="8.7146192789077759e-01" nType="-99"/>
        </Node>
        <Node pos="r" depth="1" NCoef="0" IVar="5" Cut="2.3935978412628174e+00" cType="1" res="-1.2675498425960541e-01" rms="4.0413197875022888e-01" purity="2.5217968225479126e-01" nType="0">
          <Node pos="l" depth="2" NCoef="0" IVar="-1" Cut="0.0000000000000000e+00" cType="1" res="-5.2129896357655525e-03" rms="3.5129392147064209e-01" purity="1.6353000700473785e-01" nType="-99"/>
          <Node pos="r" depth="2" NCoef="0" IVar="-1" Cut="0.0000000000000000e+00" cType="1" res="-1.3345984043553472e-03" rms="4.2856597900390625e-01" purity="3.1526613235473633e-01" nType="-99"/>
        </Node>
      </Node>
    </BinaryTree>
    <BinaryTree type="DecisionTree" boostWeight="1.0000000000000000e+00" itree="60">
      <Node pos="s" depth="0" NCoef="0" IVar="7" Cut="4.8789432525634766e+01" cType="1" res="6.9139763712882996e-02" rms="4.1089442372322083e-01" purity="5.0406402349472046e-01" nType="0">
        <Node pos="l" depth="1" NCoef="0" IVar="2" Cut="1.2186699676513672e+02" cType="1" res="1.3030472397804260e-01" rms="3.9311635494232178e-01" purity="5.8364051580429077e-01" nType="0">
          <Node pos="l" depth="2" NCoef="0" IVar="-1" Cut="0.0000000000000000e+00" cType="1" res="6.1610311968252063e-04" rms="3.9604157209396362e-01" purity="4.0843021869659424e-01" nType="-99"/>
          <Node pos="r" depth="2" NCoef="0" IVar="-1" Cut="0.0000000000000000e+00" cType="1" res="2.7400569524616003e-03" rms="3.3064410090446472e-01" purity="8.7475878000259399e-01" nType="-99"/>
        </Node>
        <Node pos="r" depth="1" NCoef="0" IVar="5" Cut="2.2439951896667480e+00" cType="1" res="-1.1914998292922974e-01" rms="4.0726679563522339e-01" purity="2.5909644365310669e-01" nType="0">
          <Node pos="l" depth="2" NCoef="0" IVar="-1" Cut="0.0000000000000000e+00" cType="1" res="-5.4901679977774620e-03" rms="3.4074783325195312e-01" purity="1.5171942114830017e-01" nType="-99"/>
          <Node pos="r" depth="2" NCoef="0" IVar="-1" Cut="0.0000000000000000e+00" cType="1" res="-1.2690835865214467e-03" rms="4.3128526210784912e-01" purity="3.1931993365287781e-01" nType="-99"/>
        </Node>
      </Node>
    </BinaryTree>
    <BinaryTree type="DecisionTree" boostWeight="1.0000000000000000e+00" itree="61">
      <Node pos="s" depth="0" NCoef="0" IVar="7" Cut="6.7795631408691406e+01" cType="1" res="6.4486034214496613e-02" rms="4.1054132580757141e-01" purity="4.9831628799438477e-01" nType="0">
        <Node pos="l" depth="1" NCoef="0" IVar="2" Cut="1.1750217437744141e+02" cType="1" res="1.0699417442083359e-01" rms="4.0102887153625488e-01" purity="5.5019426345825195e-01" nType="0">
          <Node pos="l" depth="2" NCoef="0" IVar="-1" Cut="0.0000000000000000e+00" cType="1" res="-1.9041064660996199e-04" rms="3.8929432630538940e-01" purity="3.4466680884361267e-01" nType="-99"/>
          <Node pos="r" depth="2" NCoef="0" IVar="-1" Cut="0.0000000000000000e+00" cType="1" res="2.6397199835628271e-03" rms="3.5685285925865173e-01" purity="8.4363663196563721e-01" nType="-99"/>
        </Node>
        <Node pos="r" depth="1" NCoef="0" IVar="5" Cut="2.6927955150604248e+00" cType="1" res="-2.0807892084121704e-01" rms="3.6354863643646240e-01" purity="1.6567139327526093e-01" nType="0">
          <Node pos="l" depth="2" NCoef="0" IVar="-1" Cut="0.0000000000000000e+00" cType="1" res="-6.3682268373668194e-03" rms="3.1814724206924438e-01" purity="1.1756408959627151e-01" nType="-99"/>
          <Node pos="r" depth="2" NCoef="0" IVar="-1" Cut="0.0000000000000000e+00" cType="1" res="-3.0777850188314915e-03" rms="4.2254021763801575e-01" purity="2.4854093790054321e-01" nType="-99"/>
        </Node>
      </Node>
    </BinaryTree>
    <BinaryTree type="DecisionTree" boostWeight="1.0000000000000000e+00" itree="62">
      <Node pos="s" depth="0" NCoef="0" IVar="7" Cut="4.8789237976074219e+01" cType="1" res="6.5811231732368469e-02" rms="4.0982574224472046e-01" purity="4.9990049004554749e-01" nType="0">
        <Node pos="l" depth="1" NCoef="0" IVar="2" Cut="1.2186699676513672e+02" cType="1" res="1.2700220942497253e-01" rms="3.9322099089622498e-01" purity="5.8036667108535767e-01" nType="0">
          <Node pos="l" depth="2" NCoef="0" IVar="-1" Cut="0.0000000000000000e+00" cType="1" res="5.7054508943110704e-04" rms="3.9587080478668213e-01" purity="4.0481173992156982e-01" nType="-99"/>
          <Node pos="r" depth="2" NCoef="0" IVar="-1" Cut="0.0000000000000000e+00" cType="1" res="2.7199953328818083e-03" rms="3.3152121305465698e-01" purity="8.7398636341094971e-01" nType="-99"/>
        </Node>
        <Node pos="r" depth="1" NCoef="0" IVar="5" Cut="2.3935954570770264e+00" cType="1" res="-1.2495792657136917e-01" rms="4.0182372927665710e-01" purity="2.4903866648674011e-01" nType="0">
